{"learner":{"attributes":{"scikit_learn":"{\"_estimator_type\": \"classifier\"}"},"feature_names":["sharpness","glare","contrast","entropy","edge_density","mean_brightness","saturation"],"feature_types":["float","float","float","float","float","float","float"],"gradient_booster":{"model":{"gbtree_model_param":{"num_parallel_tree":"1","num_trees":"500"},"iteration_indptr":[0,1,2,3,4,5,6,7,8,9,10,11,12,13,14,15,16,17,18,19,20,21,22,23,24,25,26,27,28,29,30,31,32,33,34,35,36,37,38,39,40,41,42,43,44,45,46,47,48,49,50,51,52,53,54,55,56,57,58,59,60,61,62,63,64,65,66,67,68,69,70,71,72,73,74,75,76,77,78,79,80,81,82,83,84,85,86,87,88,89,90,91,92,93,94,95,96,97,98,99,100,101,102,103,104,105,106,107,108,109,110,111,112,113,114,115,116,117,118,119,120,121,122,123,124,125,126,127,128,129,130,131,132,133,134,135,136,137,138,139,140,141,142,143,144,145,146,147,148,149,150,151,152,153,154,155,156,157,158,159,160,161,162,163,164,165,166,167,168,169,170,171,172,173,174,175,176,177,178,179,180,181,182,183,184,185,186,187,188,189,190,191,192,193,194,195,196,197,198,199,200,201,202,203,204,205,206,207,208,209,210,211,212,213,214,215,216,217,218,219,220,221,222,223,224,225,226,227,228,229,230,231,232,233,234,235,236,237,238,239,240,241,242,243,244,245,246,247,248,249,250,251,252,253,254,255,256,257,258,259,260,261,262,263,264,265,266,267,268,269,270,271,272,273,274,275,276,277,278,279,280,281,282,283,284,285,286,287,288,289,290,291,292,293,294,295,296,297,298,299,300,301,302,303,304,305,306,307,308,309,310,311,312,313,314,315,316,317,318,319,320,321,322,323,324,325,326,327,328,329,330,331,332,333,334,335,336,337,338,339,340,341,342,343,344,345,346,347,348,349,350,351,352,353,354,355,356,357,358,359,360,361,362,363,364,365,366,367,368,369,370,371,372,373,374,375,376,377,378,379,380,381,382,383,384,385,386,387,388,389,390,391,392,393,394,395,396,397,398,399,400,401,402,403,404,405,406,407,408,409,410,411,412,413,414,415,416,417,418,419,420,421,422,423,424,425,426,427,428,429,430,431,432,433,434,435,436,437,438,439,440,441,442,443,444,445,446,447,448,449,450,451,452,453,454,455,456,457,458,459,460,461,462,463,464,465,466,467,468,469,470,471,472,473,474,475,476,477,478,479,480,481,482,483,484,485,486,487,488,489,490,491,492,493,494,495,496,497,498,499,500],"tree_info":[0,0,0,0,0,0,0,0,0,0,0,0,0,0,0,0,0,0,0,0,0,0,0,0,0,0,0,0,0,0,0,0,0,0,0,0,0,0,0,0,0,0,0,0,0,0,0,0,0,0,0,0,0,0,0,0,0,0,0,0,0,0,0,0,0,0,0,0,0,0,0,0,0,0,0,0,0,0,0,0,0,0,0,0,0,0,0,0,0,0,0,0,0,0,0,0,0,0,0,0,0,0,0,0,0,0,0,0,0,0,0,0,0,0,0,0,0,0,0,0,0,0,0,0,0,0,0,0,0,0,0,0,0,0,0,0,0,0,0,0,0,0,0,0,0,0,0,0,0,0,0,0,0,0,0,0,0,0,0,0,0,0,0,0,0,0,0,0,0,0,0,0,0,0,0,0,0,0,0,0,0,0,0,0,0,0,0,0,0,0,0,0,0,0,0,0,0,0,0,0,0,0,0,0,0,0,0,0,0,0,0,0,0,0,0,0,0,0,0,0,0,0,0,0,0,0,0,0,0,0,0,0,0,0,0,0,0,0,0,0,0,0,0,0,0,0,0,0,0,0,0,0,0,0,0,0,0,0,0,0,0,0,0,0,0,0,0,0,0,0,0,0,0,0,0,0,0,0,0,0,0,0,0,0,0,0,0,0,0,0,0,0,0,0,0,0,0,0,0,0,0,0,0,0,0,0,0,0,0,0,0,0,0,0,0,0,0,0,0,0,0,0,0,0,0,0,0,0,0,0,0,0,0,0,0,0,0,0,0,0,0,0,0,0,0,0,0,0,0,0,0,0,0,0,0,0,0,0,0,0,0,0,0,0,0,0,0,0,0,0,0,0,0,0,0,0,0,0,0,0,0,0,0,0,0,0,0,0,0,0,0,0,0,0,0,0,0,0,0,0,0,0,0,0,0,0,0,0,0,0,0,0,0,0,0,0,0,0,0,0,0,0,0,0,0,0,0,0,0,0,0,0,0,0,0,0,0,0,0,0,0,0,0,0,0,0,0,0,0,0,0,0,0,0,0,0,0,0,0,0,0,0,0,0,0,0,0,0,0,0,0,0,0,0,0,0,0,0,0,0,0,0,0,0,0,0,0,0,0,0,0,0,0,0,0,0,0,0,0,0],"trees":[{"base_weights":[-1.62206E-3,-9.894737E-2,8.7514585E-1,-9.80198E-2,1.7389985E0,-9.1111116E-2,9.9352755E-2],"categories":[],"categories_nodes":[],"categories_segments":[],"categories_sizes":[],"default_left":[0,0,0,0,0,0,0],"id":0,"left_children":[1,-1,3,-1,5,-1,-1],"loss_changes":[5.3613116E2,0E0,5.282124E2,0E0,1.4915836E2,0E0,0E0],"parents":[2147483647,0,0,2,2,4,4],"right_children":[2,-1,4,-1,6,-1,-1],"split_conditions":[1.0591318E-3,-9.894737E-2,2.5704148E-1,-9.80198E-2,5.731886E-2,-9.1111116E-2,9.9352755E-2],"split_indices":[1,0,6,0,0,0,0],"split_type":[0,0,0,0,0,0,0],"sum_hessian":[3.0725E2,9.4E1,2.1325E2,4.95E1,1.6375E2,1.025E1,1.535E2],"tree_param":{"num_deleted":"0","num_feature":"7","num_nodes":"7","size_leaf_vector":"1"}},{"base_weights":[-1.9352382E-2,-1.2829043E0,1.6923785E0,-1.8739079E0,1.6217893E0,-8.063533E-2,1.851698E0,-9.432876E-2,-8.1676465E-1,-5.7126492E-2,9.029211E-2,3.1719487E-2,9.332055E-2,-1.0596038E-2,-5.2905448E-2],"categories":[],"categories_nodes":[],"categories_segments":[],"categories_sizes":[],"default_left":[0,0,0,0,0,0,0,0,0,0,0,0,0,0,0],"id":1,"left_children":[1,3,5,7,9,-1,11,-1,13,-1,-1,-1,-1,-1,-1],"loss_changes":[6.591636E2,3.0402136E2,7.1141174E1,4.1619873E-1,1.7417221E1,0E0,1.0358887E0,0E0,2.8579926E-1,0E0,0E0,0E0,0E0,0E0,0E0],"parents":[2147483647,0,0,1,1,2,2,3,3,4,4,6,6,8,8],"right_children":[2,4,6,8,10,-1,12,-1,14,-1,-1,-1,-1,-1,-1],"split_conditions":[6.5670294E-1,9.094763E-1,6.589406E-1,6.4102453E-1,4.526374E-1,-8.063533E-2,6.58975E-1,-9.432876E-2,9.696074E-2,-5.7126492E-2,9.029211E-2,3.1719487E-2,9.332055E-2,-1.0596038E-2,-5.2905448E-2],"split_indices":[2,3,3,2,2,0,2,0,1,0,0,0,0,0,0],"split_type":[0,0,0,0,0,0,0,0,0,0,0,0,0,0,0],"sum_hessian":[3.0276083E2,1.743276E2,1.2843324E2,1.451496E2,2.9178005E1,5.48681E0,1.22946434E2,1.4265562E2,2.4939718E0,1.4963572E0,2.7681648E1,1.9951054E0,1.20951324E2,1.2469696E0,1.2470024E0],"tree_param":{"num_deleted":"0","num_feature":"7","num_nodes":"15","size_leaf_vector":"1"}},{"base_weights":[2.965837E-2,-9.0267636E-2,8.590406E-1,-8.968066E-2,1.6347764E0,-8.12883E-2,9.072971E-2],"categories":[],"categories_nodes":[],"categories_segments":[],"categories_sizes":[],"default_left":[0,0,0,0,0,0,0],"id":2,"left_children":[1,-1,3,-1,5,-1,-1],"loss_changes":[4.5778787E2,0E0,4.291728E2,0E0,9.722339E1,0E0,0E0],"parents":[2147483647,0,0,2,2,4,4],"right_children":[2,-1,4,-1,6,-1,-1],"split_conditions":[1.0591318E-3,-9.0267636E-2,2.5704148E-1,-8.968066E-2,5.731886E-2,-8.12883E-2,9.072971E-2],"split_indices":[1,0,6,0,0,0,0],"split_type":[0,0,0,0,0,0,0],"sum_hessian":[2.9877615E2,9.263785E1,2.061383E2,4.634566E1,1.5979263E2,7.931617E0,1.5186102E2],"tree_param":{"num_deleted":"0","num_feature":"7","num_nodes":"7","size_leaf_vector":"1"}},{"base_weights":[3.2425456E-2,-8.6257815E-2,7.204872E-1,1.2467697E0,-8.4420495E-2,-8.486856E-2,1.715884E0,8.687871E-2,5.132462E-1,-2.8957246E-2,5.80494E-2],"categories":[],"categories_nodes":[],"categories_segments":[],"categories_sizes":[],"default_left":[0,0,0,0,0,0,0,0,0,0,0],"id":3,"left_children":[1,-1,3,5,-1,-1,7,-1,9,-1,-1],"loss_changes":[3.6887927E2,0E0,2.7997076E2,2.521453E2,0E0,0E0,3.1814575E0,0E0,3.6340482E0,0E0,0E0],"parents":[2147483647,0,0,2,2,3,3,6,6,8,8],"right_children":[2,-1,4,6,-1,-1,8,-1,10,-1,-1],"split_conditions":[3.288192E-1,-8.6257815E-2,5.007477E-1,2.4046305E-1,-8.4420495E-2,-8.486856E-2,4.900874E-1,8.687871E-2,7.514952E-1,-2.8957246E-2,5.80494E-2],"split_indices":[4,0,6,6,0,0,6,0,3,0,0],"split_type":[0,0,0,0,0,0,0,0,0,0,0],"sum_hessian":[3.030013E2,8.4822876E1,2.1817844E2,1.7945462E2,3.872382E1,2.430421E1,1.551504E2,1.5196483E2,3.1855865E0,1.2252135E0,1.9603729E0],"tree_param":{"num_deleted":"0","num_feature":"7","num_nodes":"11","size_leaf_vector":"1"}},{"base_weights":[1.3669661E-2,-1.0886334E0,1.4957954E0,-1.6631024E0,1.5069844E0,-7.530741E-2,8.392892E-2,-8.372029E-2,-3.278522E-2,-4.7159173E-2,8.183419E-2],"categories":[],"categories_nodes":[],"categories_segments":[],"categories_sizes":[],"default_left":[0,0,0,0,0,0,0,0,0,0,0],"id":4,"left_children":[1,3,5,7,9,-1,-1,-1,-1,-1,-1],"loss_changes":[4.8644446E2,2.5712665E2,7.220828E1,4.9960327E-1,1.1544067E1,0E0,0E0,0E0,0E0,0E0,0E0],"parents":[2147483647,0,0,1,1,2,2,3,3,4,4],"right_children":[2,4,6,8,10,-1,-1,-1,-1,-1,-1],"split_conditions":[6.5670294E-1,9.094763E-1,2.5704148E-1,6.4102453E-1,4.526374E-1,-7.530741E-2,8.392892E-2,-8.372029E-2,-3.278522E-2,-4.7159173E-2,8.183419E-2],"split_indices":[2,3,6,2,2,0,0,0,0,0,0],"split_type":[0,0,0,0,0,0,0,0,0,0,0],"sum_hessian":[2.9575015E2,1.697599E2,1.25990234E2,1.3929094E2,3.0468973E1,6.8155003E0,1.19174736E2,1.370906E2,2.2003222E0,1.2164677E0,2.9252506E1],"tree_param":{"num_deleted":"0","num_feature":"7","num_nodes":"11","size_leaf_vector":"1"}},{"base_weights":[7.4653323E-3,-1.079637E0,1.4688281E0,-1.602638E0,1.3979335E0,-7.167164E-2,8.1169255E-2,-8.099201E-2,1.4353822E-3,-4.984249E-2,1.5514747E0,2.4616048E-2,7.897172E-2],"categories":[],"categories_nodes":[],"categories_segments":[],"categories_sizes":[],"default_left":[0,0,0,0,0,0,0,0,0,0,0,0,0],"id":5,"left_children":[1,3,5,7,9,-1,-1,-1,-1,-1,11,-1,-1],"loss_changes":[4.766122E2,2.2516318E2,5.9731598E1,4.0460205E0,1.2768925E1,0E0,0E0,0E0,0E0,0E0,8.3351135E-2,0E0,0E0],"parents":[2147483647,0,0,1,1,2,2,3,3,4,4,10,10],"right_children":[2,4,6,8,10,-1,-1,-1,-1,-1,12,-1,-1],"split_conditions":[6.5670294E-1,9.094763E-1,2.526339E-1,6.506326E-1,4.526374E-1,-7.167164E-2,8.1169255E-2,-8.099201E-2,1.4353822E-3,-4.984249E-2,2.7733788E-1,2.4616048E-2,7.897172E-2],"split_indices":[2,3,6,2,2,0,0,0,0,0,6,0,0],"split_type":[0,0,0,0,0,0,0,0,0,0,0,0,0],"sum_hessian":[2.9801245E2,1.7103864E2,1.26973816E2,1.4151813E2,2.952052E1,6.001606E0,1.20972206E2,1.4004839E2,1.4697356E0,1.4477384E0,2.807278E1,1.2005982E0,2.6872183E1],"tree_param":{"num_deleted":"0","num_feature":"7","num_nodes":"13","size_leaf_vector":"1"}},{"base_weights":[9.564803E-3,-7.849007E-2,7.1686566E-1,-7.8227006E-2,1.4171753E0,-7.064484E-2,7.8899905E-2],"categories":[],"categories_nodes":[],"categories_segments":[],"categories_sizes":[],"default_left":[0,0,0,0,0,0,0],"id":6,"left_children":[1,-1,3,-1,5,-1,-1],"loss_changes":[3.2100476E2,0E0,3.1930295E2,0E0,7.1582245E1,0E0,0E0],"parents":[2147483647,0,0,2,2,4,4],"right_children":[2,-1,4,-1,6,-1,-1],"split_conditions":[1.0591318E-3,-7.849007E-2,2.5704148E-1,-7.8227006E-2,4.7430304E-1,-7.064484E-2,7.8899905E-2],"split_indices":[1,0,6,0,3,0,0],"split_type":[0,0,0,0,0,0,0],"sum_hessian":[2.853514E2,8.7886345E1,1.9746506E2,4.6088387E1,1.5137668E2,7.721012E0,1.4365567E2],"tree_param":{"num_deleted":"0","num_feature":"7","num_nodes":"7","size_leaf_vector":"1"}},{"base_weights":[-8.678905E-3,-1.0147372E0,1.3760787E0,-1.4965295E0,5.740743E-1,-6.795936E-2,7.641765E-2,-7.596574E-2,-5.8751176E-3,1.2922306E0,-7.047531E-2,-5.167774E-2,7.445603E-2],"categories":[],"categories_nodes":[],"categories_segments":[],"categories_sizes":[],"default_left":[0,0,0,0,0,0,0,0,0,0,0,0,0],"id":7,"left_children":[1,3,5,7,9,-1,-1,-1,-1,11,-1,-1,-1],"loss_changes":[3.9535855E2,1.26676544E2,5.1817413E1,3.7930908E0,5.7331367E1,0E0,0E0,0E0,0E0,1.487891E1,0E0,0E0,0E0],"parents":[2147483647,0,0,1,1,2,2,3,3,4,4,9,9],"right_children":[2,4,6,8,10,-1,-1,-1,-1,12,-1,-1,-1],"split_conditions":[6.5852034E-1,6.532889E-1,2.5704148E-1,6.506326E-1,5.166286E-1,-6.795936E-2,7.641765E-2,-7.596574E-2,-5.8751176E-3,4.6370462E-1,-7.047531E-2,-5.167774E-2,7.445603E-2],"split_indices":[2,4,6,2,5,0,0,0,0,2,0,0,0],"split_type":[0,0,0,0,0,0,0,0,0,0,0,0,0],"sum_hessian":[2.817858E2,1.6336475E2,1.1842105E2,1.25397285E2,3.796746E1,5.8269525E0,1.125941E2,1.2325897E2,2.1383154E0,2.8131113E1,9.836347E0,1.8639207E0,2.6267193E1],"tree_param":{"num_deleted":"0","num_feature":"7","num_nodes":"13","size_leaf_vector":"1"}},{"base_weights":[5.165717E-4,-9.6646863E-1,1.3121514E0,-1.4688308E0,1.2409334E0,-6.761771E-2,7.446092E-2,-7.429766E-2,1.5495424E-3,-5.1003158E-2,1.4251071E0,7.258972E-2,2.102822E-2],"categories":[],"categories_nodes":[],"categories_segments":[],"categories_sizes":[],"default_left":[0,0,0,0,0,0,0,0,0,0,0,0,0],"id":8,"left_children":[1,3,5,7,9,-1,-1,-1,-1,-1,11,-1,-1],"loss_changes":[3.5145526E2,1.7870224E2,5.7494247E1,3.3946228E0,1.3993221E1,0E0,0E0,0E0,0E0,0E0,1.4708328E-1,0E0,0E0],"parents":[2147483647,0,0,1,1,2,2,3,3,4,4,10,10],"right_children":[2,4,6,8,10,-1,-1,-1,-1,-1,12,-1,-1],"split_conditions":[6.5670294E-1,9.094763E-1,2.5704148E-1,6.506326E-1,4.526374E-1,-6.761771E-2,7.446092E-2,-7.429766E-2,1.5495424E-3,-5.1003158E-2,8.5493976E-1,7.258972E-2,2.102822E-2],"split_indices":[2,3,6,2,2,0,0,0,0,0,4,0,0],"split_type":[0,0,0,0,0,0,0,0,0,0,0,0,0],"sum_hessian":[2.751006E2,1.5850677E2,1.1659383E2,1.2939381E2,2.9112953E1,6.8517113E0,1.0974212E2,1.2794245E2,1.4513706E0,1.8509755E0,2.7261976E1,2.6122757E1,1.13922E0],"tree_param":{"num_deleted":"0","num_feature":"7","num_nodes":"13","size_leaf_vector":"1"}},{"base_weights":[5.853882E-3,-9.457681E-1,1.2635633E0,-7.253207E-2,1.2343967E0,-6.6555366E-2,7.265612E-2,-4.9776208E-2,7.096351E-2],"categories":[],"categories_nodes":[],"categories_segments":[],"categories_sizes":[],"default_left":[0,0,0,0,0,0,0,0,0],"id":9,"left_children":[1,3,5,-1,7,-1,-1,-1,-1],"loss_changes":[3.2042453E2,1.6954828E2,5.8650024E1,0E0,1.3449898E1,0E0,0E0,0E0,0E0],"parents":[2147483647,0,0,1,1,2,2,4,4],"right_children":[2,4,6,-1,8,-1,-1,-1,-1],"split_conditions":[6.5670294E-1,9.094763E-1,2.5704148E-1,-7.253207E-2,4.526374E-1,-6.6555366E-2,7.265612E-2,-4.9776208E-2,7.096351E-2],"split_indices":[2,3,6,0,2,0,0,0,0],"split_type":[0,0,0,0,0,0,0,0,0],"sum_hessian":[2.6572162E2,1.5140894E2,1.14312675E2,1.2321089E2,2.8198036E1,7.372758E0,1.0693992E2,1.8231026E0,2.6374935E1],"tree_param":{"num_deleted":"0","num_feature":"7","num_nodes":"9","size_leaf_vector":"1"}},{"base_weights":[6.3673615E-2,-9.312151E-1,1.2610208E0,-1.4159589E0,1.2602385E0,-6.4708106E-2,7.117557E-2,-7.116881E-2,-2.5675122E-2,-4.0009897E-2,6.918233E-2],"categories":[],"categories_nodes":[],"categories_segments":[],"categories_sizes":[],"default_left":[0,0,0,0,0,0,0,0,0,0,0],"id":10,"left_children":[1,3,5,7,9,-1,-1,-1,-1,-1,-1],"loss_changes":[3.105159E2,1.5306354E2,5.094925E1,5.2841187E-2,7.8006287E0,0E0,0E0,0E0,0E0,0E0,0E0],"parents":[2147483647,0,0,1,1,2,2,3,3,4,4],"right_children":[2,4,6,8,10,-1,-1,-1,-1,-1,-1],"split_conditions":[6.506326E-1,9.094763E-1,2.5704148E-1,9.0042686E-1,4.526374E-1,-6.4708106E-2,7.117557E-2,-7.116881E-2,-2.5675122E-2,-4.0009897E-2,6.918233E-2],"split_indices":[2,3,6,3,2,0,0,0,0,0,0],"split_type":[0,0,0,0,0,0,0,0,0,0,0],"sum_hessian":[2.586831E2,1.4140797E2,1.1727515E2,1.160843E2,2.5323671E1,6.5955033E0,1.1067964E2,1.1456546E2,1.5188409E0,1.1211216E0,2.4202549E1],"tree_param":{"num_deleted":"0","num_feature":"7","num_nodes":"11","size_leaf_vector":"1"}},{"base_weights":[-3.967072E-2,-9.619028E-1,1.241233E0,-1.3672733E0,1.1586373E0,-6.1660673E-2,6.950995E-2,-1.3827057E0,-3.3835414E-1,-4.268471E-2,1.3126369E0,-6.969533E-2,-5.3964895E-1,-3.811794E-2,1.2420993E-2,6.72757E-2,1.6987946E-2,-1.7645787E-3,-3.962598E-2],"categories":[],"categories_nodes":[],"categories_segments":[],"categories_sizes":[],"default_left":[0,0,0,0,0,0,0,0,0,0,0,0,0,0,0,0,0,0,0],"id":11,"left_children":[1,3,5,7,9,-1,-1,11,13,-1,15,-1,17,-1,-1,-1,-1,-1,-1],"loss_changes":[3.001634E2,1.285549E2,4.0926544E1,1.5084381E0,8.63446E0,0E0,0E0,4.0266418E-1,9.763602E-1,0E0,2.758522E-1,0E0,3.8465106E-1,0E0,0E0,0E0,0E0,0E0,0E0],"parents":[2147483647,0,0,1,1,2,2,3,3,4,4,7,7,8,8,10,10,12,12],"right_children":[2,4,6,8,10,-1,-1,12,14,-1,16,-1,18,-1,-1,-1,-1,-1,-1],"split_conditions":[6.5670294E-1,9.171197E-1,2.5704148E-1,9.030963E-1,4.526374E-1,-6.1660673E-2,6.950995E-2,6.4102453E-1,4.4418237E-1,-4.268471E-2,8.493674E-1,-6.969533E-2,4.753995E-1,-3.811794E-2,1.2420993E-2,6.72757E-2,1.6987946E-2,-1.7645787E-3,-3.962598E-2],"split_indices":[2,3,6,3,2,0,0,2,2,0,4,0,4,0,0,0,0,0,0],"split_type":[0,0,0,0,0,0,0,0,0,0,0,0,0,0,0,0,0,0,0],"sum_hessian":[2.5208713E2,1.4670831E2,1.0537881E2,1.2346206E2,2.3246256E1,5.570464E0,9.980834E1,1.2129891E2,2.163148E0,1.3295372E0,2.191672E1,1.19063614E2,2.2352953E0,1.0820312E0,1.0811167E0,2.0829779E1,1.0869406E0,1.1270089E0,1.1082865E0],"tree_param":{"num_deleted":"0","num_feature":"7","num_nodes":"19","size_leaf_vector":"1"}},{"base_weights":[2.6395055E-2,-6.805506E-2,6.224813E-1,-6.793567E-2,1.21695E0,-6.108221E-2,6.853659E-2],"categories":[],"categories_nodes":[],"categories_segments":[],"categories_sizes":[],"default_left":[0,0,0,0,0,0,0],"id":12,"left_children":[1,-1,3,-1,5,-1,-1],"loss_changes":[2.040827E2,0E0,2.0490161E2,0E0,5.1652115E1,0E0,0E0],"parents":[2147483647,0,0,2,2,4,4],"right_children":[2,-1,4,-1,6,-1,-1],"split_conditions":[1.0591318E-3,-6.805506E-2,2.5704148E-1,-6.793567E-2,5.731886E-2,-6.108221E-2,6.853659E-2],"split_indices":[1,0,6,0,0,0,0],"split_type":[0,0,0,0,0,0,0],"sum_hessian":[2.4473021E2,7.315818E1,1.7157202E2,3.9302483E1,1.3226955E2,7.4344053E0,1.2483514E2],"tree_param":{"num_deleted":"0","num_feature":"7","num_nodes":"7","size_leaf_vector":"1"}},{"base_weights":[-2.3200924E-2,-8.751874E-1,1.1828471E0,-1.3079706E0,1.164994E0,-5.9150673E-2,6.687087E-2,-6.674504E-2,5.5069465E-2,-4.0466163E-2,6.519431E-2,4.2132676E-2,-3.8728323E-2],"categories":[],"categories_nodes":[],"categories_segments":[],"categories_sizes":[],"default_left":[0,0,0,0,0,0,0,0,0,0,0,0,0],"id":13,"left_children":[1,3,5,7,9,-1,-1,-1,11,-1,-1,-1,-1],"loss_changes":[2.47733E2,1.26259155E2,3.808426E1,4.368881E0,7.9797935E0,0E0,0E0,0E0,2.7616067E0,0E0,0E0,0E0,0E0],"parents":[2147483647,0,0,1,1,2,2,3,3,4,4,8,8],"right_children":[2,4,6,8,10,-1,-1,-1,12,-1,-1,-1,-1],"split_conditions":[6.5852034E-1,9.094763E-1,2.5704148E-1,6.506326E-1,4.526374E-1,-5.9150673E-2,6.687087E-2,-6.674504E-2,3.318774E-2,-4.0466163E-2,6.519431E-2,4.2132676E-2,-3.8728323E-2],"split_indices":[2,3,6,2,2,0,0,0,1,0,0,0,0],"split_type":[0,0,0,0,0,0,0,0,0,0,0,0,0],"sum_hessian":[2.3908662E2,1.4027016E2,9.8816475E1,1.1601814E2,2.425201E1,5.6520696E0,9.3164406E1,1.1379058E2,2.227563E0,1.2767222E0,2.2975288E1,1.1346933E0,1.0928695E0],"tree_param":{"num_deleted":"0","num_feature":"7","num_nodes":"13","size_leaf_vector":"1"}},{"base_weights":[-1.0504703E-4,-8.63668E-1,1.1590451E0,-1.3113691E0,1.1413362E0,-5.8772307E-2,6.5880224E-2,-6.594696E-2,-1.8049767E-2,-3.969287E-2,6.4002156E-2],"categories":[],"categories_nodes":[],"categories_segments":[],"categories_sizes":[],"default_left":[0,0,0,0,0,0,0,0,0,0,0],"id":14,"left_children":[1,3,5,7,9,-1,-1,-1,-1,-1,-1],"loss_changes":[2.2943192E2,1.19400764E2,3.7770065E1,2.9968262E-1,7.595314E0,0E0,0E0,0E0,0E0,0E0,0E0],"parents":[2147483647,0,0,1,1,2,2,3,3,4,4],"right_children":[2,4,6,8,10,-1,-1,-1,-1,-1,-1],"split_conditions":[6.506326E-1,9.094763E-1,2.5704148E-1,9.030963E-1,4.526374E-1,-5.8772307E-2,6.5880224E-2,-6.594696E-2,-1.8049767E-2,-3.969287E-2,6.4002156E-2],"split_indices":[2,3,6,3,2,0,0,0,0,0,0],"split_type":[0,0,0,0,0,0,0,0,0,0,0],"sum_hessian":[2.2720288E2,1.3034856E2,9.685432E1,1.0683837E2,2.3510185E1,5.7520957E0,9.110223E1,1.0560936E2,1.2290157E0,1.2565099E0,2.2253675E1],"tree_param":{"num_deleted":"0","num_feature":"7","num_nodes":"11","size_leaf_vector":"1"}},{"base_weights":[-5.474711E-3,-8.335754E-1,1.1277649E0,-1.2781564E0,1.075194E0,-5.4958083E-2,1.2515191E0,-1.289968E0,-4.639631E-3,-4.161732E-2,1.2263132E0,2.5173545E-2,6.310105E-2,-6.48798E-2,-1.7621636E-2,6.2896185E-2,1.3088589E-2],"categories":[],"categories_nodes":[],"categories_segments":[],"categories_sizes":[],"default_left":[0,0,0,0,0,0,0,0,0,0,0,0,0,0,0,0,0],"id":15,"left_children":[1,3,5,7,9,-1,11,13,-1,-1,15,-1,-1,-1,-1,-1,-1],"loss_changes":[2.1164656E2,1.1195175E2,2.7618484E1,1.3664551E0,8.273384E0,0E0,7.699585E-2,2.937317E-1,0E0,0E0,3.9383316E-1,0E0,0E0,0E0,0E0,0E0,0E0],"parents":[2147483647,0,0,1,1,2,2,3,3,4,4,6,6,7,7,10,10],"right_children":[2,4,6,8,10,-1,12,14,-1,-1,16,-1,-1,-1,-1,-1,-1],"split_conditions":[6.5670294E-1,9.094763E-1,6.589406E-1,6.506326E-1,4.526374E-1,-5.4958083E-2,6.58975E-1,9.030963E-1,-4.639631E-3,-4.161732E-2,8.5493976E-1,2.5173545E-2,6.310105E-2,-6.48798E-2,-1.7621636E-2,6.2896185E-2,1.3088589E-2],"split_indices":[2,3,3,2,2,0,2,3,0,0,4,0,0,0,0,0,0],"split_type":[0,0,0,0,0,0,0,0,0,0,0,0,0,0,0,0,0],"sum_hessian":[2.2352927E2,1.2930539E2,9.422387E1,1.0514575E2,2.4159643E1,4.5455694E0,8.96783E1,1.0402098E2,1.1247652E0,1.4425685E0,2.2717075E1,1.9191575E0,8.775914E1,1.0280054E2,1.2204471E0,2.1701687E1,1.015389E0],"tree_param":{"num_deleted":"0","num_feature":"7","num_nodes":"17","size_leaf_vector":"1"}},{"base_weights":[-2.415324E-2,-8.488986E-1,1.1012452E0,-1.2555342E0,1.0565519E0,-5.4691244E-2,6.1778303E-2,-6.359643E-2,-3.4586158E-1,-3.82049E-2,1.196936E0,1.2656291E-2,-3.7061002E-2,6.1641075E-2,1.4817207E-2],"categories":[],"categories_nodes":[],"categories_segments":[],"categories_sizes":[],"default_left":[0,0,0,0,0,0,0,0,0,0,0,0,0,0,0],"id":16,"left_children":[1,3,5,7,9,-1,-1,-1,11,-1,13,-1,-1,-1,-1],"loss_changes":[2.000597E2,9.769133E1,2.8231117E1,1.0954742E0,6.644001E0,0E0,0E0,0E0,9.4450015E-1,0E0,3.1985283E-1,0E0,0E0,0E0,0E0],"parents":[2147483647,0,0,1,1,2,2,3,3,4,4,8,8,10,10],"right_children":[2,4,6,8,10,-1,-1,-1,12,-1,14,-1,-1,-1,-1],"split_conditions":[6.5670294E-1,9.171197E-1,6.589406E-1,9.030963E-1,4.526374E-1,-5.4691244E-2,6.1778303E-2,-6.359643E-2,4.8060137E-1,-3.82049E-2,1.162781E-2,1.2656291E-2,-3.7061002E-2,6.1641075E-2,1.4817207E-2],"split_indices":[2,3,3,3,2,0,0,0,0,0,1,0,0,0,0],"split_type":[0,0,0,0,0,0,0,0,0,0,0,0,0,0,0],"sum_hessian":[2.1353554E2,1.233699E2,9.016563E1,1.0195345E2,2.1416449E1,4.7873554E0,8.537827E1,9.975738E1,2.1960778E0,1.2150805E0,2.0201368E1,1.0162164E0,1.1798614E0,1.9072495E1,1.1288738E0],"tree_param":{"num_deleted":"0","num_feature":"7","num_nodes":"15","size_leaf_vector":"1"}},{"base_weights":[-5.390265E-3,-8.3736795E-1,1.1283957E0,-6.2226195E-2,5.0497574E-1,-5.4805417E-2,6.297625E-2,1.0547111E0,-5.5721045E-2,-4.003411E-2,6.0918998E-2],"categories":[],"categories_nodes":[],"categories_segments":[],"categories_sizes":[],"default_left":[0,0,0,0,0,0,0,0,0,0,0],"id":17,"left_children":[1,3,5,-1,7,-1,-1,9,-1,-1,-1],"loss_changes":[1.9769511E2,6.6692345E1,2.7255348E1,0E0,2.6852085E1,0E0,0E0,7.6703987E0,0E0,0E0,0E0],"parents":[2147483647,0,0,1,1,2,2,4,4,7,7],"right_children":[2,4,6,-1,8,-1,-1,10,-1,-1,-1],"split_conditions":[6.506326E-1,6.532889E-1,2.526339E-1,-6.2226195E-2,1.6566189E-2,-5.4805417E-2,6.297625E-2,1.2328055E-4,-5.5721045E-2,-4.003411E-2,6.0918998E-2],"split_indices":[2,4,6,0,1,0,0,1,0,0,0],"split_type":[0,0,0,0,0,0,0,0,0,0,0],"sum_hessian":[2.0757994E2,1.1987587E2,8.770406E1,9.2033424E1,2.784245E1,4.4725103E0,8.323155E1,2.1046509E1,6.795942E0,1.3905681E0,1.9655941E1],"tree_param":{"num_deleted":"0","num_feature":"7","num_nodes":"11","size_leaf_vector":"1"}},{"base_weights":[-1.8874572E-3,-6.1810464E-2,4.7188798E-1,8.764204E-1,-6.0083456E-2,-6.0134895E-2,1.2298412E0,1.133741E-2,6.1879247E-2],"categories":[],"categories_nodes":[],"categories_segments":[],"categories_sizes":[],"default_left":[0,0,0,0,0,0,0,0,0],"id":18,"left_children":[1,-1,3,5,-1,-1,7,-1,-1],"loss_changes":[1.19324066E2,0E0,1.0087952E2,8.916078E1,0E0,0E0,5.1545715E-1,0E0,0E0],"parents":[2147483647,0,0,2,2,3,3,6,6],"right_children":[2,-1,4,6,-1,-1,8,-1,-1],"split_conditions":[3.2701892E-1,-6.1810464E-2,5.007477E-1,2.4046305E-1,-6.0083456E-2,-6.0134895E-2,3.3015817E-1,1.133741E-2,6.1879247E-2],"split_indices":[4,0,6,6,0,0,4,0,0],"split_type":[0,0,0,0,0,0,0,0,0],"sum_hessian":[2.0204799E2,5.5595745E1,1.4645224E2,1.1832663E2,2.8125614E1,1.684241E1,1.0148422E2,1.0094255E0,1.0047479E2],"tree_param":{"num_deleted":"0","num_feature":"7","num_nodes":"9","size_leaf_vector":"1"}},{"base_weights":[-4.23604E-2,-6.117E-2,5.0010985E-1,-6.12096E-2,1.0790664E0,-5.3872395E-2,6.1655786E-2],"categories":[],"categories_nodes":[],"categories_segments":[],"categories_sizes":[],"default_left":[0,0,0,0,0,0,0],"id":19,"left_children":[1,-1,3,-1,5,-1,-1],"loss_changes":[1.270397E2,0E0,1.3702295E2,0E0,3.5312424E1,0E0,0E0],"parents":[2147483647,0,0,2,2,4,4],"right_children":[2,-1,4,-1,6,-1,-1],"split_conditions":[1.0591318E-3,-6.117E-2,2.5704148E-1,-6.12096E-2,4.5666608E-1,-5.3872395E-2,6.1655786E-2],"split_indices":[1,0,6,0,3,0,0],"split_type":[0,0,0,0,0,0,0],"sum_hessian":[1.9633421E2,6.14006E1,1.3493361E2,3.363733E1,1.0129629E2,6.353957E0,9.494233E1],"tree_param":{"num_deleted":"0","num_feature":"7","num_nodes":"7","size_leaf_vector":"1"}},{"base_weights":[-1.23463655E-2,-6.0369145E-2,5.2058727E-1,-6.029577E-2,1.0571368E0,-5.379608E-2,6.0970612E-2],"categories":[],"categories_nodes":[],"categories_segments":[],"categories_sizes":[],"default_left":[0,0,0,0,0,0,0],"id":20,"left_children":[1,-1,3,-1,5,-1,-1],"loss_changes":[1.2299683E2,0E0,1.2501601E2,0E0,3.6771317E1,0E0,0E0],"parents":[2147483647,0,0,2,2,4,4],"right_children":[2,-1,4,-1,6,-1,-1],"split_conditions":[1.0591318E-3,-6.0369145E-2,2.5704148E-1,-6.029577E-2,4.7430304E-1,-5.379608E-2,6.0970612E-2],"split_indices":[1,0,6,0,3,0,0],"split_type":[0,0,0,0,0,0,0],"sum_hessian":[1.9113858E2,5.8559883E1,1.325787E2,3.113745E1,1.0144125E2,6.773646E0,9.466761E1],"tree_param":{"num_deleted":"0","num_feature":"7","num_nodes":"7","size_leaf_vector":"1"}},{"base_weights":[7.237363E-3,-5.9678163E-2,5.258794E-1,-5.9351314E-2,1.0647558E0,-5.1946163E-2,6.025348E-2],"categories":[],"categories_nodes":[],"categories_segments":[],"categories_sizes":[],"default_left":[0,0,0,0,0,0,0],"id":21,"left_children":[1,-1,3,-1,5,-1,-1],"loss_changes":[1.1413473E2,0E0,1.1939171E2,0E0,3.014289E1,0E0,0E0],"parents":[2147483647,0,0,2,2,4,4],"right_children":[2,-1,4,-1,6,-1,-1],"split_conditions":[1.0591318E-3,-5.9678163E-2,2.526339E-1,-5.9351314E-2,4.7430304E-1,-5.1946163E-2,6.025348E-2],"split_indices":[1,0,6,0,3,0,0],"split_type":[0,0,0,0,0,0,0],"sum_hessian":[1.8125703E2,5.4280724E1,1.269763E2,3.0099E1,9.6877304E1,5.6571484E0,9.122015E1],"tree_param":{"num_deleted":"0","num_feature":"7","num_nodes":"7","size_leaf_vector":"1"}},{"base_weights":[-1.658452E-3,-5.89929E-2,5.2056605E-1,-5.8842648E-2,1.0495095E0,-5.120602E-2,5.963048E-2],"categories":[],"categories_nodes":[],"categories_segments":[],"categories_sizes":[],"default_left":[0,0,0,0,0,0,0],"id":22,"left_children":[1,-1,3,-1,5,-1,-1],"loss_changes":[1.0643056E2,0E0,1.0884648E2,0E0,2.849414E1,0E0,0E0],"parents":[2147483647,0,0,2,2,4,4],"right_children":[2,-1,4,-1,6,-1,-1],"split_conditions":[1.0591318E-3,-5.89929E-2,2.5704148E-1,-5.8842648E-2,4.7430304E-1,-5.120602E-2,5.963048E-2],"split_indices":[1,0,6,0,3,0,0],"split_type":[0,0,0,0,0,0,0],"sum_hessian":[1.7097952E2,5.212351E1,1.1885601E2,2.7947021E1,9.090899E1,5.4711514E0,8.5437836E1],"tree_param":{"num_deleted":"0","num_feature":"7","num_nodes":"7","size_leaf_vector":"1"}},{"base_weights":[4.3636137E-3,-7.6101756E-1,1.0418937E0,-1.140656E0,4.734983E-1,-4.9020167E-2,5.8560975E-2,-5.8205992E-2,2.2788432E-3,9.571653E-1,-5.1339477E-2,-3.57561E-2,5.6282938E-2],"categories":[],"categories_nodes":[],"categories_segments":[],"categories_sizes":[],"default_left":[0,0,0,0,0,0,0,0,0,0,0,0,0],"id":23,"left_children":[1,3,5,7,9,-1,-1,-1,-1,11,-1,-1,-1],"loss_changes":[1.3570581E2,4.663234E1,2.012156E1,2.15477E0,1.8280037E1,0E0,0E0,0E0,0E0,6.029978E0,0E0,0E0,0E0],"parents":[2147483647,0,0,1,1,2,2,3,3,4,4,9,9],"right_children":[2,4,6,8,10,-1,-1,-1,-1,12,-1,-1,-1],"split_conditions":[6.5852034E-1,6.532889E-1,2.5704148E-1,6.506326E-1,1.3905872E-2,-4.9020167E-2,5.8560975E-2,-5.8205992E-2,2.2788432E-3,1.2328055E-4,-5.1339477E-2,-3.57561E-2,5.6282938E-2],"split_indices":[2,4,6,2,1,0,0,0,0,1,0,0,0],"split_type":[0,0,0,0,0,0,0,0,0,0,0,0,0],"sum_hessian":[1.6889282E2,9.734695E1,7.1545876E1,7.4509735E1,2.2837214E1,3.9047942E0,6.764108E1,7.308279E1,1.4269487E0,1.75435E1,5.293711E0,1.308867E0,1.6234634E1],"tree_param":{"num_deleted":"0","num_feature":"7","num_nodes":"13","size_leaf_vector":"1"}},{"base_weights":[-1.7396899E-2,-7.7371E-1,1.0149738E0,-1.1486336E0,9.208498E-1,-4.9788304E-2,5.80046E-2,-5.7901055E-2,-1.0843059E-2,-3.3590972E-2,1.071781E0,1.31119555E-2,5.5454303E-2],"categories":[],"categories_nodes":[],"categories_segments":[],"categories_sizes":[],"default_left":[0,0,0,0,0,0,0,0,0,0,0,0,0],"id":24,"left_children":[1,3,5,7,9,-1,-1,-1,-1,-1,11,-1,-1],"loss_changes":[1.2778612E2,6.106282E1,2.1349922E1,4.292221E-1,4.966611E0,0E0,0E0,0E0,0E0,0E0,2.0811462E-1,0E0,0E0],"parents":[2147483647,0,0,1,1,2,2,3,3,4,4,10,10],"right_children":[2,4,6,8,10,-1,-1,-1,-1,-1,12,-1,-1],"split_conditions":[6.5670294E-1,9.094763E-1,2.5704148E-1,9.030963E-1,4.526374E-1,-4.9788304E-2,5.80046E-2,-5.7901055E-2,-1.0843059E-2,-3.3590972E-2,2.782821E-1,1.31119555E-2,5.5454303E-2],"split_indices":[2,3,6,3,2,0,0,0,0,0,6,0,0],"split_type":[0,0,0,0,0,0,0,0,0,0,0,0,0],"sum_hessian":[1.616557E2,9.344707E1,6.8208626E1,7.678127E1,1.6665794E1,4.196783E0,6.401184E1,7.577503E1,1.0062467E0,1.1438979E0,1.5521896E1,1.0374831E0,1.4484413E1],"tree_param":{"num_deleted":"0","num_feature":"7","num_nodes":"13","size_leaf_vector":"1"}},{"base_weights":[-1.3796772E-2,-5.7341367E-2,4.917309E-1,-5.7128962E-2,1.011438E0,-4.968847E-2,5.801006E-2],"categories":[],"categories_nodes":[],"categories_segments":[],"categories_sizes":[],"default_left":[0,0,0,0,0,0,0],"id":25,"left_children":[1,-1,3,-1,5,-1,-1],"loss_changes":[9.190476E1,0E0,9.54095E1,0E0,2.642694E1,0E0,0E0],"parents":[2147483647,0,0,2,2,4,4],"right_children":[2,-1,4,-1,6,-1,-1],"split_conditions":[1.0591318E-3,-5.7341367E-2,2.5704148E-1,-5.7128962E-2,5.731886E-2,-4.968847E-2,5.801006E-2],"split_indices":[1,0,6,0,0,0,0],"split_type":[0,0,0,0,0,0,0],"sum_hessian":[1.5846979E2,4.849969E1,1.099701E2,2.6243696E1,8.37264E1,5.39023E0,7.8336174E1],"tree_param":{"num_deleted":"0","num_feature":"7","num_nodes":"7","size_leaf_vector":"1"}},{"base_weights":[-6.8340297E-3,-7.6410836E-1,9.930006E-1,-5.665337E-2,9.0748775E-1,-4.394607E-2,1.0957319E0,-2.4741514E-2,1.0410905E0,6.7786E-3,5.5598296E-2,5.4012913E-2,1.3032386E-2],"categories":[],"categories_nodes":[],"categories_segments":[],"categories_sizes":[],"default_left":[0,0,0,0,0,0,0,0,0,0,0,0,0],"id":26,"left_children":[1,3,5,-1,7,-1,9,-1,11,-1,-1,-1,-1],"loss_changes":[1.1226756E2,5.3062057E1,1.325267E1,0E0,3.477229E0,0E0,8.0049896E-1,0E0,1.6953087E-1,0E0,0E0,0E0,0E0],"parents":[2147483647,0,0,1,1,2,2,4,4,6,6,8,8],"right_children":[2,4,6,-1,8,-1,10,-1,12,-1,-1,-1,-1],"split_conditions":[6.506326E-1,9.094763E-1,4.8894447E-1,-5.665337E-2,4.672833E-1,-4.394607E-2,6.5670294E-1,-2.4741514E-2,8.493674E-1,6.7786E-3,5.5598296E-2,5.4012913E-2,1.3032386E-2],"split_indices":[2,3,3,0,2,0,2,0,4,0,0,0,0],"split_type":[0,0,0,0,0,0,0,0,0,0,0,0,0],"sum_hessian":[1.4627457E2,8.336769E1,6.2906883E1,6.855763E1,1.4810056E1,2.879653E0,6.0027233E1,1.0530722E0,1.3756984E1,1.1535172E0,5.8873714E1,1.2733758E1,1.0232253E0],"tree_param":{"num_deleted":"0","num_feature":"7","num_nodes":"13","size_leaf_vector":"1"}},{"base_weights":[-7.4381065E-3,-7.5636494E-1,9.894775E-1,-1.1090083E0,8.932333E-1,-4.7735047E-2,5.6534268E-2,-1.123177E0,-1.702048E-2,-3.3814006E-2,5.3811997E-2,-5.6697726E-2,-1.3504374E-2],"categories":[],"categories_nodes":[],"categories_segments":[],"categories_sizes":[],"default_left":[0,0,0,0,0,0,0,0,0,0,0,0,0],"id":27,"left_children":[1,3,5,7,9,-1,-1,11,-1,-1,-1,-1,-1],"loss_changes":[1.1000475E2,4.992924E1,1.8432087E1,3.773117E-1,5.142808E0,0E0,0E0,3.194809E-1,0E0,0E0,0E0,0E0,0E0],"parents":[2147483647,0,0,1,1,2,2,3,3,4,4,7,7],"right_children":[2,4,6,8,10,-1,-1,12,-1,-1,-1,-1,-1],"split_conditions":[6.5670294E-1,9.094763E-1,2.5704148E-1,6.4102453E-1,4.526374E-1,-4.7735047E-2,5.6534268E-2,9.0042686E-1,-1.702048E-2,-3.3814006E-2,5.3811997E-2,-5.6697726E-2,-1.3504374E-2],"split_indices":[2,3,6,2,2,0,0,3,0,0,0,0,0],"split_type":[0,0,0,0,0,0,0,0,0,0,0,0,0],"sum_hessian":[1.4533522E2,8.3127495E1,6.2207733E1,6.8756714E1,1.4370779E1,3.8221817E0,5.838555E1,6.705918E1,1.6975389E0,1.219201E0,1.3151579E1,6.589744E1,1.1617393E0],"tree_param":{"num_deleted":"0","num_feature":"7","num_nodes":"13","size_leaf_vector":"1"}},{"base_weights":[-6.574124E-3,-7.2967744E-1,9.8678356E-1,-1.0817692E0,3.4904483E-1,-4.328819E-2,5.492378E-2,-5.5216815E-2,-5.3653686E-4,8.8791066E-1,-4.9430143E-2,-3.2745924E-2,5.3270906E-2],"categories":[],"categories_nodes":[],"categories_segments":[],"categories_sizes":[],"default_left":[0,0,0,0,0,0,0,0,0,0,0,0,0],"id":28,"left_children":[1,3,5,7,9,-1,-1,-1,-1,11,-1,-1,-1],"loss_changes":[9.848008E1,3.05112E1,1.2902493E1,1.4397812E0,1.5495566E1,0E0,0E0,0E0,0E0,4.8010244E0,0E0,0E0,0E0],"parents":[2147483647,0,0,1,1,2,2,3,3,4,4,9,9],"right_children":[2,4,6,8,10,-1,-1,-1,-1,12,-1,-1,-1],"split_conditions":[6.5852034E-1,6.532889E-1,2.8338316E-1,6.506326E-1,1.6566189E-2,-4.328819E-2,5.492378E-2,-5.5216815E-2,-5.3653686E-4,1.2328055E-4,-4.9430143E-2,-3.2745924E-2,5.3270906E-2],"split_indices":[2,4,4,2,1,0,0,0,0,1,0,0,0],"split_type":[0,0,0,0,0,0,0,0,0,0,0,0,0],"sum_hessian":[1.3509915E2,7.833878E1,5.6760372E1,5.9059204E1,1.927958E1,2.8436487E0,5.3916725E1,5.7810047E1,1.249157E0,1.3982858E1,5.296721E0,1.165267E0,1.2817591E1],"tree_param":{"num_deleted":"0","num_feature":"7","num_nodes":"13","size_leaf_vector":"1"}},{"base_weights":[-1.6376311E-2,-7.314309E-1,9.741444E-1,-1.0884451E0,8.9727986E-1,-4.144393E-2,5.3696375E-2,-1.1047285E0,-1.5081066E-2,-1.19079305E-2,1.0064132E0,-5.582738E-2,-1.4531175E-2,5.244387E-2,1.3074781E-2],"categories":[],"categories_nodes":[],"categories_segments":[],"categories_sizes":[],"default_left":[0,0,0,0,0,0,0,0,0,0,0,0,0,0,0],"id":29,"left_children":[1,3,5,7,9,-1,-1,11,-1,-1,13,-1,-1,-1,-1],"loss_changes":[9.447853E1,4.6014637E1,1.0952789E1,4.8653412E-1,2.0331945E0,0E0,0E0,2.7503967E-1,0E0,0E0,1.4946842E-1,0E0,0E0,0E0,0E0],"parents":[2147483647,0,0,1,1,2,2,3,3,4,4,7,7,10,10],"right_children":[2,4,6,8,10,-1,-1,12,-1,-1,14,-1,-1,-1,-1],"split_conditions":[6.5852034E-1,9.094763E-1,6.589406E-1,6.4102453E-1,4.0424377E-1,-4.144393E-2,5.3696375E-2,9.0042686E-1,-1.5081066E-2,-1.19079305E-2,7.4263734E-1,-5.582738E-2,-1.4531175E-2,5.244387E-2,1.3074781E-2],"split_indices":[2,3,3,2,5,0,0,3,0,0,0,0,0,0,0],"split_type":[0,0,0,0,0,0,0,0,0,0,0,0,0,0,0],"sum_hessian":[1.3138618E2,7.645504E1,5.4931145E1,6.298124E1,1.3473803E1,2.4974182E0,5.2433727E1,6.130842E1,1.6728175E0,1.0778134E0,1.2395989E1,6.006489E1,1.2435265E0,1.1341426E1,1.054564E0],"tree_param":{"num_deleted":"0","num_feature":"7","num_nodes":"15","size_leaf_vector":"1"}},{"base_weights":[4.443406E-3,-5.5055182E-2,4.8888916E-1,8.377314E-1,-5.294276E-2,-4.9273603E-2,1.0239676E0,5.5760603E-2,6.66734E-1,-4.457606E-2,5.2184667E-2],"categories":[],"categories_nodes":[],"categories_segments":[],"categories_sizes":[],"default_left":[0,0,0,0,0,0,0,0,0,0,0],"id":30,"left_children":[1,-1,3,5,-1,-1,7,-1,9,-1,-1],"loss_changes":[6.906971E1,0E0,4.9298134E1,2.6043842E1,0E0,0E0,1.45298E0,0E0,1.0444454E1,0E0,0E0],"parents":[2147483647,0,0,2,2,3,3,6,6,8,8],"right_children":[2,-1,4,6,-1,-1,8,-1,10,-1,-1],"split_conditions":[1.0591318E-3,-5.5055182E-2,6.378973E-1,5.731886E-2,-5.294276E-2,-4.9273603E-2,4.7615945E-2,5.5760603E-2,1.4454353E-1,-4.457606E-2,5.2184667E-2],"split_indices":[1,0,5,0,0,0,1,0,1,0,0],"split_type":[0,0,0,0,0,0,0,0,0,0,0],"sum_hessian":[1.26957924E2,3.829424E1,8.866368E1,7.272999E1,1.5933694E1,6.342921E0,6.638707E1,5.119027E1,1.5196797E1,2.6942813E0,1.2502516E1],"tree_param":{"num_deleted":"0","num_feature":"7","num_nodes":"11","size_leaf_vector":"1"}},{"base_weights":[-4.232573E-4,-5.4629635E-2,4.6379688E-1,-5.4674726E-2,9.750297E-1,-4.503134E-2,5.5379212E-2],"categories":[],"categories_nodes":[],"categories_segments":[],"categories_sizes":[],"default_left":[0,0,0,0,0,0,0],"id":31,"left_children":[1,-1,3,-1,5,-1,-1],"loss_changes":[6.337188E1,0E0,7.0896835E1,0E0,1.7546734E1,0E0,0E0],"parents":[2147483647,0,0,2,2,4,4],"right_children":[2,-1,4,-1,6,-1,-1],"split_conditions":[1.0591318E-3,-5.4629635E-2,2.5704148E-1,-5.4674726E-2,5.731886E-2,-4.503134E-2,5.5379212E-2],"split_indices":[1,0,6,0,0,0,0],"split_type":[0,0,0,0,0,0,0],"sum_hessian":[1.2299263E2,3.6280945E1,8.6711685E1,2.1149183E1,6.55625E1,3.9450698E0,6.161743E1],"tree_param":{"num_deleted":"0","num_feature":"7","num_nodes":"7","size_leaf_vector":"1"}},{"base_weights":[-1.8061219E-2,-7.256053E-1,9.7028583E-1,-1.0614306E0,8.330904E-1,-4.2394277E-2,5.4515827E-2,-1.0772792E0,-1.0186538E-2,-1.5361759E-2,9.675046E-1,-5.471729E-2,-1.2834052E-2,1.2357926E-2,5.0673325E-2],"categories":[],"categories_nodes":[],"categories_segments":[],"categories_sizes":[],"default_left":[0,0,0,0,0,0,0,0,0,0,0,0,0,0,0],"id":32,"left_children":[1,3,5,7,9,-1,-1,11,-1,-1,13,-1,-1,-1,-1],"loss_changes":[8.226325E1,3.6762962E1,1.1637066E1,5.5307007E-1,2.2454262E0,0E0,0E0,4.973297E-1,0E0,0E0,1.3393784E-1,0E0,0E0,0E0,0E0],"parents":[2147483647,0,0,1,1,2,2,3,3,4,4,7,7,10,10],"right_children":[2,4,6,8,10,-1,-1,12,-1,-1,14,-1,-1,-1,-1],"split_conditions":[6.5670294E-1,9.171197E-1,2.5704148E-1,9.030963E-1,4.6857154E-1,-4.2394277E-2,5.4515827E-2,6.4102453E-1,-1.0186538E-2,-1.5361759E-2,2.7886537E-1,-5.471729E-2,-1.2834052E-2,1.2357926E-2,5.0673325E-2],"split_indices":[2,3,6,3,2,0,0,2,0,0,6,0,0,0,0],"split_type":[0,0,0,0,0,0,0,0,0,0,0,0,0,0,0],"sum_hessian":[1.1562993E2,6.75428E1,4.8087128E1,5.5832554E1,1.1710249E1,2.6024525E0,4.5484676E1,5.456823E1,1.2643234E0,1.0992066E0,1.0611042E1,5.312965E1,1.4385788E0,1.0189419E0,9.5921E0],"tree_param":{"num_deleted":"0","num_feature":"7","num_nodes":"15","size_leaf_vector":"1"}},{"base_weights":[-1.8692086E-3,-6.826429E-1,9.374764E-1,-1.0600703E0,7.9274505E-1,-3.953131E-2,5.206594E-2,-5.438906E-2,-9.15947E-4,-3.211686E-2,9.740392E-1,5.196741E-2,7.5804605E-3],"categories":[],"categories_nodes":[],"categories_segments":[],"categories_sizes":[],"default_left":[0,0,0,0,0,0,0,0,0,0,0,0,0],"id":33,"left_children":[1,3,5,7,9,-1,-1,-1,-1,-1,11,-1,-1],"loss_changes":[7.318584E1,3.7789696E1,9.453213E0,1.5177307E0,4.2911644E0,0E0,0E0,0E0,0E0,0E0,5.356293E-1,0E0,0E0],"parents":[2147483647,0,0,1,1,2,2,3,3,4,4,10,10],"right_children":[2,4,6,8,10,-1,-1,-1,-1,-1,12,-1,-1],"split_conditions":[6.5852034E-1,9.030963E-1,6.589406E-1,6.506326E-1,4.4418237E-1,-3.953131E-2,5.206594E-2,-5.438906E-2,-9.15947E-4,-3.211686E-2,4.9426404E-1,5.196741E-2,7.5804605E-3],"split_indices":[2,3,3,2,2,0,0,0,0,0,5,0,0],"split_type":[0,0,0,0,0,0,0,0,0,0,0,0,0],"sum_hessian":[1.124448E2,6.535397E1,4.7090828E1,5.226521E1,1.3088765E1,2.2944152E0,4.4796413E1,5.0867924E1,1.3972842E0,1.1828144E0,1.1905951E1,1.0785708E1,1.1202415E0],"tree_param":{"num_deleted":"0","num_feature":"7","num_nodes":"13","size_leaf_vector":"1"}},{"base_weights":[-1.28685655E-2,-6.947481E-1,9.1093695E-1,-5.410179E-2,8.5963875E-1,-3.759993E-2,1.0032443E0,-9.086687E-3,9.641578E-1,7.495397E-3,5.1072758E-2,5.0409134E-2,1.4644121E-2],"categories":[],"categories_nodes":[],"categories_segments":[],"categories_sizes":[],"default_left":[0,0,0,0,0,0,0,0,0,0,0,0,0],"id":34,"left_children":[1,3,5,-1,7,-1,9,-1,11,-1,-1,-1,-1],"loss_changes":[6.85423E1,3.861001E1,7.8483505E0,0E0,1.594738E0,0E0,5.3393555E-1,0E0,5.9675217E-2,0E0,0E0,0E0,0E0],"parents":[2147483647,0,0,1,1,2,2,4,4,6,6,8,8],"right_children":[2,4,6,-1,8,-1,10,-1,12,-1,-1,-1,-1],"split_conditions":[6.506326E-1,9.094763E-1,6.589406E-1,-5.410179E-2,4.6857154E-1,-3.759993E-2,6.5670294E-1,-9.086687E-3,1.12775415E-2,7.495397E-3,5.1072758E-2,5.0409134E-2,1.4644121E-2],"split_indices":[2,3,3,0,2,0,2,0,1,0,0,0,0],"split_type":[0,0,0,0,0,0,0,0,0,0,0,0,0],"sum_hessian":[1.06805725E2,6.159164E1,4.5214085E1,4.95498E1,1.204184E1,2.001945E0,4.321214E1,1.0309768E0,1.1010862E1,1.0958104E0,4.211633E1,9.862172E0,1.1486907E0],"tree_param":{"num_deleted":"0","num_feature":"7","num_nodes":"13","size_leaf_vector":"1"}},{"base_weights":[4.4649686E-3,-7.1266043E-1,9.2631835E-1,-1.0611221E0,7.6350355E-1,-4.4868324E-2,5.387191E-2,-5.3759933E-2,-1.4998289E-2,-3.036486E-2,9.478288E-1,4.9734563E-2,1.3391121E-2],"categories":[],"categories_nodes":[],"categories_segments":[],"categories_sizes":[],"default_left":[0,0,0,0,0,0,0,0,0,0,0,0,0],"id":35,"left_children":[1,3,5,7,9,-1,-1,-1,-1,-1,11,-1,-1],"loss_changes":[7.131655E1,3.202326E1,1.3974758E1,2.0795059E-1,3.6506681E0,0E0,0E0,0E0,0E0,0E0,8.78973E-2,0E0,0E0],"parents":[2147483647,0,0,1,1,2,2,3,3,4,4,10,10],"right_children":[2,4,6,8,10,-1,-1,-1,-1,-1,12,-1,-1],"split_conditions":[6.506326E-1,9.094763E-1,2.5704148E-1,9.0042686E-1,4.526374E-1,-4.4868324E-2,5.387191E-2,-5.3759933E-2,-1.4998289E-2,-3.036486E-2,7.031489E-1,4.9734563E-2,1.3391121E-2],"split_indices":[2,3,6,3,2,0,0,0,0,0,0,0,0],"split_type":[0,0,0,0,0,0,0,0,0,0,0,0,0],"sum_hessian":[1.0587953E2,5.968021E1,4.619932E1,4.8510124E1,1.1170085E1,3.157472E0,4.304185E1,4.7224194E1,1.2859287E0,1.0519774E0,1.0118108E1,9.032845E0,1.0852628E0],"tree_param":{"num_deleted":"0","num_feature":"7","num_nodes":"13","size_leaf_vector":"1"}},{"base_weights":[-8.342499E-3,-6.828697E-1,8.873521E-1,-5.19737E-2,4.009583E-1,-4.031543E-2,5.077864E-2,8.7462157E-1,-4.4191007E-2,-7.2312118E-3,4.9661443E-2],"categories":[],"categories_nodes":[],"categories_segments":[],"categories_sizes":[],"default_left":[0,0,0,0,0,0,0,0,0,0,0],"id":36,"left_children":[1,3,5,-1,7,-1,-1,9,-1,-1,-1],"loss_changes":[6.0175606E1,2.2372803E1,1.0111202E1,0E0,9.770678E0,0E0,0E0,1.5103445E0,0E0,0E0,0E0],"parents":[2147483647,0,0,1,1,2,2,4,4,7,7],"right_children":[2,4,6,-1,8,-1,-1,10,-1,-1,-1],"split_conditions":[6.5670294E-1,6.532889E-1,2.8338316E-1,-5.19737E-2,1.6566189E-2,-4.031543E-2,5.077864E-2,3.472597E-3,-4.4191007E-2,-7.2312118E-3,4.9661443E-2],"split_indices":[2,4,4,0,1,0,0,1,0,0,0],"split_type":[0,0,0,0,0,0,0,0,0,0,0],"sum_hessian":[9.759746E1,5.580762E1,4.1789837E1,4.2022255E1,1.3785364E1,2.5689013E0,3.9220936E1,1.0305315E1,3.4800496E0,1.0513381E0,9.253977E0],"tree_param":{"num_deleted":"0","num_feature":"7","num_nodes":"11","size_leaf_vector":"1"}},{"base_weights":[1.4343694E-3,-6.840549E-1,8.777642E-1,-5.317029E-2,8.280433E-1,-4.5767624E-2,5.3187903E-2,-1.4262891E-2,4.9395397E-2],"categories":[],"categories_nodes":[],"categories_segments":[],"categories_sizes":[],"default_left":[0,0,0,0,0,0,0,0,0],"id":37,"left_children":[1,3,5,-1,7,-1,-1,-1,-1],"loss_changes":[5.8379242E1,3.215988E1,1.5198967E1,0E0,2.328342E0,0E0,0E0,0E0,0E0],"parents":[2147483647,0,0,1,1,2,2,4,4],"right_children":[2,4,6,-1,8,-1,-1,-1,-1],"split_conditions":[6.506326E-1,9.030963E-1,2.5704148E-1,-5.317029E-2,4.6857154E-1,-4.5767624E-2,5.3187903E-2,-1.4262891E-2,4.9395397E-2],"split_indices":[2,3,6,0,2,0,0,0,0],"split_type":[0,0,0,0,0,0,0,0,0],"sum_hessian":[9.518343E1,5.3530117E1,4.165332E1,4.303129E1,1.049883E1,3.5459874E0,3.810733E1,1.2197934E0,9.2790365E0],"tree_param":{"num_deleted":"0","num_feature":"7","num_nodes":"9","size_leaf_vector":"1"}},{"base_weights":[-5.039569E-3,-6.8190265E-1,8.980638E-1,-1.0295295E0,3.3182487E-1,-4.279791E-2,5.2941408E-2,-5.2721906E-2,-4.2098314E-1,7.661706E-1,-4.3338828E-2,-3.0025696E-2,-8.065517E-4,-3.054418E-2,4.905192E-2],"categories":[],"categories_nodes":[],"categories_segments":[],"categories_sizes":[],"default_left":[0,0,0,0,0,0,0,0,0,0,0,0,0,0,0],"id":38,"left_children":[1,3,5,7,9,-1,-1,-1,11,13,-1,-1,-1,-1,-1],"loss_changes":[5.6381924E1,1.8919277E1,1.2049404E1,1.5483475E-1,8.066048E0,0E0,0E0,0E0,2.2419316E-1,3.8442402E0,0E0,0E0,0E0,0E0,0E0],"parents":[2147483647,0,0,1,1,2,2,3,3,4,4,8,8,9,9],"right_children":[2,4,6,8,10,-1,-1,-1,12,14,-1,-1,-1,-1,-1],"split_conditions":[6.506326E-1,6.532889E-1,2.5704148E-1,6.1033607E-1,1.6566189E-2,-4.279791E-2,5.2941408E-2,-5.2721906E-2,4.3232167E-1,1.2328055E-4,-4.3338828E-2,-3.0025696E-2,-8.065517E-4,-3.054418E-2,4.905192E-2],"split_indices":[2,4,6,4,1,0,0,0,2,1,0,0,0,0,0],"split_type":[0,0,0,0,0,0,0,0,0,0,0,0,0,0,0],"sum_hessian":[9.023441E1,5.171768E1,3.851673E1,3.8499775E1,1.3217908E1,2.8707767E0,3.5645954E1,3.6281986E1,2.2177906E0,9.9669075E0,3.2510002E0,1.2016356E0,1.0161549E0,1.0965056E0,8.870401E0],"tree_param":{"num_deleted":"0","num_feature":"7","num_nodes":"15","size_leaf_vector":"1"}},{"base_weights":[-4.6450805E-2,-5.177648E-2,3.4066465E-1,6.71731E-1,-4.924362E-2,-5.044523E-2,5.2485067E-2],"categories":[],"categories_nodes":[],"categories_segments":[],"categories_sizes":[],"default_left":[0,0,0,0,0,0,0],"id":39,"left_children":[1,-1,3,5,-1,-1,-1],"loss_changes":[3.2398823E1,0E0,2.7389183E1,3.2393627E1,0E0,0E0,0E0],"parents":[2147483647,0,0,2,2,3,3],"right_children":[2,-1,4,6,-1,-1,-1],"split_conditions":[3.2701892E-1,-5.177648E-2,5.007477E-1,2.4046305E-1,-4.924362E-2,-5.044523E-2,5.2485067E-2],"split_indices":[4,0,6,6,0,0,0],"split_type":[0,0,0,0,0,0,0],"sum_hessian":[8.2695694E1,2.2790653E1,5.990504E1,4.8327896E1,1.1577146E1,8.566756E0,3.976114E1],"tree_param":{"num_deleted":"0","num_feature":"7","num_nodes":"7","size_leaf_vector":"1"}},{"base_weights":[1.5740619E-3,-6.540644E-1,8.4930825E-1,-5.234766E-2,7.024414E-1,-4.4404447E-2,5.231458E-2,-3.0766431E-2,9.119383E-1,7.3813978E-3,4.9369697E-2],"categories":[],"categories_nodes":[],"categories_segments":[],"categories_sizes":[],"default_left":[0,0,0,0,0,0,0,0,0,0,0],"id":40,"left_children":[1,3,5,-1,7,-1,-1,-1,9,-1,-1],"loss_changes":[4.6859913E1,2.6073524E1,1.3512493E1,0E0,3.6740494E0,0E0,0E0,0E0,4.385624E-1,0E0,0E0],"parents":[2147483647,0,0,1,1,2,2,4,4,8,8],"right_children":[2,4,6,-1,8,-1,-1,-1,10,-1,-1],"split_conditions":[6.506326E-1,9.030963E-1,2.5704148E-1,-5.234766E-2,4.6370462E-1,-4.4404447E-2,5.231458E-2,-3.0766431E-2,2.7886537E-1,7.3813978E-3,4.9369697E-2],"split_indices":[2,3,6,0,2,0,0,0,6,0,0],"split_type":[0,0,0,0,0,0,0,0,0,0,0],"sum_hessian":[8.231021E1,4.6542583E1,3.5767628E1,3.626674E1,1.0275845E1,3.2850418E0,3.2482582E1,1.143825E0,9.13202E0,1.08619E0,8.04583E0],"tree_param":{"num_deleted":"0","num_feature":"7","num_nodes":"11","size_leaf_vector":"1"}},{"base_weights":[-9.809658E-3,-6.667068E-1,8.488991E-1,-5.218647E-2,7.8998154E-1,-4.2966146E-2,5.204143E-2,-1.6569663E-2,4.793055E-2],"categories":[],"categories_nodes":[],"categories_segments":[],"categories_sizes":[],"default_left":[0,0,0,0,0,0,0,0,0],"id":41,"left_children":[1,3,5,-1,7,-1,-1,-1,-1],"loss_changes":[4.560573E1,2.597757E1,1.23848095E1,0E0,2.2059536E0,0E0,0E0,0E0,0E0],"parents":[2147483647,0,0,1,1,2,2,4,4],"right_children":[2,4,6,-1,8,-1,-1,-1,-1],"split_conditions":[6.506326E-1,9.094763E-1,2.5704148E-1,-5.218647E-2,4.6857154E-1,-4.2966146E-2,5.204143E-2,-1.6569663E-2,4.793055E-2],"split_indices":[2,3,6,0,2,0,0,0,0],"split_type":[0,0,0,0,0,0,0,0,0],"sum_hessian":[7.884593E1,4.4799046E1,3.4046886E1,3.5813282E1,8.9857645E0,3.0877562E0,3.0959131E1,1.0484467E0,7.9373183E0],"tree_param":{"num_deleted":"0","num_feature":"7","num_nodes":"9","size_leaf_vector":"1"}},{"base_weights":[-2.2858273E-2,-6.757117E-1,8.7746364E-1,-1.0141251E0,6.5867007E-1,-3.3638503E-2,4.8870802E-2,-5.192855E-2,-4.619574E-3,-2.9627968E-2,8.7939E-1,4.8309E-2,5.4879626E-3],"categories":[],"categories_nodes":[],"categories_segments":[],"categories_sizes":[],"default_left":[0,0,0,0,0,0,0,0,0,0,0,0,0],"id":42,"left_children":[1,3,5,7,9,-1,-1,-1,-1,-1,11,-1,-1],"loss_changes":[4.6466164E1,2.1352278E1,5.808119E0,7.362251E-1,3.247673E0,0E0,0E0,0E0,0E0,0E0,4.8142004E-1,0E0,0E0],"parents":[2147483647,0,0,1,1,2,2,3,3,4,4,10,10],"right_children":[2,4,6,8,10,-1,-1,-1,-1,-1,12,-1,-1],"split_conditions":[6.5852034E-1,9.030963E-1,6.589406E-1,6.506326E-1,4.526374E-1,-3.3638503E-2,4.8870802E-2,-5.192855E-2,-4.619574E-3,-2.9627968E-2,1.0836565E-2,4.8309E-2,5.4879626E-3],"split_indices":[2,3,3,2,2,0,0,0,0,0,1,0,0],"split_type":[0,0,0,0,0,0,0,0,0,0,0,0,0],"sum_hessian":[7.704517E1,4.480503E1,3.2240143E1,3.5932236E1,8.872793E0,1.605674E0,3.0634468E1,3.488039E1,1.0518451E0,1.0778652E0,7.794928E0,6.7754865E0,1.0194414E0],"tree_param":{"num_deleted":"0","num_feature":"7","num_nodes":"13","size_leaf_vector":"1"}},{"base_weights":[-2.9701322E-2,-6.556846E-1,8.19024E-1,-9.967721E-1,7.7059376E-1,-4.3133903E-2,5.1396858E-2,-5.093602E-2,-9.624611E-3,3.5566844E-3,8.550757E-1,4.574431E-2,1.1192627E-2],"categories":[],"categories_nodes":[],"categories_segments":[],"categories_sizes":[],"default_left":[0,0,0,0,0,0,0,0,0,0,0,0,0],"id":43,"left_children":[1,3,5,7,9,-1,-1,-1,-1,-1,11,-1,-1],"loss_changes":[4.0224514E1,2.1953142E1,1.2183247E1,4.3196487E-1,4.6912384E-1,0E0,0E0,0E0,0E0,0E0,9.387112E-2,0E0,0E0],"parents":[2147483647,0,0,1,1,2,2,3,3,4,4,10,10],"right_children":[2,4,6,8,10,-1,-1,-1,-1,-1,12,-1,-1],"split_conditions":[6.5670294E-1,9.171197E-1,2.5704148E-1,6.4102453E-1,4.71119E-1,-4.3133903E-2,5.1396858E-2,-5.093602E-2,-9.624611E-3,3.5566844E-3,7.4263734E-1,4.574431E-2,1.1192627E-2],"split_indices":[2,3,6,2,2,0,0,0,0,0,0,0,0],"split_type":[0,0,0,0,0,0,0,0,0,0,0,0,0],"sum_hessian":[7.370055E1,4.2547092E1,3.1153456E1,3.4578865E1,7.968229E0,3.0966654E0,2.8056791E1,3.3400753E1,1.1781094E0,1.0572047E0,6.911024E0,5.902369E0,1.0086551E0],"tree_param":{"num_deleted":"0","num_feature":"7","num_nodes":"13","size_leaf_vector":"1"}},{"base_weights":[-3.7703052E-2,-6.638347E-1,8.5616654E-1,-9.7111285E-1,7.090171E-1,-3.922781E-2,5.1081844E-2,-1.0085938E0,1.457392E-3,-1.582146E-3,8.275459E-1,-5.1411744E-2,-1.4544981E-2,1.13643E-2,4.4602826E-2],"categories":[],"categories_nodes":[],"categories_segments":[],"categories_sizes":[],"default_left":[0,0,0,0,0,0,0,0,0,0,0,0,0,0,0],"id":44,"left_children":[1,3,5,7,9,-1,-1,11,-1,-1,13,-1,-1,-1,-1],"loss_changes":[3.972609E1,1.8282692E1,8.744568E0,1.3228874E0,7.465744E-1,0E0,0E0,1.7006302E-1,0E0,0E0,7.2594166E-2,0E0,0E0,0E0,0E0],"parents":[2147483647,0,0,1,1,2,2,3,3,4,4,7,7,10,10],"right_children":[2,4,6,8,10,-1,-1,12,-1,-1,14,-1,-1,-1,-1],"split_conditions":[6.5852034E-1,9.171197E-1,2.5704148E-1,6.506326E-1,4.71119E-1,-3.922781E-2,5.1081844E-2,9.0042686E-1,1.457392E-3,-1.582146E-3,2.8207478E-1,-5.1411744E-2,-1.4544981E-2,1.13643E-2,4.4602826E-2],"split_indices":[2,3,6,2,2,0,0,3,0,0,6,0,0,0,0],"split_type":[0,0,0,0,0,0,0,0,0,0,0,0,0,0,0],"sum_hessian":[6.89645E1,4.0707405E1,2.8257097E1,3.350156E1,7.2058454E0,2.245953E0,2.6011145E1,3.2283527E1,1.2180331E0,1.0952032E0,6.1106424E0,3.1002398E1,1.2811294E0,1.0319321E0,5.0787106E0],"tree_param":{"num_deleted":"0","num_feature":"7","num_nodes":"15","size_leaf_vector":"1"}},{"base_weights":[-4.8064524E-3,-6.3674545E-1,8.4205997E-1,-5.1196713E-2,6.0025454E-1,-3.2294255E-2,4.716655E-2,-3.2782946E-2,8.7195176E-1,4.7919706E-2,5.4821316E-3],"categories":[],"categories_nodes":[],"categories_segments":[],"categories_sizes":[],"default_left":[0,0,0,0,0,0,0,0,0,0,0],"id":45,"left_children":[1,3,5,-1,7,-1,-1,-1,9,-1,-1],"loss_changes":[3.699896E1,1.9575058E1,5.061451E0,0E0,4.0070534E0,0E0,0E0,0E0,4.6862173E-1,0E0,0E0],"parents":[2147483647,0,0,1,1,2,2,4,4,8,8],"right_children":[2,4,6,-1,8,-1,-1,-1,10,-1,-1],"split_conditions":[6.506326E-1,9.030963E-1,6.589406E-1,-5.1196713E-2,4.6370462E-1,-3.2294255E-2,4.716655E-2,-3.2782946E-2,7.220896E-1,4.7919706E-2,5.4821316E-3],"split_indices":[2,3,3,0,2,0,0,0,0,0,0],"split_type":[0,0,0,0,0,0,0,0,0,0,0],"sum_hessian":[6.7133354E1,3.8587296E1,2.8546057E1,2.9519691E1,9.067605E0,1.476372E0,2.7069685E1,1.361395E0,7.70621E0,6.6903324E0,1.0158778E0],"tree_param":{"num_deleted":"0","num_feature":"7","num_nodes":"11","size_leaf_vector":"1"}},{"base_weights":[3.4127703E-3,-6.155353E-1,8.293405E-1,-9.9088496E-1,3.4155095E-1,-4.1050985E-2,5.1030416E-2,-5.0772805E-2,-1.3656504E-2,7.6761997E-1,-4.0464807E-2,-1.2439017E-2,4.6453495E-2],"categories":[],"categories_nodes":[],"categories_segments":[],"categories_sizes":[],"default_left":[0,0,0,0,0,0,0,0,0,0,0,0,0],"id":46,"left_children":[1,3,5,7,9,-1,-1,-1,-1,11,-1,-1,-1],"loss_changes":[3.4194057E1,1.4075349E1,9.882177E0,2.1156883E-1,6.2677684E0,0E0,0E0,0E0,0E0,1.6944528E0,0E0,0E0,0E0],"parents":[2147483647,0,0,1,1,2,2,3,3,4,4,9,9],"right_children":[2,4,6,8,10,-1,-1,-1,-1,12,-1,-1,-1],"split_conditions":[6.506326E-1,6.532889E-1,2.5704148E-1,6.1033607E-1,1.6566189E-2,-4.1050985E-2,5.1030416E-2,-5.0772805E-2,-1.3656504E-2,4.6857154E-1,-4.0464807E-2,-1.2439017E-2,4.6453495E-2],"split_indices":[2,4,6,4,1,0,0,0,0,2,0,0,0],"split_type":[0,0,0,0,0,0,0,0,0,0,0,0,0],"sum_hessian":[6.489035E1,3.723859E1,2.7651764E1,2.6723042E1,1.0515546E1,2.5299025E0,2.5121862E1,2.543747E1,1.2855736E0,7.91736E0,2.5981863E0,1.0111016E0,6.906258E0],"tree_param":{"num_deleted":"0","num_feature":"7","num_nodes":"13","size_leaf_vector":"1"}},{"base_weights":[5.379423E-3,-4.9669184E-2,4.2104226E-1,-4.9709428E-2,9.0933096E-1,-3.4385316E-2,5.1221676E-2],"categories":[],"categories_nodes":[],"categories_segments":[],"categories_sizes":[],"default_left":[0,0,0,0,0,0,0],"id":47,"left_children":[1,-1,3,-1,5,-1,-1],"loss_changes":[2.6264221E1,0E0,3.176851E1,0E0,6.904663E0,0E0,0E0],"parents":[2147483647,0,0,2,2,4,4],"right_children":[2,-1,4,-1,6,-1,-1],"split_conditions":[3.4105186E-3,-4.9669184E-2,2.5704148E-1,-4.9709428E-2,5.731886E-2,-3.4385316E-2,5.1221676E-2],"split_indices":[1,0,6,0,0,0,0],"split_type":[0,0,0,0,0,0,0],"sum_hessian":[6.125713E1,1.7593422E1,4.3663708E1,1.0934794E1,3.2728912E1,1.8658386E0,3.0863073E1],"tree_param":{"num_deleted":"0","num_feature":"7","num_nodes":"7","size_leaf_vector":"1"}},{"base_weights":[-1.5034549E-2,-4.979452E-2,5.037727E-1,-4.369783E-2,7.669807E-1,8.7142813E-1,-3.2652352E-2,3.754999E-1,5.0819512E-2,-3.5672847E-2,4.4346344E-2],"categories":[],"categories_nodes":[],"categories_segments":[],"categories_sizes":[],"default_left":[0,0,0,0,0,0,0,0,0,0,0],"id":48,"left_children":[1,-1,3,-1,5,7,-1,9,-1,-1,-1],"loss_changes":[3.0825668E1,0E0,1.504461E1,0E0,5.5842476E0,1.9134731E0,0E0,5.537608E0,0E0,0E0,0E0],"parents":[2147483647,0,0,2,2,4,4,5,5,7,7],"right_children":[2,-1,4,-1,6,8,-1,10,-1,-1,-1],"split_conditions":[4.6857154E-1,-4.979452E-2,6.756627E-1,-4.369783E-2,6.378973E-1,7.357797E-1,-3.2652352E-2,6.766123E-1,5.0819512E-2,-3.5672847E-2,4.4346344E-2],"split_indices":[2,0,3,0,5,3,0,2,0,0,0],"split_type":[0,0,0,0,0,0,0,0,0,0,0],"sum_hessian":[5.85902E1,1.9951105E1,3.8639095E1,5.8255568E0,3.2813538E1,3.0925222E1,1.8883156E0,7.807022E0,2.31182E1,2.3686144E0,5.438408E0],"tree_param":{"num_deleted":"0","num_feature":"7","num_nodes":"11","size_leaf_vector":"1"}},{"base_weights":[-1.2096448E-2,-4.9621213E-2,4.1348925E-1,-4.9286705E-2,9.129271E-1,-3.26773E-2,5.1149774E-2],"categories":[],"categories_nodes":[],"categories_segments":[],"categories_sizes":[],"default_left":[0,0,0,0,0,0,0],"id":49,"left_children":[1,-1,3,-1,5,-1,-1],"loss_changes":[2.467715E1,0E0,2.9735512E1,0E0,6.0011616E0,0E0,0E0],"parents":[2147483647,0,0,2,2,4,4],"right_children":[2,-1,4,-1,6,-1,-1],"split_conditions":[1.0591318E-3,-4.9621213E-2,2.5704148E-1,-4.9286705E-2,4.7430304E-1,-3.26773E-2,5.1149774E-2],"split_indices":[1,0,6,0,3,0,0],"split_type":[0,0,0,0,0,0,0],"sum_hessian":[5.716397E1,1.690099E1,4.026298E1,1.0334946E1,2.9928036E1,1.6406724E0,2.8287363E1],"tree_param":{"num_deleted":"0","num_feature":"7","num_nodes":"7","size_leaf_vector":"1"}},{"base_weights":[-9.331474E-3,-6.384755E-1,8.019153E-1,-5.0159406E-2,5.962532E-1,-2.9391712E-2,9.012854E-1,-2.0502588E-2,8.081249E-1,1.19834365E-2,4.630049E-2,4.5076948E-2,6.8200133E-3],"categories":[],"categories_nodes":[],"categories_segments":[],"categories_sizes":[],"default_left":[0,0,0,0,0,0,0,0,0,0,0,0,0],"id":50,"left_children":[1,3,5,-1,7,-1,9,-1,11,-1,-1,-1,-1],"loss_changes":[2.837892E1,1.4696664E1,3.884449E0,0E0,1.9871745E0,0E0,1.553669E-1,0E0,3.0070925E-1,0E0,0E0,0E0,0E0],"parents":[2147483647,0,0,1,1,2,2,4,4,6,6,8,8],"right_children":[2,4,6,-1,8,-1,10,-1,12,-1,-1,-1,-1],"split_conditions":[6.506326E-1,9.030963E-1,6.589406E-1,-5.0159406E-2,4.6857154E-1,-2.9391712E-2,6.58975E-1,-2.0502588E-2,8.23775E-1,1.19834365E-2,4.630049E-2,4.5076948E-2,6.8200133E-3],"split_indices":[2,3,3,0,2,0,2,0,4,0,0,0,0],"split_type":[0,0,0,0,0,0,0,0,0,0,0,0,0],"sum_hessian":[5.359915E1,3.0307684E1,2.3291466E1,2.3541538E1,6.766147E0,1.2262363E0,2.206523E1,1.0141181E0,5.752029E0,1.1800852E0,2.0885145E1,4.74942E0,1.0026088E0],"tree_param":{"num_deleted":"0","num_feature":"7","num_nodes":"13","size_leaf_vector":"1"}},{"base_weights":[-1.4310182E-3,-6.1653554E-1,7.8195095E-1,-4.9980056E-2,6.378107E-1,-2.938628E-2,8.8264287E-1,-1.6177759E-2,8.3196354E-1,1.0539789E-2,4.588718E-2,4.4851992E-2,1.1877849E-2],"categories":[],"categories_nodes":[],"categories_segments":[],"categories_sizes":[],"default_left":[0,0,0,0,0,0,0,0,0,0,0,0,0],"id":51,"left_children":[1,3,5,-1,7,-1,9,-1,11,-1,-1,-1,-1],"loss_changes":[2.6135094E1,1.5235398E1,3.8089285E0,0E0,1.7097507E0,0E0,3.400364E-1,0E0,4.6114445E-2,0E0,0E0,0E0,0E0],"parents":[2147483647,0,0,1,1,2,2,4,4,6,6,8,8],"right_children":[2,4,6,-1,8,-1,10,-1,12,-1,-1,-1,-1],"split_conditions":[6.506326E-1,9.030963E-1,6.589406E-1,-4.9980056E-2,4.6857154E-1,-2.938628E-2,6.58975E-1,-1.6177759E-2,4.6811244E-1,1.0539789E-2,4.588718E-2,4.4851992E-2,1.1877849E-2],"split_indices":[2,3,3,0,2,0,2,0,5,0,0,0,0],"split_type":[0,0,0,0,0,0,0,0,0,0,0,0,0],"sum_hessian":[5.2237236E1,2.9380732E1,2.2856506E1,2.2662813E1,6.7179184E0,1.2339976E0,2.1622509E1,1.0167733E0,5.701145E0,1.4214085E0,2.02011E1,4.679674E0,1.021471E0],"tree_param":{"num_deleted":"0","num_feature":"7","num_nodes":"13","size_leaf_vector":"1"}},{"base_weights":[-1.859329E-2,-4.8597123E-2,3.5065377E-1,6.302836E-1,-4.4443317E-2,-4.63377E-2,9.90536E-1,5.0625842E-2,1.2760338E-2],"categories":[],"categories_nodes":[],"categories_segments":[],"categories_sizes":[],"default_left":[0,0,0,0,0,0,0,0,0],"id":52,"left_children":[1,-1,3,5,-1,-1,7,-1,-1],"loss_changes":[1.847214E1,0E0,1.3683281E1,1.8574505E1,0E0,0E0,1.6258812E-1,0E0,0E0],"parents":[2147483647,0,0,2,2,3,3,6,6],"right_children":[2,-1,4,6,-1,-1,8,-1,-1],"split_conditions":[3.2701892E-1,-4.8597123E-2,5.007477E-1,2.4046305E-1,-4.4443317E-2,-4.63377E-2,4.8639402E-1,5.0625842E-2,1.2760338E-2],"split_indices":[4,0,6,6,0,0,6,0,0],"split_type":[0,0,0,0,0,0,0,0,0],"sum_hessian":[5.0506317E1,1.3644839E1,3.6861477E1,3.0477425E1,6.3840513E0,5.431136E0,2.5046288E1,2.3953306E1,1.0929818E0],"tree_param":{"num_deleted":"0","num_feature":"7","num_nodes":"9","size_leaf_vector":"1"}},{"base_weights":[-2.507675E-2,-4.906771E-2,4.5792866E-1,-4.165884E-2,7.1983135E-1,8.1871915E-1,-3.1333502E-2,2.6393583E-1,4.962902E-2,-3.6111582E-2,4.2236336E-2],"categories":[],"categories_nodes":[],"categories_segments":[],"categories_sizes":[],"default_left":[0,0,0,0,0,0,0,0,0,0,0],"id":53,"left_children":[1,-1,3,-1,5,7,-1,9,-1,-1,-1],"loss_changes":[2.31685E1,0E0,1.1881135E1,0E0,4.277665E0,2.3203297E0,0E0,5.04912E0,0E0,0E0,0E0],"parents":[2147483647,0,0,2,2,4,4,5,5,7,7],"right_children":[2,-1,4,-1,6,8,-1,10,-1,-1,-1],"split_conditions":[4.672833E-1,-4.906771E-2,6.756627E-1,-4.165884E-2,6.378973E-1,7.357797E-1,-3.1333502E-2,6.766123E-1,4.962902E-2,-3.6111582E-2,4.2236336E-2],"split_indices":[2,0,3,0,5,3,0,2,0,0,0],"split_type":[0,0,0,0,0,0,0,0,0,0,0],"sum_hessian":[4.8187576E1,1.58249035E1,3.2362675E1,5.0898614E0,2.7272812E1,2.5772062E1,1.5007498E0,6.750287E0,1.9021776E1,2.4117196E0,4.3385673E0],"tree_param":{"num_deleted":"0","num_feature":"7","num_nodes":"11","size_leaf_vector":"1"}},{"base_weights":[-1.2739412E-2,-5.796748E-1,8.1181526E-1,-9.3152905E-1,5.553901E-1,-3.3508524E-2,4.897606E-2,-4.939162E-2,-2.4208E-4,-1.8686265E-2,7.7856976E-1,7.6618264E-3,4.3577295E-2],"categories":[],"categories_nodes":[],"categories_segments":[],"categories_sizes":[],"default_left":[0,0,0,0,0,0,0,0,0,0,0,0,0],"id":54,"left_children":[1,3,5,7,9,-1,-1,-1,-1,-1,11,-1,-1],"loss_changes":[2.237106E1,1.1837603E1,5.5039988E0,1.14365E0,1.8117006E0,0E0,0E0,0E0,0E0,0E0,2.291131E-1,0E0,0E0],"parents":[2147483647,0,0,1,1,2,2,3,3,4,4,10,10],"right_children":[2,4,6,8,10,-1,-1,-1,-1,-1,12,-1,-1],"split_conditions":[6.58975E-1,9.030963E-1,2.5704148E-1,6.506326E-1,4.6857154E-1,-3.3508524E-2,4.897606E-2,-4.939162E-2,-2.4208E-4,-1.8686265E-2,2.8207478E-1,7.6618264E-3,4.3577295E-2],"split_indices":[2,3,6,2,2,0,0,0,0,0,6,0,0],"split_type":[0,0,0,0,0,0,0,0,0,0,0,0,0],"sum_hessian":[4.584901E1,2.7344713E1,1.8504297E1,2.1010933E1,6.333779E0,1.5765463E0,1.6927752E1,1.9745275E1,1.2656577E0,1.0960947E0,5.2376842E0,1.0207199E0,4.2169642E0],"tree_param":{"num_deleted":"0","num_feature":"7","num_nodes":"13","size_leaf_vector":"1"}},{"base_weights":[2.4862392E-2,-4.8397887E-2,4.9736553E-1,-4.4366788E-2,7.9941326E-1,-3.3214066E-2,9.78656E-1,5.0081372E-2,1.2661047E-2],"categories":[],"categories_nodes":[],"categories_segments":[],"categories_sizes":[],"default_left":[0,0,0,0,0,0,0,0,0],"id":55,"left_children":[1,-1,3,-1,5,-1,7,-1,-1],"loss_changes":[2.126607E1,0E0,1.3541189E1,0E0,7.395891E0,0E0,1.3483429E-1,0E0,0E0],"parents":[2147483647,0,0,2,2,4,4,6,6],"right_children":[2,-1,4,-1,6,-1,8,-1,-1],"split_conditions":[4.6516746E-1,-4.8397887E-2,2.5704148E-1,-4.4366788E-2,3.3015817E-1,-3.3214066E-2,4.8639402E-1,5.0081372E-2,1.2661047E-2],"split_indices":[2,0,6,0,4,0,6,0,0],"split_type":[0,0,0,0,0,0,0,0,0],"sum_hessian":[4.330648E1,1.362634E1,2.968014E1,4.9678583E0,2.471228E1,2.4008574E0,2.2311424E1,2.1257559E1,1.0538639E0],"tree_param":{"num_deleted":"0","num_feature":"7","num_nodes":"9","size_leaf_vector":"1"}},{"base_weights":[-3.3869315E-2,-4.841938E-2,4.5859712E-1,-4.0188905E-2,7.201943E-1,8.205785E-1,-2.8162448E-2,2.9201165E-1,4.8851095E-2,-3.404286E-2,4.0909942E-2],"categories":[],"categories_nodes":[],"categories_segments":[],"categories_sizes":[],"default_left":[0,0,0,0,0,0,0,0,0,0,0],"id":56,"left_children":[1,-1,3,-1,5,7,-1,9,-1,-1,-1],"loss_changes":[2.0159842E1,0E0,1.0067839E1,0E0,3.596695E0,1.6142168E0,0E0,3.9728043E0,0E0,0E0,0E0],"parents":[2147483647,0,0,2,2,4,4,5,5,7,7],"right_children":[2,-1,4,-1,6,8,-1,10,-1,-1,-1],"split_conditions":[4.6516746E-1,-4.841938E-2,6.756627E-1,-4.0188905E-2,6.378973E-1,7.357797E-1,-2.8162448E-2,6.766123E-1,4.8851095E-2,-3.404286E-2,4.0909942E-2],"split_indices":[2,0,3,0,5,3,0,2,0,0,0],"split_type":[0,0,0,0,0,0,0,0,0,0,0],"sum_hessian":[4.1839928E1,1.4105855E1,2.7734072E1,4.4049177E0,2.3329153E1,2.1971315E1,1.3578389E0,5.672501E0,1.6298813E1,1.8879398E0,3.7845612E0],"tree_param":{"num_deleted":"0","num_feature":"7","num_nodes":"11","size_leaf_vector":"1"}},{"base_weights":[-2.180046E-2,-6.198887E-1,7.569784E-1,-4.891142E-2,5.357499E-1,-1.832829E-2,8.423749E-1,-1.104275E-2,7.291106E-1,4.7838006E-2,4.581514E-1,4.1281246E-2,7.8465035E-3,-3.0363599E-2,4.1043054E-2],"categories":[],"categories_nodes":[],"categories_segments":[],"categories_sizes":[],"default_left":[0,0,0,0,0,0,0,0,0,0,0,0,0,0,0],"id":57,"left_children":[1,3,5,-1,7,-1,9,-1,11,-1,13,-1,-1,-1,-1],"loss_changes":[1.9931702E1,1.0538933E1,2.0934772E0,0E0,1.0929687E0,0E0,3.3473682E-1,0E0,1.6345334E-1,0E0,2.7994194E0,0E0,0E0,0E0,0E0],"parents":[2147483647,0,0,1,1,2,2,4,4,6,6,8,8,10,10],"right_children":[2,4,6,-1,8,-1,10,-1,12,-1,14,-1,-1,-1,-1],"split_conditions":[6.506326E-1,9.030963E-1,6.756627E-1,-4.891142E-2,4.71119E-1,-1.832829E-2,4.7615945E-2,-1.104275E-2,1.0164657E-2,4.7838006E-2,9.696074E-2,4.1281246E-2,7.8465035E-3,-3.0363599E-2,4.1043054E-2],"split_indices":[2,3,3,0,2,0,1,0,1,0,1,0,0,0,0],"split_type":[0,0,0,0,0,0,0,0,0,0,0,0,0,0,0],"sum_hessian":[4.07848E1,2.3183958E1,1.7600842E1,1.7813787E1,5.37017E0,1.0107043E0,1.6590137E1,1.0641286E0,4.3060417E0,1.1635947E1,4.9541903E0,3.3055272E0,1.0005146E0,1.0869929E0,3.8671975E0],"tree_param":{"num_deleted":"0","num_feature":"7","num_nodes":"15","size_leaf_vector":"1"}},{"base_weights":[-2.413345E-2,-4.7362752E-2,3.74757E-1,-4.6461917E-2,8.601641E-1,-2.9423121E-2,4.941343E-2],"categories":[],"categories_nodes":[],"categories_segments":[],"categories_sizes":[],"default_left":[0,0,0,0,0,0,0],"id":58,"left_children":[1,-1,3,-1,5,-1,-1],"loss_changes":[1.4677269E1,0E0,1.8443998E1,0E0,4.447751E0,0E0,0E0],"parents":[2147483647,0,0,2,2,4,4],"right_children":[2,-1,4,-1,6,-1,-1],"split_conditions":[1.0591318E-3,-4.7362752E-2,2.5704148E-1,-4.6461917E-2,5.731886E-2,-2.9423121E-2,4.941343E-2],"split_indices":[1,0,6,0,0,0,0],"split_type":[0,0,0,0,0,0,0],"sum_hessian":[3.789552E1,1.1019413E1,2.6876108E1,7.0425873E0,1.983352E1,1.3194416E0,1.8514078E1],"tree_param":{"num_deleted":"0","num_feature":"7","num_nodes":"7","size_leaf_vector":"1"}},{"base_weights":[-9.707067E-3,-4.695029E-2,3.8993052E-1,6.9866425E-1,-4.3666136E-2,-3.4487512E-2,8.649242E-1,4.883773E-2,4.0279987E-1,-3.0335296E-2,4.0170256E-2],"categories":[],"categories_nodes":[],"categories_segments":[],"categories_sizes":[],"default_left":[0,0,0,0,0,0,0,0,0,0,0],"id":59,"left_children":[1,-1,3,5,-1,-1,7,-1,9,-1,-1],"loss_changes":[1.4604555E1,0E0,1.1341729E1,5.829134E0,0E0,0E0,6.756687E-1,0E0,2.8057413E0,0E0,0E0],"parents":[2147483647,0,0,2,2,3,3,6,6,8,8],"right_children":[2,-1,4,6,-1,-1,8,-1,10,-1,-1],"split_conditions":[3.4105186E-3,-4.695029E-2,6.758218E-1,5.731886E-2,-4.3666136E-2,-3.4487512E-2,4.7615945E-2,4.883773E-2,1.4454353E-1,-3.0335296E-2,4.0170256E-2],"split_indices":[1,0,5,0,0,0,1,0,1,0,0],"split_type":[0,0,0,0,0,0,0,0,0,0,0],"sum_hessian":[3.733891E1,1.0822688E1,2.6516222E1,2.1667667E1,4.8485537E0,1.9804631E0,1.9687204E1,1.4954676E1,4.7325287E0,1.1983277E0,3.5342011E0],"tree_param":{"num_deleted":"0","num_feature":"7","num_nodes":"11","size_leaf_vector":"1"}},{"base_weights":[-9.690156E-3,-5.994176E-1,7.4218094E-1,-4.8326705E-2,5.265434E-1,-2.2712572E-2,8.484246E-1,3.7649598E-2,6.272808E-4,5.043658E-3,4.517516E-2],"categories":[],"categories_nodes":[],"categories_segments":[],"categories_sizes":[],"default_left":[0,0,0,0,0,0,0,0,0,0,0],"id":60,"left_children":[1,3,5,-1,7,-1,9,-1,-1,-1,-1],"loss_changes":[1.6970701E1,9.371682E0,2.5247087E0,0E0,6.7951214E-1,0E0,5.59659E-1,0E0,0E0,0E0,0E0],"parents":[2147483647,0,0,1,1,2,2,4,4,6,6],"right_children":[2,4,6,-1,8,-1,10,-1,-1,-1,-1],"split_conditions":[6.506326E-1,9.030963E-1,6.7515355E-1,-4.8326705E-2,5.162333E-1,-2.2712572E-2,6.58975E-1,3.7649598E-2,6.272808E-4,5.043658E-3,4.517516E-2],"split_indices":[2,3,3,0,0,0,2,0,0,0,0],"split_type":[0,0,0,0,0,0,0,0,0,0,0],"sum_hessian":[3.627077E1,2.0440838E1,1.5829934E1,1.5521642E1,4.919196E0,1.0239098E0,1.4806025E1,3.0920022E0,1.8271941E0,1.2103299E0,1.3595695E1],"tree_param":{"num_deleted":"0","num_feature":"7","num_nodes":"11","size_leaf_vector":"1"}},{"base_weights":[-2.8246365E-2,-5.777868E-1,7.754713E-1,-8.7180746E-1,2.2895268E-1,-3.094104E-2,4.7627907E-2,-9.153444E-1,-5.470348E-3,6.2636876E-1,-3.3177987E-2,-4.776272E-2,-9.0980865E-3,3.903837E-2,8.5206283E-4],"categories":[],"categories_nodes":[],"categories_segments":[],"categories_sizes":[],"default_left":[0,0,0,0,0,0,0,0,0,0,0,0,0,0,0],"id":61,"left_children":[1,3,5,7,9,-1,-1,11,-1,13,-1,-1,-1,-1,-1],"loss_changes":[1.6402578E1,5.424319E0,4.3168106E0,4.4259548E-1,2.783431E0,0E0,0E0,2.7494526E-1,0E0,4.6962857E-1,0E0,0E0,0E0,0E0,0E0],"parents":[2147483647,0,0,1,1,2,2,3,3,4,4,7,7,9,9],"right_children":[2,4,6,8,10,-1,-1,12,-1,14,-1,-1,-1,-1,-1],"split_conditions":[6.5852034E-1,6.532889E-1,2.5704148E-1,6.2405455E-1,1.3905872E-2,-3.094104E-2,4.7627907E-2,6.1033607E-1,-5.470348E-3,3.073879E-1,-3.3177987E-2,-4.776272E-2,-9.0980865E-3,3.903837E-2,8.5206283E-4],"split_indices":[2,4,6,2,1,0,0,4,0,6,0,0,0,0,0],"split_type":[0,0,0,0,0,0,0,0,0,0,0,0,0,0,0],"sum_hessian":[3.512273E1,2.1026804E1,1.4095928E1,1.5351286E1,5.6755166E0,1.3074306E0,1.2788498E1,1.4332234E1,1.0190523E0,4.133262E0,1.5422546E0,1.3305622E1,1.0266123E0,3.073183E0,1.0600793E0],"tree_param":{"num_deleted":"0","num_feature":"7","num_nodes":"15","size_leaf_vector":"1"}},{"base_weights":[-2.1874232E-2,-4.6732005E-2,3.7659225E-1,-4.5852825E-2,8.644282E-1,-2.640079E-2,4.8909586E-2],"categories":[],"categories_nodes":[],"categories_segments":[],"categories_sizes":[],"default_left":[0,0,0,0,0,0,0],"id":62,"left_children":[1,-1,3,-1,5,-1,-1],"loss_changes":[1.2981167E1,0E0,1.6496937E1,0E0,3.460514E0,0E0,0E0],"parents":[2147483647,0,0,2,2,4,4],"right_children":[2,-1,4,-1,6,-1,-1],"split_conditions":[1.0591318E-3,-4.6732005E-2,2.5704148E-1,-4.5852825E-2,5.731886E-2,-2.640079E-2,4.8909586E-2],"split_indices":[1,0,6,0,0,0,0],"split_type":[0,0,0,0,0,0,0],"sum_hessian":[3.3723564E1,9.839244E0,2.388432E1,6.29947E0,1.7584848E1,1.0531497E0,1.65317E1],"tree_param":{"num_deleted":"0","num_feature":"7","num_nodes":"7","size_leaf_vector":"1"}},{"base_weights":[-4.0807262E-2,-4.6470724E-2,4.3442678E-1,-4.2980567E-2,7.634558E-1,-2.9380962E-2,9.066874E-1,-3.783076E-4,4.835851E-2],"categories":[],"categories_nodes":[],"categories_segments":[],"categories_sizes":[],"default_left":[0,0,0,0,0,0,0,0,0],"id":63,"left_children":[1,-1,3,-1,5,-1,7,-1,-1],"loss_changes":[1.4235726E1,0E0,1.0032868E1,0E0,4.033036E0,0E0,9.333763E-1,0E0,0E0],"parents":[2147483647,0,0,2,2,4,4,6,6],"right_children":[2,-1,4,-1,6,-1,8,-1,-1],"split_conditions":[4.672833E-1,-4.6470724E-2,2.5704148E-1,-4.2980567E-2,1.0591318E-3,-2.9380962E-2,1.7426088E-1,-3.783076E-4,4.835851E-2],"split_indices":[2,0,6,0,1,0,0,0,0],"split_type":[0,0,0,0,0,0,0,0,0],"sum_hessian":[3.175416E1,1.0731805E1,2.1022356E1,3.9347618E0,1.7087593E1,1.3404849E0,1.5747109E1,1.0314034E0,1.4715706E1],"tree_param":{"num_deleted":"0","num_feature":"7","num_nodes":"9","size_leaf_vector":"1"}},{"base_weights":[-2.7277209E-2,-4.671601E-2,4.313144E-1,-4.2337462E-2,7.3930675E-1,-2.6613796E-2,9.3678635E-1,1.2628095E-2,4.831958E-2],"categories":[],"categories_nodes":[],"categories_segments":[],"categories_sizes":[],"default_left":[0,0,0,0,0,0,0,0,0],"id":64,"left_children":[1,-1,3,-1,5,-1,7,-1,-1],"loss_changes":[1.370641E1,0E0,9.2570305E0,0E0,5.069499E0,0E0,8.242226E-2,0E0,0E0],"parents":[2147483647,0,0,2,2,4,4,6,6],"right_children":[2,-1,4,-1,6,-1,8,-1,-1],"split_conditions":[4.672833E-1,-4.671601E-2,2.5704148E-1,-4.2337462E-2,6.7690784E-1,-2.6613796E-2,3.7159447E-3,1.2628095E-2,4.831958E-2],"split_indices":[2,0,6,0,3,0,1,0,0],"split_type":[0,0,0,0,0,0,0,0,0],"sum_hessian":[3.0982283E1,1.0055756E1,2.0926529E1,3.7239878E0,1.720254E1,2.0845647E0,1.5117975E1,1.0222855E0,1.409569E1],"tree_param":{"num_deleted":"0","num_feature":"7","num_nodes":"9","size_leaf_vector":"1"}},{"base_weights":[-2.9034337E-2,-4.5762043E-2,3.500422E-1,-4.49983E-2,8.4994584E-1,-2.2494724E-2,4.8287965E-2],"categories":[],"categories_nodes":[],"categories_segments":[],"categories_sizes":[],"default_left":[0,0,0,0,0,0,0],"id":65,"left_children":[1,-1,3,-1,5,-1,-1],"loss_changes":[1.0521677E1,0E0,1.4507398E1,0E0,2.8768053E0,0E0,0E0],"parents":[2147483647,0,0,2,2,4,4],"right_children":[2,-1,4,-1,6,-1,-1],"split_conditions":[1.0591318E-3,-4.5762043E-2,2.5704148E-1,-4.49983E-2,6.756627E-1,-2.2494724E-2,4.8287965E-2],"split_indices":[1,0,6,0,3,0,0],"split_type":[0,0,0,0,0,0,0],"sum_hessian":[2.936644E1,8.374382E0,2.0992058E1,5.7682586E0,1.5223799E1,1.0094557E0,1.4214343E1],"tree_param":{"num_deleted":"0","num_feature":"7","num_nodes":"7","size_leaf_vector":"1"}},{"base_weights":[-3.7553873E-2,-4.6266597E-2,4.1467437E-1,-3.8288638E-2,6.564997E-1,7.8479856E-1,-2.8439274E-2,2.4466512E-1,4.7127556E-2,-2.9606184E-2,3.6923382E-2],"categories":[],"categories_nodes":[],"categories_segments":[],"categories_sizes":[],"default_left":[0,0,0,0,0,0,0,0,0,0,0],"id":66,"left_children":[1,-1,3,-1,5,7,-1,9,-1,-1,-1],"loss_changes":[1.2322937E1,0E0,6.3240433E0,0E0,3.1917248E0,1.1521902E0,0E0,2.5111396E0,0E0,0E0,0E0],"parents":[2147483647,0,0,2,2,4,4,5,5,7,7],"right_children":[2,-1,4,-1,6,8,-1,10,-1,-1,-1],"split_conditions":[4.6516746E-1,-4.6266597E-2,3.2701892E-1,-3.8288638E-2,6.378973E-1,7.357797E-1,-2.8439274E-2,6.760296E-1,4.7127556E-2,-2.9606184E-2,3.6923382E-2],"split_indices":[2,0,4,0,5,3,0,2,0,0,0],"split_type":[0,0,0,0,0,0,0,0,0,0,0],"sum_hessian":[2.8738161E1,9.345557E0,1.9392605E1,2.928887E0,1.6463717E1,1.5228634E1,1.2350837E0,4.018957E0,1.1209677E1,1.417603E0,2.6013544E0],"tree_param":{"num_deleted":"0","num_feature":"7","num_nodes":"11","size_leaf_vector":"1"}},{"base_weights":[-3.7085958E-2,-6.0721403E-1,7.2611284E-1,-4.453892E-2,2.3625463E-1,-2.9784022E-2,4.6399813E-2,-2.4649171E-2,5.562224E-1,3.3501003E-2,5.837768E-3],"categories":[],"categories_nodes":[],"categories_segments":[],"categories_sizes":[],"default_left":[0,0,0,0,0,0,0,0,0,0,0],"id":67,"left_children":[1,3,5,-1,7,-1,-1,-1,9,-1,-1],"loss_changes":[1.2467724E1,4.1248007E0,3.8281627E0,0E0,1.4194213E0,0E0,0E0,0E0,1.1586952E-1,0E0,0E0],"parents":[2147483647,0,0,1,1,2,2,4,4,8,8],"right_children":[2,4,6,-1,8,-1,-1,-1,10,-1,-1],"split_conditions":[6.5852034E-1,6.532889E-1,2.5704148E-1,-4.453892E-2,2.745996E-1,-2.9784022E-2,4.6399813E-2,-2.4649171E-2,3.008148E-1,3.3501003E-2,5.837768E-3],"split_indices":[2,4,6,0,6,0,0,0,6,0,0],"split_type":[0,0,0,0,0,0,0,0,0,0,0],"sum_hessian":[2.6640165E1,1.53658695E1,1.1274296E1,1.1457801E1,3.9080687E0,1.2353646E0,1.0038931E1,1.0269103E0,2.8811584E0,1.8718365E0,1.0093218E0],"tree_param":{"num_deleted":"0","num_feature":"7","num_nodes":"11","size_leaf_vector":"1"}},{"base_weights":[-4.016774E-2,-5.9935504E-1,7.4854076E-1,-4.6107553E-2,5.0711745E-1,-2.4336431E-2,4.6050172E-2,6.7274284E-4,3.4579284E-2],"categories":[],"categories_nodes":[],"categories_segments":[],"categories_sizes":[],"default_left":[0,0,0,0,0,0,0,0,0],"id":68,"left_children":[1,3,5,-1,7,-1,-1,-1,-1],"loss_changes":[1.2034948E1,6.156338E0,2.8648314E0,0E0,3.7702382E-1,0E0,0E0,0E0,0E0],"parents":[2147483647,0,0,1,1,2,2,4,4],"right_children":[2,4,6,-1,8,-1,-1,-1,-1],"split_conditions":[6.5670294E-1,9.094763E-1,2.6721406E-1,-4.6107553E-2,4.8065E-1,-2.4336431E-2,4.6050172E-2,6.7274284E-4,3.4579284E-2],"split_indices":[2,3,6,0,2,0,0,0,0],"split_type":[0,0,0,0,0,0,0,0,0],"sum_hessian":[2.5270674E1,1.4927377E1,1.0343297E1,1.1685036E1,3.2423413E0,1.0439253E0,9.299372E0,1.1738621E0,2.0684793E0],"tree_param":{"num_deleted":"0","num_feature":"7","num_nodes":"9","size_leaf_vector":"1"}},{"base_weights":[-4.825201E-2,-4.5603957E-2,4.0172714E-1,-4.1001078E-2,7.410893E-1,-2.7155628E-2,4.6109505E-2],"categories":[],"categories_nodes":[],"categories_segments":[],"categories_sizes":[],"default_left":[0,0,0,0,0,0,0],"id":69,"left_children":[1,-1,3,-1,5,-1,-1],"loss_changes":[1.0578664E1,0E0,8.057692E0,0E0,3.8935013E0,0E0,0E0],"parents":[2147483647,0,0,2,2,4,4],"right_children":[2,-1,4,-1,6,-1,-1],"split_conditions":[4.6516746E-1,-4.5603957E-2,2.5704148E-1,-4.1001078E-2,3.3015817E-1,-2.7155628E-2,4.6109505E-2],"split_indices":[2,0,6,0,4,0,0],"split_type":[0,0,0,0,0,0,0],"sum_hessian":[2.5272564E1,8.304137E0,1.6968428E1,3.3807864E0,1.3587642E1,1.4322784E0,1.2155363E1],"tree_param":{"num_deleted":"0","num_feature":"7","num_nodes":"7","size_leaf_vector":"1"}},{"base_weights":[-2.293675E-2,-5.6851536E-1,7.26214E-1,-4.6438623E-2,4.2733723E-1,-2.7683392E-2,4.6001893E-2,-2.8524408E-3,3.4158483E-2],"categories":[],"categories_nodes":[],"categories_segments":[],"categories_sizes":[],"default_left":[0,0,0,0,0,0,0,0,0],"id":70,"left_children":[1,3,5,-1,7,-1,-1,-1,-1],"loss_changes":[1.0618029E1,5.781249E0,3.228375E0,0E0,6.179181E-1,0E0,0E0,0E0,0E0],"parents":[2147483647,0,0,1,1,2,2,4,4],"right_children":[2,4,6,-1,8,-1,-1,-1,-1],"split_conditions":[6.506326E-1,9.030963E-1,2.5704148E-1,-4.6438623E-2,4.8065E-1,-2.7683392E-2,4.6001893E-2,-2.8524408E-3,3.4158483E-2],"split_indices":[2,3,6,0,2,0,0,0,0],"split_type":[0,0,0,0,0,0,0,0,0],"sum_hessian":[2.396856E1,1.40081005E1,9.960459E0,1.03362465E1,3.6718545E0,1.0658374E0,8.894621E0,1.5376043E0,2.1342502E0],"tree_param":{"num_deleted":"0","num_feature":"7","num_nodes":"9","size_leaf_vector":"1"}},{"base_weights":[-3.1165423E-2,-4.4830624E-2,3.9324877E-1,-4.0103056E-2,7.2048706E-1,-2.6142726E-2,9.006663E-1,4.673857E-2,1.3747352E-2],"categories":[],"categories_nodes":[],"categories_segments":[],"categories_sizes":[],"default_left":[0,0,0,0,0,0,0,0,0],"id":71,"left_children":[1,-1,3,-1,5,-1,7,-1,-1],"loss_changes":[9.222979E0,0E0,7.1878023E0,0E0,3.560986E0,0E0,7.922173E-3,0E0,0E0],"parents":[2147483647,0,0,2,2,4,4,6,6],"right_children":[2,-1,4,-1,6,-1,8,-1,-1],"split_conditions":[4.6516746E-1,-4.4830624E-2,2.5704148E-1,-4.0103056E-2,6.756627E-1,-2.6142726E-2,4.827193E-1,4.673857E-2,1.3747352E-2],"split_indices":[2,0,6,0,3,0,6,0,0],"split_type":[0,0,0,0,0,0,0,0,0],"sum_hessian":[2.3149723E1,7.251069E0,1.5898655E1,3.1052055E0,1.2793449E1,1.3785812E0,1.1414867E1,1.035647E1,1.0583978E0],"tree_param":{"num_deleted":"0","num_feature":"7","num_nodes":"9","size_leaf_vector":"1"}},{"base_weights":[-3.7023995E-2,-4.4678304E-2,4.0279594E-1,-3.8844537E-2,7.120643E-1,-2.5456533E-2,4.519415E-2],"categories":[],"categories_nodes":[],"categories_segments":[],"categories_sizes":[],"default_left":[0,0,0,0,0,0,0],"id":72,"left_children":[1,-1,3,-1,5,-1,-1],"loss_changes":[9.019005E0,0E0,6.345479E0,0E0,3.5289326E0,0E0,0E0],"parents":[2147483647,0,0,2,2,4,4],"right_children":[2,-1,4,-1,6,-1,-1],"split_conditions":[4.672833E-1,-4.4678304E-2,2.5704148E-1,-3.8844537E-2,3.3111706E-1,-2.5456533E-2,4.519415E-2],"split_indices":[2,0,6,0,4,0,0],"split_type":[0,0,0,0,0,0,0],"sum_hessian":[2.1985193E1,7.1089554E0,1.4876237E1,2.775858E0,1.2100379E1,1.41808E0,1.0682299E1],"tree_param":{"num_deleted":"0","num_feature":"7","num_nodes":"7","size_leaf_vector":"1"}},{"base_weights":[-3.2034095E-2,-5.4961306E-1,6.575583E-1,-4.5751028E-2,4.3791243E-1,-2.9642E-2,4.51899E-2,-6.114109E-4,3.259851E-2],"categories":[],"categories_nodes":[],"categories_segments":[],"categories_sizes":[],"default_left":[0,0,0,0,0,0,0,0,0],"id":73,"left_children":[1,3,5,-1,7,-1,-1,-1,-1],"loss_changes":[8.300557E0,5.1824174E0,3.6124187E0,0E0,4.1799682E-1,0E0,0E0,0E0,0E0],"parents":[2147483647,0,0,1,1,2,2,4,4],"right_children":[2,4,6,-1,8,-1,-1,-1,-1],"split_conditions":[6.506326E-1,9.030963E-1,2.5704148E-1,-4.5751028E-2,4.8065E-1,-2.9642E-2,4.51899E-2,-6.114109E-4,3.259851E-2],"split_indices":[2,3,6,0,2,0,0,0,0],"split_type":[0,0,0,0,0,0,0,0,0],"sum_hessian":[2.1243607E1,1.2251292E1,8.992314E0,8.995988E0,3.2553046E0,1.2479066E0,7.7444077E0,1.3529882E0,1.9023162E0],"tree_param":{"num_deleted":"0","num_feature":"7","num_nodes":"9","size_leaf_vector":"1"}},{"base_weights":[-5.0083302E-2,-4.415671E-2,3.7540182E-1,-3.8616378E-2,6.951403E-1,-1.9713959E-2,4.440574E-2],"categories":[],"categories_nodes":[],"categories_segments":[],"categories_sizes":[],"default_left":[0,0,0,0,0,0,0],"id":74,"left_children":[1,-1,3,-1,5,-1,-1],"loss_changes":[7.940814E0,0E0,6.0090723E0,0E0,2.9126554E0,0E0,0E0],"parents":[2147483647,0,0,2,2,4,4],"right_children":[2,-1,4,-1,6,-1,-1],"split_conditions":[4.6516746E-1,-4.415671E-2,2.5704148E-1,-3.8616378E-2,6.781582E-1,-1.9713959E-2,4.440574E-2],"split_indices":[2,0,6,0,3,0,0],"split_type":[0,0,0,0,0,0,0],"sum_hessian":[2.0467815E1,6.5561104E0,1.3911705E1,2.7227297E0,1.1188975E1,1.5267397E0,9.662235E0],"tree_param":{"num_deleted":"0","num_feature":"7","num_nodes":"7","size_leaf_vector":"1"}},{"base_weights":[-2.5780788E-2,-4.3740816E-2,3.856742E-1,-3.8122203E-2,6.942868E-1,-2.6461283E-2,8.612423E-1,6.732472E-3,4.605255E-2],"categories":[],"categories_nodes":[],"categories_segments":[],"categories_sizes":[],"default_left":[0,0,0,0,0,0,0,0,0],"id":75,"left_children":[1,-1,3,-1,5,-1,7,-1,-1],"loss_changes":[7.6444516E0,0E0,5.7673373E0,0E0,2.9427242E0,0E0,3.5806274E-1,0E0,0E0],"parents":[2147483647,0,0,2,2,4,4,6,6],"right_children":[2,-1,4,-1,6,-1,8,-1,-1],"split_conditions":[4.6516746E-1,-4.3740816E-2,2.5704148E-1,-3.8122203E-2,1.0591318E-3,-2.6461283E-2,1.8879081E-1,6.732472E-3,4.605255E-2],"split_indices":[2,0,6,0,1,0,0,0,0],"split_type":[0,0,0,0,0,0,0,0,0],"sum_hessian":[1.9916754E1,6.1337132E0,1.3783042E1,2.6084356E0,1.1174606E1,1.0812125E0,1.0093393E1,1.0149152E0,9.078478E0],"tree_param":{"num_deleted":"0","num_feature":"7","num_nodes":"9","size_leaf_vector":"1"}},{"base_weights":[-3.9310373E-2,-4.3640252E-2,3.926708E-1,-3.6519196E-2,6.896E-1,-2.524401E-2,4.4270985E-2],"categories":[],"categories_nodes":[],"categories_segments":[],"categories_sizes":[],"default_left":[0,0,0,0,0,0,0],"id":76,"left_children":[1,-1,3,-1,5,-1,-1],"loss_changes":[7.475935E0,0E0,5.084977E0,0E0,3.1088295E0,0E0,0E0],"parents":[2147483647,0,0,2,2,4,4],"right_children":[2,-1,4,-1,6,-1,-1],"split_conditions":[4.672833E-1,-4.3640252E-2,2.526339E-1,-3.6519196E-2,3.3015817E-1,-2.524401E-2,4.4270985E-2],"split_indices":[2,0,6,0,4,0,0],"split_type":[0,0,0,0,0,0,0],"sum_hessian":[1.8811499E1,6.0731225E0,1.2738376E1,2.3584356E0,1.037994E1,1.2396867E0,9.140253E0],"tree_param":{"num_deleted":"0","num_feature":"7","num_nodes":"7","size_leaf_vector":"1"}},{"base_weights":[-1.9243766E-2,-5.472863E-1,6.580486E-1,-4.4835057E-2,3.87189E-1,-2.7266825E-2,4.4435076E-2,-2.7370548E-3,3.041335E-2],"categories":[],"categories_nodes":[],"categories_segments":[],"categories_sizes":[],"default_left":[0,0,0,0,0,0,0,0,0],"id":77,"left_children":[1,3,5,-1,7,-1,-1,-1,-1],"loss_changes":[7.29697E0,4.0841722E0,2.969194E0,0E0,4.0584952E-1,0E0,0E0,0E0,0E0],"parents":[2147483647,0,0,1,1,2,2,4,4],"right_children":[2,4,6,-1,8,-1,-1,-1,-1],"split_conditions":[6.506326E-1,9.030963E-1,2.5704148E-1,-4.4835057E-2,4.8065E-1,-2.7266825E-2,4.4435076E-2,-2.7370548E-3,3.041335E-2],"split_indices":[2,3,6,0,2,0,0,0,0],"split_type":[0,0,0,0,0,0,0,0,0],"sum_hessian":[1.8396162E1,1.0444887E1,7.9512753E0,7.631699E0,2.8131883E0,1.0594562E0,6.891819E0,1.188931E0,1.6242573E0],"tree_param":{"num_deleted":"0","num_feature":"7","num_nodes":"9","size_leaf_vector":"1"}},{"base_weights":[-5.3227E-2,-4.230557E-2,3.0406547E-1,5.864283E-1,-3.577179E-2,-2.5546579E-2,7.4691087E-1,4.4567905E-2,1.8827154E-1,2.8802102E-2,-1.7495839E-2],"categories":[],"categories_nodes":[],"categories_segments":[],"categories_sizes":[],"default_left":[0,0,0,0,0,0,0,0,0,0,0],"id":78,"left_children":[1,-1,3,5,-1,-1,7,-1,9,-1,-1],"loss_changes":[5.471462E0,0E0,4.283846E0,2.3296876E0,0E0,0E0,6.436968E-1,0E0,8.9733005E-1,0E0,0E0],"parents":[2147483647,0,0,2,2,3,3,6,6,8,8],"right_children":[2,-1,4,6,-1,-1,8,-1,10,-1,-1],"split_conditions":[1.0591318E-3,-4.230557E-2,6.378973E-1,5.731886E-2,-3.577179E-2,-2.5546579E-2,4.7615945E-2,4.4567905E-2,6.905861E-1,2.8802102E-2,-1.7495839E-2],"split_indices":[1,0,5,0,0,0,1,0,3,0,0],"split_type":[0,0,0,0,0,0,0,0,0,0,0],"sum_hessian":[1.7405727E1,4.981944E0,1.2423783E1,1.00618305E1,2.3619525E0,1.0051337E0,9.056697E0,6.7227974E0,2.3338995E0,1.3156348E0,1.0182647E0],"tree_param":{"num_deleted":"0","num_feature":"7","num_nodes":"11","size_leaf_vector":"1"}},{"base_weights":[-3.6919147E-2,-4.168058E-2,2.9941207E-1,-4.0666986E-2,7.894841E-1,-5.9038196E-3,4.5303848E-2],"categories":[],"categories_nodes":[],"categories_segments":[],"categories_sizes":[],"default_left":[0,0,0,0,0,0,0],"id":79,"left_children":[1,-1,3,-1,5,-1,-1],"loss_changes":[5.069096E0,0E0,7.9402456E0,0E0,1.1438165E0,0E0,0E0],"parents":[2147483647,0,0,2,2,4,4],"right_children":[2,-1,4,-1,6,-1,-1],"split_conditions":[1.0591318E-3,-4.168058E-2,2.5704148E-1,-4.0666986E-2,3.392379E-1,-5.9038196E-3,4.5303848E-2],"split_indices":[1,0,6,0,4,0,0],"split_type":[0,0,0,0,0,0,0],"sum_hessian":[1.6986408E1,4.603416E0,1.2382992E1,3.58448E0,8.7985115E0,1.0002025E0,7.7983093E0],"tree_param":{"num_deleted":"0","num_feature":"7","num_nodes":"7","size_leaf_vector":"1"}},{"base_weights":[-6.9401115E-2,-5.5825984E-1,6.86371E-1,-4.0909592E-2,1.8767059E-1,-5.9265983E-3,4.219119E-2,-1.2468784E-2,2.2713173E-2],"categories":[],"categories_nodes":[],"categories_segments":[],"categories_sizes":[],"default_left":[0,0,0,0,0,0,0,0,0],"id":80,"left_children":[1,3,5,-1,7,-1,-1,-1,-1],"loss_changes":[6.609413E0,2.244559E0,9.957218E-1,0E0,5.327663E-1,0E0,0E0,0E0,0E0],"parents":[2147483647,0,0,1,1,2,2,4,4],"right_children":[2,4,6,-1,8,-1,-1,-1,-1],"split_conditions":[6.58975E-1,6.632873E-1,2.713139E-1,-4.0909592E-2,2.8299367E-1,-5.9265983E-3,4.219119E-2,-1.2468784E-2,2.2713173E-2],"split_indices":[2,4,6,0,6,0,0,0,0],"split_type":[0,0,0,0,0,0,0,0,0],"sum_hessian":[1.5852007E1,9.784442E0,6.0675654E0,7.184135E0,2.6003067E0,1.0331678E0,5.0343976E0,1.0096658E0,1.5906409E0],"tree_param":{"num_deleted":"0","num_feature":"7","num_nodes":"9","size_leaf_vector":"1"}},{"base_weights":[-4.916684E-2,-4.0948506E-2,2.759667E-1,5.320069E-1,-3.3821564E-2,-3.4123756E-2,4.3768954E-2],"categories":[],"categories_nodes":[],"categories_segments":[],"categories_sizes":[],"default_left":[0,0,0,0,0,0,0],"id":81,"left_children":[1,-1,3,5,-1,-1,-1],"loss_changes":[4.406795E0,0E0,3.4060001E0,4.9364147E0,0E0,0E0,0E0],"parents":[2147483647,0,0,2,2,3,3],"right_children":[2,-1,4,6,-1,-1,-1],"split_conditions":[3.2701892E-1,-4.0948506E-2,5.007477E-1,2.4046305E-1,-3.3821564E-2,-3.4123756E-2,4.3768954E-2],"split_indices":[4,0,6,6,0,0,0],"split_type":[0,0,0,0,0,0,0],"sum_hessian":[1.5703847E1,4.212125E0,1.1491721E1,9.40477E0,2.0869515E0,1.8552655E0,7.5495043E0],"tree_param":{"num_deleted":"0","num_feature":"7","num_nodes":"7","size_leaf_vector":"1"}},{"base_weights":[-5.574097E-2,-5.300491E-1,6.328745E-1,-4.179536E-2,-1.1614531E-1,-1.4290571E-2,4.219059E-2,-2.9624522E-2,2.809157E-1,-1.4852411E-2,3.0402398E-2],"categories":[],"categories_nodes":[],"categories_segments":[],"categories_sizes":[],"default_left":[0,0,0,0,0,0,0,0,0,0,0],"id":82,"left_children":[1,3,5,-1,7,-1,-1,-1,9,-1,-1],"loss_changes":[5.6721807E0,1.1966572E0,1.6209161E0,0E0,1.2074689E0,0E0,0E0,0E0,8.76441E-1,0E0,0E0],"parents":[2147483647,0,0,1,1,2,2,4,4,8,8],"right_children":[2,4,6,-1,8,-1,-1,-1,10,-1,-1],"split_conditions":[6.5670294E-1,4.6516746E-1,2.7042165E-1,-4.179536E-2,3.2781017E-1,-1.4290571E-2,4.219059E-2,-2.9624522E-2,2.8207478E-1,-1.4852411E-2,3.0402398E-2],"split_indices":[2,2,6,0,0,0,0,0,6,0,0],"split_type":[0,0,0,0,0,0,0,0,0,0,0],"sum_hessian":[1.53394575E1,9.219482E0,6.1199746E0,4.7154136E0,4.5040693E0,1.0765153E0,5.0434594E0,1.8238488E0,2.6802201E0,1.0019604E0,1.6782598E0],"tree_param":{"num_deleted":"0","num_feature":"7","num_nodes":"11","size_leaf_vector":"1"}},{"base_weights":[-2.5746327E-2,-5.132397E-1,6.1693287E-1,-4.3587822E-2,3.8632077E-1,4.0781718E-2,1.2991634E-1,-1.234896E-3,2.8625757E-2,-2.2653056E-2,2.8846776E-2],"categories":[],"categories_nodes":[],"categories_segments":[],"categories_sizes":[],"default_left":[0,0,0,0,0,0,0,0,0,0,0],"id":83,"left_children":[1,3,5,-1,7,-1,9,-1,-1,-1,-1],"loss_changes":[5.362559E0,3.4665315E0,6.102567E-1,0E0,2.7881068E-1,0E0,1.1302646E0,0E0,0E0,0E0,0E0],"parents":[2147483647,0,0,1,1,2,2,4,4,6,6],"right_children":[2,4,6,-1,8,-1,10,-1,-1,-1,-1],"split_conditions":[6.506326E-1,9.030963E-1,4.7615945E-2,-4.3587822E-2,4.8065E-1,4.0781718E-2,9.708799E-1,-1.234896E-3,2.8625757E-2,-2.2653056E-2,2.8846776E-2],"split_indices":[2,3,1,0,2,0,2,0,0,0,0],"split_type":[0,0,0,0,0,0,0,0,0,0,0],"sum_hessian":[1.5105633E1,8.704437E0,6.401196E0,6.2460165E0,2.4584205E0,4.06708E0,2.334116E0,1.0368837E0,1.4215367E0,1.0071418E0,1.3269742E0],"tree_param":{"num_deleted":"0","num_feature":"7","num_nodes":"11","size_leaf_vector":"1"}},{"base_weights":[-3.682517E-2,-4.103444E-2,3.5568252E-1,-2.9347086E-2,5.592133E-1,3.9448634E-2,-1.9887917E-2,-3.0055627E-2,2.8554438E-2],"categories":[],"categories_nodes":[],"categories_segments":[],"categories_sizes":[],"default_left":[0,0,0,0,0,0,0,0,0],"id":84,"left_children":[1,-1,3,-1,5,-1,7,-1,-1],"loss_changes":[4.8670206E0,0E0,2.3630538E0,0E0,1.244426E0,0E0,1.5793741E0,0E0,0E0],"parents":[2147483647,0,0,2,2,4,4,6,6],"right_children":[2,-1,4,-1,6,-1,8,-1,-1],"split_conditions":[4.672833E-1,-4.103444E-2,3.2701892E-1,-2.9347086E-2,4.7615945E-2,3.9448634E-2,6.766123E-1,-3.0055627E-2,2.8554438E-2],"split_indices":[2,0,4,0,1,0,2,0,0],"split_type":[0,0,0,0,0,0,0,0,0],"sum_hessian":[1.3870085E1,4.2639036E0,9.606181E0,1.3713173E0,8.234863E0,5.636259E0,2.5986047E0,1.3014649E0,1.2971398E0],"tree_param":{"num_deleted":"0","num_feature":"7","num_nodes":"9","size_leaf_vector":"1"}},{"base_weights":[-5.5059213E-2,-5.2878696E-1,5.755485E-1,-4.289336E-2,3.0962798E-1,3.9579596E-2,8.8847324E-2,-3.5236427E-3,2.6146134E-2,-2.2326274E-2,2.7303768E-2],"categories":[],"categories_nodes":[],"categories_segments":[],"categories_sizes":[],"default_left":[0,0,0,0,0,0,0,0,0,0,0],"id":85,"left_children":[1,3,5,-1,7,-1,9,-1,-1,-1,-1],"loss_changes":[4.6626987E0,2.707963E0,6.38078E-1,0E0,2.9871273E-1,0E0,1.0265782E0,0E0,0E0,0E0,0E0],"parents":[2147483647,0,0,1,1,2,2,4,4,6,6],"right_children":[2,4,6,-1,8,-1,10,-1,-1,-1,-1],"split_conditions":[6.506326E-1,9.030963E-1,4.3768683E-1,-4.289336E-2,4.8065E-1,3.9579596E-2,9.708799E-1,-3.5236427E-3,2.6146134E-2,-2.2326274E-2,2.7303768E-2],"split_indices":[2,3,5,0,2,0,2,0,0,0,0],"split_type":[0,0,0,0,0,0,0,0,0,0,0],"sum_hessian":[1.3589307E1,7.852091E0,5.7372155E0,5.6221714E0,2.2299194E0,3.5395772E0,2.1976383E0,1.0422254E0,1.1876941E0,1.0230944E0,1.174544E0],"tree_param":{"num_deleted":"0","num_feature":"7","num_nodes":"11","size_leaf_vector":"1"}},{"base_weights":[-3.5706047E-2,-4.0260315E-2,3.1379473E-1,-3.7771266E-2,7.621342E-1,-1.2432636E-3,4.379892E-2],"categories":[],"categories_nodes":[],"categories_segments":[],"categories_sizes":[],"default_left":[0,0,0,0,0,0,0],"id":86,"left_children":[1,-1,3,-1,5,-1,-1],"loss_changes":[4.215887E0,0E0,5.778523E0,0E0,7.51503E-1,0E0,0E0],"parents":[2147483647,0,0,2,2,4,4],"right_children":[2,-1,4,-1,6,-1,-1],"split_conditions":[1.0591318E-3,-4.0260315E-2,2.5704148E-1,-3.7771266E-2,6.818478E-1,-1.2432636E-3,4.379892E-2],"split_indices":[1,0,6,0,3,0,0],"split_type":[0,0,0,0,0,0,0],"sum_hessian":[1.3736386E1,3.8830817E0,9.853305E0,2.708651E0,7.1446533E0,1.0016788E0,6.142975E0],"tree_param":{"num_deleted":"0","num_feature":"7","num_nodes":"7","size_leaf_vector":"1"}},{"base_weights":[-6.9507007E-3,-3.9711665E-2,3.5346234E-1,-3.325169E-2,6.5610296E-1,-1.7597301E-2,4.2221338E-2],"categories":[],"categories_nodes":[],"categories_segments":[],"categories_sizes":[],"default_left":[0,0,0,0,0,0,0],"id":87,"left_children":[1,-1,3,-1,5,-1,-1],"loss_changes":[4.211648E0,0E0,3.5788674E0,0E0,1.8848343E0,0E0,0E0],"parents":[2147483647,0,0,2,2,4,4],"right_children":[2,-1,4,-1,6,-1,-1],"split_conditions":[4.6516746E-1,-3.9711665E-2,2.5704148E-1,-3.325169E-2,6.775542E-1,-1.7597301E-2,4.2221338E-2],"split_indices":[2,0,6,0,3,0,0],"split_type":[0,0,0,0,0,0,0],"sum_hessian":[1.2853602E1,3.658449E0,9.195153E0,1.832084E0,7.3630695E0,1.0222728E0,6.340797E0],"tree_param":{"num_deleted":"0","num_feature":"7","num_nodes":"7","size_leaf_vector":"1"}},{"base_weights":[-4.4983257E-2,-5.21723E-1,5.8280396E-1,-4.2263772E-2,1.6439827E-2,-1.5131856E-2,4.087928E-2],"categories":[],"categories_nodes":[],"categories_segments":[],"categories_sizes":[],"default_left":[0,0,0,0,0,0,0],"id":88,"left_children":[1,3,5,-1,-1,-1,-1],"loss_changes":[4.292959E0,2.5077338E0,1.5415072E0,0E0,0E0,0E0,0E0],"parents":[2147483647,0,0,1,1,2,2],"right_children":[2,4,6,-1,-1,-1,-1],"split_conditions":[6.506326E-1,9.030963E-1,2.7042165E-1,-4.2263772E-2,1.6439827E-2,-1.5131856E-2,4.087928E-2],"split_indices":[2,3,6,0,0,0,0],"split_type":[0,0,0,0,0,0,0],"sum_hessian":[1.2327819E1,7.10287E0,5.2249484E0,5.149917E0,1.952953E0,1.0344967E0,4.190452E0],"tree_param":{"num_deleted":"0","num_feature":"7","num_nodes":"7","size_leaf_vector":"1"}},{"base_weights":[-3.6346175E-2,-3.87734E-2,2.9625157E-1,-3.6328476E-2,7.461306E-1,2.3135869E-3,4.2630028E-2],"categories":[],"categories_nodes":[],"categories_segments":[],"categories_sizes":[],"default_left":[0,0,0,0,0,0,0],"id":89,"left_children":[1,-1,3,-1,5,-1,-1],"loss_changes":[3.4165273E0,0E0,4.9889197E0,0E0,4.974327E-1,0E0,0E0],"parents":[2147483647,0,0,2,2,4,4],"right_children":[2,-1,4,-1,6,-1,-1],"split_conditions":[1.0591318E-3,-3.87734E-2,2.5704148E-1,-3.6328476E-2,3.441757E-1,2.3135869E-3,4.2630028E-2],"split_indices":[1,0,6,0,4,0,0],"split_type":[0,0,0,0,0,0,0],"sum_hessian":[1.1963392E1,3.299489E0,8.663903E0,2.4587612E0,6.2051415E0,1.0087732E0,5.196368E0],"tree_param":{"num_deleted":"0","num_feature":"7","num_nodes":"7","size_leaf_vector":"1"}},{"base_weights":[-3.3538587E-2,-3.9411213E-2,3.4541604E-1,-2.7286151E-2,5.896297E-1,3.9402496E-2,3.705894E-2,-2.3114443E-2,2.5748132E-2],"categories":[],"categories_nodes":[],"categories_segments":[],"categories_sizes":[],"default_left":[0,0,0,0,0,0,0,0,0],"id":90,"left_children":[1,-1,3,-1,5,-1,7,-1,-1],"loss_changes":[3.8940978E0,0E0,2.3078613E0,0E0,8.088603E-1,0E0,9.704239E-1,0E0,0E0],"parents":[2147483647,0,0,2,2,4,4,6,6],"right_children":[2,-1,4,-1,6,-1,8,-1,-1],"split_conditions":[4.6516746E-1,-3.9411213E-2,6.756627E-1,-2.7286151E-2,4.7615945E-2,3.9402496E-2,9.708799E-1,-2.3114443E-2,2.5748132E-2],"split_indices":[2,0,3,0,1,0,2,0,0],"split_type":[0,0,0,0,0,0,0,0,0],"sum_hessian":[1.1664122E1,3.5380738E0,8.126047E0,1.4823434E0,6.643704E0,4.574806E0,2.0688982E0,1.0277282E0,1.0411699E0],"tree_param":{"num_deleted":"0","num_feature":"7","num_nodes":"9","size_leaf_vector":"1"}},{"base_weights":[-5.360636E-2,-4.963714E-1,6.3216347E-1,-3.835028E-2,1.3579403E-2,7.50458E-3,3.5582963E-2],"categories":[],"categories_nodes":[],"categories_segments":[],"categories_sizes":[],"default_left":[0,0,0,0,0,0,0],"id":91,"left_children":[1,3,5,-1,-1,-1,-1],"loss_changes":[4.0220866E0,1.8671689E0,9.36687E-2,0E0,0E0,0E0,0E0],"parents":[2147483647,0,0,1,1,2,2],"right_children":[2,4,6,-1,-1,-1,-1],"split_conditions":[6.58975E-1,9.030963E-1,2.0096649E-1,-3.835028E-2,1.3579403E-2,7.50458E-3,3.5582963E-2],"split_indices":[2,3,0,0,0,0,0],"split_type":[0,0,0,0,0,0,0],"sum_hessian":[1.12130165E1,6.9815717E0,4.231445E0,5.163249E0,1.8183229E0,1.0078385E0,3.2236066E0],"tree_param":{"num_deleted":"0","num_feature":"7","num_nodes":"7","size_leaf_vector":"1"}},{"base_weights":[-3.073332E-2,-4.8230788E-1,5.8604825E-1,-4.1111685E-2,1.5059911E-2,3.714333E-2,7.29954E-3],"categories":[],"categories_nodes":[],"categories_segments":[],"categories_sizes":[],"default_left":[0,0,0,0,0,0,0],"id":92,"left_children":[1,3,5,-1,-1,-1,-1],"loss_changes":[3.57754E0,2.2127047E0,2.6776588E-1,0E0,0E0,0E0,0E0],"parents":[2147483647,0,0,1,1,2,2],"right_children":[2,4,6,-1,-1,-1,-1],"split_conditions":[6.506326E-1,9.030963E-1,4.7615945E-2,-4.1111685E-2,1.5059911E-2,3.714333E-2,7.29954E-3],"split_indices":[2,3,1,0,0,0,0],"split_type":[0,0,0,0,0,0,0],"sum_hessian":[1.0829851E1,6.3781414E0,4.4517097E0,4.4137836E0,1.964358E0,2.7747798E0,1.6769301E0],"tree_param":{"num_deleted":"0","num_feature":"7","num_nodes":"7","size_leaf_vector":"1"}},{"base_weights":[-3.4675825E-2,-3.704206E-2,2.7493328E-1,-3.593911E-2,7.4327314E-1,7.366015E-3,4.140238E-2],"categories":[],"categories_nodes":[],"categories_segments":[],"categories_sizes":[],"default_left":[0,0,0,0,0,0,0],"id":93,"left_children":[1,-1,3,-1,5,-1,-1],"loss_changes":[2.7056372E0,0E0,4.576154E0,0E0,2.010696E-1,0E0,0E0],"parents":[2147483647,0,0,2,2,4,4],"right_children":[2,-1,4,-1,6,-1,-1],"split_conditions":[1.0591318E-3,-3.704206E-2,2.5704148E-1,-3.593911E-2,6.8544424E-1,7.366015E-3,4.140238E-2],"split_indices":[1,0,6,0,3,0,0],"split_type":[0,0,0,0,0,0,0],"sum_hessian":[1.0443516E1,2.7586594E0,7.6848564E0,2.2903936E0,5.3944626E0,1.0127506E0,4.381712E0],"tree_param":{"num_deleted":"0","num_feature":"7","num_nodes":"7","size_leaf_vector":"1"}},{"base_weights":[-5.263059E-2,-4.7932285E-1,5.592027E-1,-3.8550146E-2,1.7563958E-2,3.5128333E-2,9.05003E-3],"categories":[],"categories_nodes":[],"categories_segments":[],"categories_sizes":[],"default_left":[0,0,0,0,0,0,0],"id":94,"left_children":[1,3,5,-1,-1,-1,-1],"loss_changes":[3.1816006E0,1.9942024E0,1.4648104E-1,0E0,0E0,0E0,0E0],"parents":[2147483647,0,0,1,1,2,2],"right_children":[2,4,6,-1,-1,-1,-1],"split_conditions":[6.5852034E-1,9.171197E-1,4.7615945E-2,-3.8550146E-2,1.7563958E-2,3.5128333E-2,9.05003E-3],"split_indices":[2,3,1,0,0,0,0],"split_type":[0,0,0,0,0,0,0],"sum_hessian":[1.0160314E1,6.113406E0,4.0469074E0,4.577643E0,1.5357633E0,2.3126204E0,1.7342871E0],"tree_param":{"num_deleted":"0","num_feature":"7","num_nodes":"7","size_leaf_vector":"1"}},{"base_weights":[-1.8918043E-2,-3.746662E-2,3.3942667E-1,-3.0028163E-2,6.3385403E-1,-6.8367715E-3,3.995935E-2],"categories":[],"categories_nodes":[],"categories_segments":[],"categories_sizes":[],"default_left":[0,0,0,0,0,0,0],"id":95,"left_children":[1,-1,3,-1,5,-1,-1],"loss_changes":[3.0975962E0,0E0,2.5880458E0,0E0,9.450431E-1,0E0,0E0],"parents":[2147483647,0,0,2,2,4,4],"right_children":[2,-1,4,-1,6,-1,-1],"split_conditions":[4.6516746E-1,-3.746662E-2,2.5704148E-1,-3.0028163E-2,6.810311E-1,-6.8367715E-3,3.995935E-2],"split_indices":[2,0,6,0,3,0,0],"split_type":[0,0,0,0,0,0,0],"sum_hessian":[9.862885E0,2.8870716E0,6.9758143E0,1.4158381E0,5.559976E0,1.0127381E0,4.547238E0],"tree_param":{"num_deleted":"0","num_feature":"7","num_nodes":"7","size_leaf_vector":"1"}},{"base_weights":[-5.1426888E-2,-3.65087E-2,2.5644287E-1,-3.5256695E-2,7.1904284E-1,7.365897E-3,4.03657E-2],"categories":[],"categories_nodes":[],"categories_segments":[],"categories_sizes":[],"default_left":[0,0,0,0,0,0,0],"id":96,"left_children":[1,-1,3,-1,5,-1,-1],"loss_changes":[2.4341104E0,0E0,4.12664E0,0E0,1.833229E-1,0E0,0E0],"parents":[2147483647,0,0,2,2,4,4],"right_children":[2,-1,4,-1,6,-1,-1],"split_conditions":[1.0591318E-3,-3.65087E-2,2.5704148E-1,-3.5256695E-2,6.852766E-1,7.365897E-3,4.03657E-2],"split_indices":[1,0,6,0,3,0,0],"split_type":[0,0,0,0,0,0,0],"sum_hessian":[9.752301E0,2.615133E0,7.1371684E0,2.1479917E0,4.9891768E0,1.0242324E0,3.9649441E0],"tree_param":{"num_deleted":"0","num_feature":"7","num_nodes":"7","size_leaf_vector":"1"}},{"base_weights":[-3.4925282E-2,-4.7496742E-1,5.382673E-1,-4.00113E-2,1.516435E-2,-8.38051E-3,3.7981164E-2],"categories":[],"categories_nodes":[],"categories_segments":[],"categories_sizes":[],"default_left":[0,0,0,0,0,0,0],"id":97,"left_children":[1,3,5,-1,-1,-1,-1],"loss_changes":[2.9212437E0,1.8905194E0,9.1770244E-1,0E0,0E0,0E0,0E0],"parents":[2147483647,0,0,1,1,2,2],"right_children":[2,4,6,-1,-1,-1,-1],"split_conditions":[6.506326E-1,9.030963E-1,2.713139E-1,-4.00113E-2,1.516435E-2,-8.38051E-3,3.7981164E-2],"split_indices":[2,3,6,0,0,0,0],"split_type":[0,0,0,0,0,0,0],"sum_hessian":[9.568116E0,5.50968E0,4.058437E0,3.8658001E0,1.6438795E0,1.0268234E0,3.0316133E0],"tree_param":{"num_deleted":"0","num_feature":"7","num_nodes":"7","size_leaf_vector":"1"}},{"base_weights":[-2.0870265E-2,-3.567951E-2,2.9198712E-1,5.441816E-1,-2.7795825E-2,4.9920025E-4,3.923379E-2],"categories":[],"categories_nodes":[],"categories_segments":[],"categories_sizes":[],"default_left":[0,0,0,0,0,0,0],"id":98,"left_children":[1,-1,3,5,-1,-1,-1],"loss_changes":[2.382509E0,0E0,1.932044E0,8.116586E-1,0E0,0E0,0E0],"parents":[2147483647,0,0,2,2,3,3],"right_children":[2,-1,4,6,-1,-1,-1],"split_conditions":[1.0591318E-3,-3.567951E-2,6.378973E-1,7.3091245E-1,-2.7795825E-2,4.9920025E-4,3.923379E-2],"split_indices":[1,0,5,3,0,0,0],"split_type":[0,0,0,0,0,0,0],"sum_hessian":[9.03195E0,2.4115295E0,6.6204205E0,5.3787937E0,1.2416267E0,1.9931114E0,3.385682E0],"tree_param":{"num_deleted":"0","num_feature":"7","num_nodes":"7","size_leaf_vector":"1"}},{"base_weights":[-3.756862E-2,-4.649305E-1,5.3633785E-1,-3.7930414E-2,6.8582855E-2,3.405191E-2,7.877645E-3,-1.1259568E-2,1.6679717E-2],"categories":[],"categories_nodes":[],"categories_segments":[],"categories_sizes":[],"default_left":[0,0,0,0,0,0,0,0,0],"id":99,"left_children":[1,3,5,-1,7,-1,-1,-1,-1],"loss_changes":[2.6583278E0,1.0180212E0,1.4792573E-1,0E0,3.1693372E-1,0E0,0E0,0E0,0E0],"parents":[2147483647,0,0,1,1,2,2,4,4],"right_children":[2,4,6,-1,8,-1,-1,-1,-1],"split_conditions":[6.506326E-1,6.1033607E-1,4.7615945E-2,-3.7930414E-2,4.8065E-1,3.405191E-2,7.877645E-3,-1.1259568E-2,1.6679717E-2],"split_indices":[2,4,1,0,2,0,0,0,0],"split_type":[0,0,0,0,0,0,0,0,0],"sum_hessian":[8.821869E0,5.165352E0,3.656517E0,3.0593767E0,2.1059752E0,2.068406E0,1.5881108E0,1.0700483E0,1.0359269E0],"tree_param":{"num_deleted":"0","num_feature":"7","num_nodes":"9","size_leaf_vector":"1"}},{"base_weights":[-4.148149E-2,-3.5589572E-2,2.7076915E-1,-3.127333E-2,6.041139E-1,-6.321773E-3,3.9551776E-2],"categories":[],"categories_nodes":[],"categories_segments":[],"categories_sizes":[],"default_left":[0,0,0,0,0,0,0],"id":100,"left_children":[1,-1,3,-1,5,-1,-1],"loss_changes":[2.252217E0,0E0,2.5997298E0,0E0,9.0972877E-1,0E0,0E0],"parents":[2147483647,0,0,2,2,4,4],"right_children":[2,-1,4,-1,6,-1,-1],"split_conditions":[4.6516746E-1,-3.5589572E-2,2.526339E-1,-3.127333E-2,6.818478E-1,-6.321773E-3,3.9551776E-2],"split_indices":[2,0,6,0,3,0,0],"split_type":[0,0,0,0,0,0,0],"sum_hessian":[8.839655E0,2.4025462E0,6.4371085E0,1.5075502E0,4.9295583E0,1.0702546E0,3.859304E0],"tree_param":{"num_deleted":"0","num_feature":"7","num_nodes":"7","size_leaf_vector":"1"}},{"base_weights":[-7.041141E-2,-4.3468845E-1,4.9634105E-1,-3.5629135E-2,1.3061094E-2,-2.166563E-3,3.418888E-2],"categories":[],"categories_nodes":[],"categories_segments":[],"categories_sizes":[],"default_left":[0,0,0,0,0,0,0],"id":101,"left_children":[1,3,5,-1,-1,-1,-1],"loss_changes":[2.150174E0,1.3922727E0,4.4769E-1,0E0,0E0,0E0,0E0],"parents":[2147483647,0,0,1,1,2,2],"right_children":[2,4,6,-1,-1,-1,-1],"split_conditions":[6.58975E-1,9.030963E-1,2.7282763E-1,-3.5629135E-2,1.3061094E-2,-2.166563E-3,3.418888E-2],"split_indices":[2,3,6,0,0,0,0],"split_type":[0,0,0,0,0,0,0],"sum_hessian":[8.369699E0,5.2367954E0,3.1329026E0,