{"learner":{"attributes":{"scikit_learn":"{\"_estimator_type\": \"classifier\"}"},"feature_names":["sharpness","glare","contrast","entropy","edge_density","mean_brightness","saturation"],"feature_types":["float","float","float","float","float","float","float"],"gradient_booster":{"model":{"gbtree_model_param":{"num_parallel_tree":"1","num_trees":"500"},"iteration_indptr":[0,1,2,3,4,5,6,7,8,9,10,11,12,13,14,15,16,17,18,19,20,21,22,23,24,25,26,27,28,29,30,31,32,33,34,35,36,37,38,39,40,41,42,43,44,45,46,47,48,49,50,51,52,53,54,55,56,57,58,59,60,61,62,63,64,65,66,67,68,69,70,71,72,73,74,75,76,77,78,79,80,81,82,83,84,85,86,87,88,89,90,91,92,93,94,95,96,97,98,99,100,101,102,103,104,105,106,107,108,109,110,111,112,113,114,115,116,117,118,119,120,121,122,123,124,125,126,127,128,129,130,131,132,133,134,135,136,137,138,139,140,141,142,143,144,145,146,147,148,149,150,151,152,153,154,155,156,157,158,159,160,161,162,163,164,165,166,167,168,169,170,171,172,173,174,175,176,177,178,179,180,181,182,183,184,185,186,187,188,189,190,191,192,193,194,195,196,197,198,199,200,201,202,203,204,205,206,207,208,209,210,211,212,213,214,215,216,217,218,219,220,221,222,223,224,225,226,227,228,229,230,231,232,233,234,235,236,237,238,239,240,241,242,243,244,245,246,247,248,249,250,251,252,253,254,255,256,257,258,259,260,261,262,263,264,265,266,267,268,269,270,271,272,273,274,275,276,277,278,279,280,281,282,283,284,285,286,287,288,289,290,291,292,293,294,295,296,297,298,299,300,301,302,303,304,305,306,307,308,309,310,311,312,313,314,315,316,317,318,319,320,321,322,323,324,325,326,327,328,329,330,331,332,333,334,335,336,337,338,339,340,341,342,343,344,345,346,347,348,349,350,351,352,353,354,355,356,357,358,359,360,361,362,363,364,365,366,367,368,369,370,371,372,373,374,375,376,377,378,379,380,381,382,383,384,385,386,387,388,389,390,391,392,393,394,395,396,397,398,399,400,401,402,403,404,405,406,407,408,409,410,411,412,413,414,415,416,417,418,419,420,421,422,423,424,425,426,427,428,429,430,431,432,433,434,435,436,437,438,439,440,441,442,443,444,445,446,447,448,449,450,451,452,453,454,455,456,457,458,459,460,461,462,463,464,465,466,467,468,469,470,471,472,473,474,475,476,477,478,479,480,481,482,483,484,485,486,487,488,489,490,491,492,493,494,495,496,497,498,499,500],"tree_info":[0,0,0,0,0,0,0,0,0,0,0,0,0,0,0,0,0,0,0,0,0,0,0,0,0,0,0,0,0,0,0,0,0,0,0,0,0,0,0,0,0,0,0,0,0,0,0,0,0,0,0,0,0,0,0,0,0,0,0,0,0,0,0,0,0,0,0,0,0,0,0,0,0,0,0,0,0,0,0,0,0,0,0,0,0,0,0,0,0,0,0,0,0,0,0,0,0,0,0,0,0,0,0,0,0,0,0,0,0,0,0,0,0,0,0,0,0,0,0,0,0,0,0,0,0,0,0,0,0,0,0,0,0,0,0,0,0,0,0,0,0,0,0,0,0,0,0,0,0,0,0,0,0,0,0,0,0,0,0,0,0,0,0,0,0,0,0,0,0,0,0,0,0,0,0,0,0,0,0,0,0,0,0,0,0,0,0,0,0,0,0,0,0,0,0,0,0,0,0,0,0,0,0,0,0,0,0,0,0,0,0,0,0,0,0,0,0,0,0,0,0,0,0,0,0,0,0,0,0,0,0,0,0,0,0,0,0,0,0,0,0,0,0,0,0,0,0,0,0,0,0,0,0,0,0,0,0,0,0,0,0,0,0,0,0,0,0,0,0,0,0,0,0,0,0,0,0,0,0,0,0,0,0,0,0,0,0,0,0,0,0,0,0,0,0,0,0,0,0,0,0,0,0,0,0,0,0,0,0,0,0,0,0,0,0,0,0,0,0,0,0,0,0,0,0,0,0,0,0,0,0,0,0,0,0,0,0,0,0,0,0,0,0,0,0,0,0,0,0,0,0,0,0,0,0,0,0,0,0,0,0,0,0,0,0,0,0,0,0,0,0,0,0,0,0,0,0,0,0,0,0,0,0,0,0,0,0,0,0,0,0,0,0,0,0,0,0,0,0,0,0,0,0,0,0,0,0,0,0,0,0,0,0,0,0,0,0,0,0,0,0,0,0,0,0,0,0,0,0,0,0,0,0,0,0,0,0,0,0,0,0,0,0,0,0,0,0,0,0,0,0,0,0,0,0,0,0,0,0,0,0,0,0,0,0,0,0,0,0,0,0,0,0,0,0,0,0,0,0,0,0,0,0,0,0,0,0,0,0,0,0,0,0,0,0,0,0,0,0,0],"trees":[{"base_weights":[-1.62206E-3,-9.9E-2,9.4384706E-1,-9.786096E-2,1.7675841E0,-8.9999996E-2,9.9352755E-2],"categories":[],"categories_nodes":[],"categories_segments":[],"categories_sizes":[],"default_left":[0,0,0,0,0,0,0],"id":0,"left_children":[1,-1,3,-1,5,-1,-1],"loss_changes":[5.7844904E2,0E0,5.0350757E2,0E0,1.3159409E2,0E0,0E0],"parents":[2147483647,0,0,2,2,4,4],"right_children":[2,-1,4,-1,6,-1,-1],"split_conditions":[6.7608384E-4,-9.9E-2,2.6247472E-1,-9.786096E-2,5.3649873E-2,-8.9999996E-2,9.9352755E-2],"split_indices":[1,0,6,0,0,0,0],"split_type":[0,0,0,0,0,0,0],"sum_hessian":[3.0725E2,9.9E1,2.0825E2,4.575E1,1.625E2,9E0,1.535E2],"tree_param":{"num_deleted":"0","num_feature":"7","num_nodes":"7","size_leaf_vector":"1"}},{"base_weights":[-1.9388571E-2,-1.28838E0,1.6997151E0,-1.8739749E0,1.5903121E0,-8.005386E-2,9.2590205E-2,-9.433435E-2,-3.6628295E-2,-6.3477315E-2,9.189071E-2],"categories":[],"categories_nodes":[],"categories_segments":[],"categories_sizes":[],"default_left":[0,0,0,0,0,0,0,0,0,0,0],"id":1,"left_children":[1,3,5,7,9,-1,-1,-1,-1,-1,-1],"loss_changes":[6.6485376E2,2.9853906E2,6.794223E1,7.3846436E-1,2.3693779E1,0E0,0E0,0E0,0E0,0E0,0E0],"parents":[2147483647,0,0,1,1,2,2,3,3,4,4],"right_children":[2,4,6,8,10,-1,-1,-1,-1,-1,-1],"split_conditions":[6.6390204E-1,9.1671485E-1,6.506931E-1,9.035709E-1,4.6450713E-1,-8.005386E-2,9.2590205E-2,-9.433435E-2,-3.6628295E-2,-6.3477315E-2,9.189071E-2],"split_indices":[2,3,3,3,2,0,0,0,0,0,0],"split_type":[0,0,0,0,0,0,0,0,0,0,0],"sum_hessian":[3.0276135E2,1.7432808E2,1.2843327E2,1.451501E2,2.9177986E1,5.2374506E0,1.2319582E2,1.429056E2,2.2445014E0,1.9951216E0,2.7182865E1],"tree_param":{"num_deleted":"0","num_feature":"7","num_nodes":"11","size_leaf_vector":"1"}},{"base_weights":[2.939024E-2,-9.032132E-2,8.7202084E-1,-8.964499E-2,1.6400987E0,-8.103738E-2,9.073152E-2],"categories":[],"categories_nodes":[],"categories_segments":[],"categories_sizes":[],"default_left":[0,0,0,0,0,0,0],"id":2,"left_children":[1,-1,3,-1,5,-1,-1],"loss_changes":[4.6530612E2,0E0,4.24888E2,0E0,9.431009E1,0E0,0E0],"parents":[2147483647,0,0,2,2,4,4],"right_children":[2,-1,4,-1,6,-1,-1],"split_conditions":[6.7608384E-4,-9.032132E-2,2.599099E-1,-8.964499E-2,5.3649873E-2,-8.103738E-2,9.073152E-2],"split_indices":[1,0,6,0,0,0,0],"split_type":[0,0,0,0,0,0,0],"sum_hessian":[2.987778E2,9.3634674E1,2.0514313E2,4.559893E1,1.595442E2,7.684536E0,1.5185966E2],"tree_param":{"num_deleted":"0","num_feature":"7","num_nodes":"7","size_leaf_vector":"1"}},{"base_weights":[3.2451738E-2,-8.620165E-2,6.930242E-1,1.2508154E0,-1.6750827E0,-8.4750466E-2,1.7268162E0,-8.5651465E-2,-1.0985941E-2,8.715848E-2,7.7616394E-1,-9.641065E-3,6.0333934E-2],"categories":[],"categories_nodes":[],"categories_segments":[],"categories_sizes":[],"default_left":[0,0,0,0,0,0,0,0,0,0,0,0,0],"id":3,"left_children":[1,-1,3,5,7,-1,9,-1,-1,-1,11,-1,-1],"loss_changes":[3.5391833E2,0E0,2.9484726E2,2.5525623E2,1.9806061E0,0E0,1.0631104E0,0E0,0E0,0E0,2.0810788E0,0E0,0E0],"parents":[2147483647,0,0,2,2,3,3,4,4,6,6,10,10],"right_children":[2,-1,4,6,8,-1,10,-1,-1,-1,12,-1,-1],"split_conditions":[3.2975444E-1,-8.620165E-2,5.029218E-1,2.4317104E-1,6.765253E-1,-8.4750466E-2,4.9374735E-1,-8.5651465E-2,-1.0985941E-2,8.715848E-2,5.399199E-1,-9.641065E-3,6.0333934E-2],"split_indices":[4,0,6,6,0,0,6,0,0,0,0,0,0],"split_type":[0,0,0,0,0,0,0,0,0,0,0,0,0],"sum_hessian":[3.029972E2,8.236799E1,2.2062921E2,1.7895047E2,4.1678738E1,2.4537064E1,1.544134E2,4.044709E1,1.231647E0,1.509825E2,3.4309025E0,1.225257E0,2.2056453E0],"tree_param":{"num_deleted":"0","num_feature":"7","num_nodes":"13","size_leaf_vector":"1"}},{"base_weights":[1.3803372E-2,-1.0957751E0,1.4907415E0,-8.3718434E-2,1.3860602E0,-7.527999E-2,8.360343E-2,-6.1268207E-2,8.184847E-2],"categories":[],"categories_nodes":[],"categories_segments":[],"categories_sizes":[],"default_left":[0,0,0,0,0,0,0,0,0],"id":4,"left_children":[1,3,5,-1,7,-1,-1,-1,-1],"loss_changes":[4.8791098E2,2.4645695E2,7.190854E1,0E0,2.342498E1,0E0,0E0,0E0,0E0],"parents":[2147483647,0,0,1,1,2,2,4,4],"right_children":[2,4,6,-1,8,-1,-1,-1,-1],"split_conditions":[6.5965635E-1,9.1014916E-1,2.6247472E-1,-8.3718434E-2,4.6450713E-1,-7.527999E-2,8.360343E-2,-6.1268207E-2,8.184847E-2],"split_indices":[2,3,6,0,2,0,0,0,0],"split_type":[0,0,0,0,0,0,0,0,0],"sum_hessian":[2.9573163E2,1.6901436E2,1.26717255E2,1.3732497E2,3.1689402E1,6.814115E0,1.1990314E2,2.4374206E0,2.925198E1],"tree_param":{"num_deleted":"0","num_feature":"7","num_nodes":"9","size_leaf_vector":"1"}},{"base_weights":[7.3167705E-3,-1.0825992E0,1.4625732E0,-1.596793E0,1.3465817E0,-7.24435E-2,8.1169754E-2,-1.6135217E0,-4.477563E-1,-5.7801303E-2,7.8961596E-2,-8.124905E-2,-8.597522E-3,-4.5985725E-2,1.1191024E-2],"categories":[],"categories_nodes":[],"categories_segments":[],"categories_sizes":[],"default_left":[0,0,0,0,0,0,0,0,0,0,0,0,0,0,0],"id":5,"left_children":[1,3,5,7,9,-1,-1,11,13,-1,-1,-1,-1,-1,-1],"loss_changes":[4.7582788E2,2.1640775E2,6.2502655E1,2.0075378E0,1.9588749E1,0E0,0E0,2.026703E0,1.29052E0,0E0,0E0,0E0,0E0,0E0,0E0],"parents":[2147483647,0,0,1,1,2,2,3,3,4,4,7,7,8,8],"right_children":[2,4,6,8,10,-1,-1,12,14,-1,-1,-1,-1,-1,-1],"split_conditions":[6.6390204E-1,9.1671485E-1,2.6247472E-1,9.035709E-1,4.6450713E-1,-7.24435E-2,8.1169754E-2,6.5965635E-1,4.549436E-1,-5.7801303E-2,7.8961596E-2,-8.124905E-2,-8.597522E-3,-4.5985725E-2,1.1191024E-2],"split_indices":[2,3,6,3,2,0,0,2,2,0,0,0,0,0,0],"split_type":[0,0,0,0,0,0,0,0,0,0,0,0,0,0,0],"sum_hessian":[2.9799902E2,1.7053369E2,1.2746534E2,1.4102505E2,2.9508638E1,6.253102E0,1.21212234E2,1.3860292E2,2.422142E0,2.1723056E0,2.7336332E1,1.373836E2,1.2193044E0,1.205487E0,1.216655E0],"tree_param":{"num_deleted":"0","num_feature":"7","num_nodes":"15","size_leaf_vector":"1"}},{"base_weights":[9.007392E-3,-7.865209E-2,7.4011856E-1,-7.7881195E-2,1.4026363E0,-7.1359456E-2,7.886805E-2],"categories":[],"categories_nodes":[],"categories_segments":[],"categories_sizes":[],"default_left":[0,0,0,0,0,0,0],"id":6,"left_children":[1,-1,3,-1,5,-1,-1],"loss_changes":[3.3233463E2,0E0,3.0131952E2,0E0,7.792551E1,0E0,0E0],"parents":[2147483647,0,0,2,2,4,4],"right_children":[2,-1,4,-1,6,-1,-1],"split_conditions":[6.7608384E-4,-7.865209E-2,2.6247472E-1,-7.7881195E-2,4.9181908E-1,-7.1359456E-2,7.886805E-2],"split_indices":[1,0,6,0,3,0,0],"split_type":[0,0,0,0,0,0,0],"sum_hessian":[2.8531766E2,8.981521E1,1.9550244E2,4.345183E1,1.520506E2,8.425388E0,1.4362521E2],"tree_param":{"num_deleted":"0","num_feature":"7","num_nodes":"7","size_leaf_vector":"1"}},{"base_weights":[-8.067774E-3,-1.0233848E0,1.384716E0,-1.4970354E0,7.168432E-1,-6.6693105E-2,7.643744E-2,-1.50799E0,-1.5565621E-2,1.1877145E0,-6.6481136E-2,-7.596006E-2,-1.9364676E-2,-6.0494836E-2,7.4317746E-2],"categories":[],"categories_nodes":[],"categories_segments":[],"categories_sizes":[],"default_left":[0,0,0,0,0,0,0,0,0,0,0,0,0,0,0],"id":7,"left_children":[1,3,5,7,9,-1,-1,11,-1,13,-1,-1,-1,-1,-1],"loss_changes":[4.0120932E2,1.3632611E2,4.8880005E1,1.210144E0,3.6060158E1,0E0,0E0,1.018158E0,0E0,2.3005264E1,0E0,0E0,0E0,0E0,0E0],"parents":[2147483647,0,0,1,1,2,2,3,3,4,4,7,7,9,9],"right_children":[2,4,6,8,10,-1,-1,12,-1,14,-1,-1,-1,-1,-1],"split_conditions":[6.6390204E-1,6.613928E-1,2.599099E-1,6.5965635E-1,5.138372E-1,-6.6693105E-2,7.643744E-2,6.4898074E-1,-1.5565621E-2,1.6658022E-1,-6.6481136E-2,-7.596006E-2,-1.9364676E-2,-6.0494836E-2,7.4317746E-2],"split_indices":[2,4,6,2,5,0,0,4,0,5,0,0,0,0,0],"split_type":[0,0,0,0,0,0,0,0,0,0,0,0,0,0,0],"sum_hessian":[2.8171506E2,1.6309018E2,1.1862489E2,1.2830753E2,3.478265E1,5.5529914E0,1.130719E2,1.2686367E2,1.4438589E0,2.8617643E1,6.1650066E0,1.2525506E2,1.6086091E0,2.8317568E0,2.5785887E1],"tree_param":{"num_deleted":"0","num_feature":"7","num_nodes":"15","size_leaf_vector":"1"}},{"base_weights":[8.102328E-4,-9.7394127E-1,1.3412533E0,-1.4637908E0,1.215066E0,-6.551049E-2,7.4445456E-2,-1.4748318E0,-6.4168735E-3,7.136079E-2,-5.425009E-2,-7.430844E-2,-2.6102293E-2],"categories":[],"categories_nodes":[],"categories_segments":[],"categories_sizes":[],"default_left":[0,0,0,0,0,0,0,0,0,0,0,0,0],"id":8,"left_children":[1,3,5,7,9,-1,-1,11,-1,-1,-1,-1,-1],"loss_changes":[3.6196124E2,1.7376408E2,4.7613464E1,1.7499084E0,1.6126438E1,0E0,0E0,6.321106E-1,0E0,0E0,0E0,0E0,0E0],"parents":[2147483647,0,0,1,1,2,2,3,3,4,4,7,7],"right_children":[2,4,6,8,10,-1,-1,12,-1,-1,-1,-1,-1],"split_conditions":[6.6390204E-1,9.1671485E-1,2.599099E-1,9.1014916E-1,3.9052022E-1,-6.551049E-2,7.4445456E-2,6.5270144E-1,-6.4168735E-3,7.136079E-2,-5.425009E-2,-7.430844E-2,-2.6102293E-2],"split_indices":[2,3,6,3,6,0,0,2,0,0,0,0,0],"split_type":[0,0,0,0,0,0,0,0,0,0,0,0,0],"sum_hessian":[2.7502576E2,1.5939172E2,1.15634026E2,1.3051645E2,2.8875284E1,5.6844616E0,1.0994956E2,1.2934273E2,1.1737167E0,2.678429E1,2.0909944E0,1.2726858E2,2.0741506E0],"tree_param":{"num_deleted":"0","num_feature":"7","num_nodes":"13","size_leaf_vector":"1"}},{"base_weights":[4.554404E-3,-9.544192E-1,1.289916E0,-1.4360508E0,1.2701211E0,-6.546502E-2,7.264094E-2,-7.2888486E-2,-1.8433806E-1,-4.444183E-2,7.0753835E-2,2.6420576E-2,-4.099421E-2],"categories":[],"categories_nodes":[],"categories_segments":[],"categories_sizes":[],"default_left":[0,0,0,0,0,0,0,0,0,0,0,0,0],"id":9,"left_children":[1,3,5,7,9,-1,-1,-1,11,-1,-1,-1,-1],"loss_changes":[3.30059E2,1.661325E2,5.0346603E1,3.1712341E0,9.965519E0,0E0,0E0,0E0,1.929374E0,0E0,0E0,0E0,0E0],"parents":[2147483647,0,0,1,1,2,2,3,3,4,4,8,8],"right_children":[2,4,6,8,10,-1,-1,-1,12,-1,-1,-1,-1],"split_conditions":[6.6390204E-1,9.2067015E-1,2.6247472E-1,9.1014916E-1,4.6450713E-1,-6.546502E-2,7.264094E-2,-7.2888486E-2,6.613928E-1,-4.444183E-2,7.0753835E-2,2.6420576E-2,-4.099421E-2],"split_indices":[2,3,6,3,2,0,0,0,4,0,0,0,0],"split_type":[0,0,0,0,0,0,0,0,0,0,0,0,0],"sum_hessian":[2.6576978E2,1.5235747E2,1.13412315E2,1.2553298E2,2.682449E1,6.273726E0,1.0713859E2,1.2323014E2,2.30284E0,1.3648405E0,2.5459648E1,1.1649489E0,1.137891E0],"tree_param":{"num_deleted":"0","num_feature":"7","num_nodes":"13","size_leaf_vector":"1"}},{"base_weights":[6.2909275E-2,-9.297087E-1,1.3061545E0,-1.3923293E0,1.1640129E0,-6.0629394E-2,7.104557E-2,-1.4103248E0,-3.336099E-1,-5.066787E-2,6.911757E-2,-7.112925E-2,-1.2285843E-2,-4.041193E-2,1.4179041E-2],"categories":[],"categories_nodes":[],"categories_segments":[],"categories_sizes":[],"default_left":[0,0,0,0,0,0,0,0,0,0,0,0,0,0,0],"id":10,"left_children":[1,3,5,7,9,-1,-1,11,13,-1,-1,-1,-1,-1,-1],"loss_changes":[3.2173663E2,1.420727E2,3.5171844E1,1.8008575E0,1.4135078E1,0E0,0E0,1.319809E0,1.196588E0,0E0,0E0,0E0,0E0,0E0,0E0],"parents":[2147483647,0,0,1,1,2,2,3,3,4,4,7,7,8,8],"right_children":[2,4,6,8,10,-1,-1,12,14,-1,-1,-1,-1,-1,-1],"split_conditions":[6.6390204E-1,9.1671485E-1,2.599099E-1,9.035709E-1,4.6450713E-1,-6.0629394E-2,7.104557E-2,6.5965635E-1,4.549436E-1,-5.066787E-2,6.911757E-2,-7.112925E-2,-1.2285843E-2,-4.041193E-2,1.4179041E-2],"split_indices":[2,3,6,3,2,0,0,2,2,0,0,0,0,0,0],"split_type":[0,0,0,0,0,0,0,0,0,0,0,0,0,0,0],"sum_hessian":[2.587283E2,1.4400534E2,1.14722946E2,1.182191E2,2.5786236E1,4.5822706E0,1.1014068E2,1.15916725E2,2.302379E0,2.0182352E0,2.3768002E1,1.14489944E2,1.4267774E0,1.1265223E0,1.1758565E0],"tree_param":{"num_deleted":"0","num_feature":"7","num_nodes":"15","size_leaf_vector":"1"}},{"base_weights":[-4.035521E-2,-9.6203595E-1,1.2137333E0,-6.907909E-2,1.0940347E0,-6.34831E-2,6.950141E-2,-5.033901E-2,1.3176606E0,6.730392E-2,2.0334067E-2],"categories":[],"categories_nodes":[],"categories_segments":[],"categories_sizes":[],"default_left":[0,0,0,0,0,0,0,0,0,0,0],"id":11,"left_children":[1,3,5,-1,7,-1,-1,-1,9,-1,-1],"loss_changes":[2.9372427E2,1.2783716E2,4.8899643E1,0E0,1.324828E1,0E0,0E0,0E0,5.752182E-2,0E0,0E0],"parents":[2147483647,0,0,1,1,2,2,4,4,8,8],"right_children":[2,4,6,-1,8,-1,-1,-1,10,-1,-1],"split_conditions":[6.6390204E-1,9.1014916E-1,2.6247472E-1,-6.907909E-2,4.6450713E-1,-6.34831E-2,6.950141E-2,-5.033901E-2,3.2180557E-1,6.730392E-2,2.0334067E-2],"split_indices":[2,3,6,0,2,0,0,0,6,0,0],"split_type":[0,0,0,0,0,0,0,0,0,0,0],"sum_hessian":[2.5210529E2,1.4544484E2,1.0666045E2,1.2106857E2,2.4376268E1,6.6587873E0,1.0000166E2,2.0082288E0,2.2368038E1,2.1228212E1,1.1398264E0],"tree_param":{"num_deleted":"0","num_feature":"7","num_nodes":"11","size_leaf_vector":"1"}},{"base_weights":[2.6325138E-2,-6.820091E-2,6.818172E-1,-6.751946E-2,1.2281793E0,-6.046476E-2,6.85107E-2],"categories":[],"categories_nodes":[],"categories_segments":[],"categories_sizes":[],"default_left":[0,0,0,0,0,0,0],"id":12,"left_children":[1,-1,3,-1,5,-1,-1],"loss_changes":[2.2481422E2,0E0,1.8776636E2,0E0,4.7572342E1,0E0,0E0],"parents":[2147483647,0,0,2,2,4,4],"right_children":[2,-1,4,-1,6,-1,-1],"split_conditions":[6.7608384E-4,-6.820091E-2,2.6247472E-1,-6.751946E-2,5.3649873E-2,-6.046476E-2,6.85107E-2],"split_indices":[1,0,6,0,0,0,0],"split_type":[0,0,0,0,0,0,0],"sum_hessian":[2.4465974E2,7.804343E1,1.6661632E2,3.4991825E1,1.316245E2,6.8338466E0,1.2479065E2],"tree_param":{"num_deleted":"0","num_feature":"7","num_nodes":"7","size_leaf_vector":"1"}},{"base_weights":[-2.5109906E-2,-8.857396E-1,1.1718862E0,-1.2999854E0,1.1999071E0,-6.0251933E-2,6.688648E-2,-1.3285567E0,-3.233642E-1,-2.3596298E-2,6.487598E-2,-6.706479E-2,-2.4902343E-3,-5.236535E-2,4.372147E-2],"categories":[],"categories_nodes":[],"categories_segments":[],"categories_sizes":[],"default_left":[0,0,0,0,0,0,0,0,0,0,0,0,0,0,0],"id":13,"left_children":[1,3,5,7,9,-1,-1,11,13,-1,-1,-1,-1,-1,-1],"loss_changes":[2.484382E2,1.2275441E2,4.137799E1,2.84935E0,4.490513E0,0E0,0E0,1.7878418E0,4.9582105E0,0E0,0E0,0E0,0E0,0E0,0E0],"parents":[2147483647,0,0,1,1,2,2,3,3,4,4,7,7,8,8],"right_children":[2,4,6,8,10,-1,-1,12,14,-1,-1,-1,-1,-1,-1],"split_conditions":[6.6390204E-1,9.2350876E-1,2.6247472E-1,9.035709E-1,4.787603E-1,-6.0251933E-2,6.688648E-2,6.5965635E-1,4.8996288E-1,-2.3596298E-2,6.487598E-2,-6.706479E-2,-2.4902343E-3,-5.236535E-2,4.372147E-2],"split_indices":[2,3,6,3,2,0,0,2,2,0,0,0,0,0,0],"split_type":[0,0,0,0,0,0,0,0,0,0,0,0,0,0,0],"sum_hessian":[2.3915463E2,1.3927626E2,9.987838E1,1.165117E2,2.2764557E1,6.1055384E0,9.377284E1,1.1284989E2,3.6618102E0,1.0442775E0,2.172028E1,1.11688324E2,1.1615696E0,2.3606668E0,1.3011434E0],"tree_param":{"num_deleted":"0","num_feature":"7","num_nodes":"15","size_leaf_vector":"1"}},{"base_weights":[-1.2697319E-3,-8.5846347E-1,1.183733E0,-1.265717E0,1.197644E0,-5.634014E-2,6.5734945E-2,-1.30523E0,-1.7186256E-1,6.851104E-3,6.356727E-2,-6.590259E-2,-9.424981E-3,-5.1633205E-2,4.7632903E-2],"categories":[],"categories_nodes":[],"categories_segments":[],"categories_sizes":[],"default_left":[0,0,0,0,0,0,0,0,0,0,0,0,0,0,0],"id":14,"left_children":[1,3,5,7,9,-1,-1,11,13,-1,-1,-1,-1,-1,-1],"loss_changes":[2.3292459E2,1.1293168E2,3.0606781E1,4.5968475E0,1.5854912E0,0E0,0E0,1.2908478E0,5.8629117E0,0E0,0E0,0E0,0E0,0E0,0E0],"parents":[2147483647,0,0,1,1,2,2,3,3,4,4,7,7,8,8],"right_children":[2,4,6,8,10,-1,-1,12,14,-1,-1,-1,-1,-1,-1],"split_conditions":[6.6390204E-1,9.2350876E-1,2.599099E-1,9.035709E-1,4.8051357E-1,-5.634014E-2,6.5734945E-2,6.5965635E-1,4.935323E-1,6.851104E-3,6.356727E-2,-6.590259E-2,-9.424981E-3,-5.1633205E-2,4.7632903E-2],"split_indices":[2,3,6,3,2,0,0,2,2,0,0,0,0,0,0],"split_type":[0,0,0,0,0,0,0,0,0,0,0,0,0,0,0],"sum_hessian":[2.2730644E2,1.3205649E2,9.524995E1,1.105452E2,2.1511295E1,4.7014728E0,9.054848E1,1.0650471E2,4.0404863E0,1.5834446E0,1.992785E1,1.05117516E2,1.3871913E0,2.334869E0,1.7056177E0],"tree_param":{"num_deleted":"0","num_feature":"7","num_nodes":"15","size_leaf_vector":"1"}},{"base_weights":[-6.187297E-3,-8.3746177E-1,1.1363397E0,-1.2467939E0,1.1305274E0,-5.4566678E-2,1.2512304E0,-1.2840503E0,-9.8813206E-2,-3.72461E-2,6.276954E-2,2.5493309E-2,6.312093E-2,-6.453154E-2,-2.050844E-2,-4.759162E-2,4.3712385E-2],"categories":[],"categories_nodes":[],"categories_segments":[],"categories_sizes":[],"default_left":[0,0,0,0,0,0,0,0,0,0,0,0,0,0,0,0,0],"id":15,"left_children":[1,3,5,7,9,-1,11,13,15,-1,-1,-1,-1,-1,-1,-1,-1],"loss_changes":[2.1436902E2,1.0665382E2,2.5695328E1,4.5190735E0,6.3257732E0,0E0,1.1001587E-1,7.518005E-2,4.5656075E0,0E0,0E0,0E0,0E0,0E0,0E0,0E0,0E0],"parents":[2147483647,0,0,1,1,2,2,3,3,4,4,6,6,7,7,8,8],"right_children":[2,4,6,8,10,-1,12,14,16,-1,-1,-1,-1,-1,-1,-1,-1],"split_conditions":[6.6390204E-1,9.2350876E-1,6.506931E-1,9.1014916E-1,4.6450713E-1,-5.4566678E-2,6.663221E-1,9.035709E-1,4.8996288E-1,-3.72461E-2,6.276954E-2,2.5493309E-2,6.312093E-2,-6.453154E-2,-2.050844E-2,-4.759162E-2,4.3712385E-2],"split_indices":[2,3,3,3,2,0,2,3,2,0,0,0,0,0,0,0,0],"split_type":[0,0,0,0,0,0,0,0,0,0,0,0,0,0,0,0,0],"sum_hessian":[2.2370819E2,1.2964714E2,9.406105E1,1.0762759E2,2.201955E1,4.1963816E0,8.986467E1,1.0412965E2,3.497943E0,1.0645229E0,2.0955029E1,2.028417E0,8.783625E1,1.0287807E2,1.2515787E0,1.8755695E0,1.6223735E0],"tree_param":{"num_deleted":"0","num_feature":"7","num_nodes":"17","size_leaf_vector":"1"}},{"base_weights":[-2.503859E-2,-8.4977347E-1,1.1104856E0,-1.2593846E0,9.959673E-1,-5.47561E-2,1.2418822E0,-1.2710217E0,-5.221116E-1,-4.737436E-2,6.052164E-2,2.2267349E-2,6.269602E-2,-6.385697E-2,-1.9227589E-2,-1.1593119E-3,-3.7914824E-2],"categories":[],"categories_nodes":[],"categories_segments":[],"categories_sizes":[],"default_left":[0,0,0,0,0,0,0,0,0,0,0,0,0,0,0,0,0],"id":16,"left_children":[1,3,5,7,9,-1,11,13,15,-1,-1,-1,-1,-1,-1,-1,-1],"loss_changes":[2.0206894E2,9.573748E1,2.7671646E1,2.1766663E-1,1.08398285E1,0E0,2.6766968E-1,5.3451538E-2,3.7048978E-1,0E0,0E0,0E0,0E0,0E0,0E0,0E0,0E0],"parents":[2147483647,0,0,1,1,2,2,3,3,4,4,6,6,7,7,8,8],"right_children":[2,4,6,8,10,-1,12,14,16,-1,-1,-1,-1,-1,-1,-1,-1],"split_conditions":[6.6390204E-1,9.1671485E-1,6.506931E-1,9.035709E-1,1.3625823E-4,-5.47561E-2,6.663221E-1,6.5965635E-1,4.800826E-1,-4.737436E-2,6.052164E-2,2.2267349E-2,6.269602E-2,-6.385697E-2,-1.9227589E-2,-1.1593119E-3,-3.7914824E-2],"split_indices":[2,3,3,3,1,0,2,2,0,0,0,0,0,0,0,0,0],"split_type":[0,0,0,0,0,0,0,0,0,0,0,0,0,0,0,0,0],"sum_hessian":[2.1376125E2,1.2397179E2,8.978946E1,1.0171634E2,2.225545E1,4.6359825E0,8.515348E1,9.942309E1,2.2932484E0,1.8721743E0,2.0383274E1,1.8334427E0,8.332004E1,9.830399E1,1.1190968E0,1.0896349E0,1.2036136E0],"tree_param":{"num_deleted":"0","num_feature":"7","num_nodes":"17","size_leaf_vector":"1"}},{"base_weights":[-7.475532E-3,-8.2527447E-1,1.1129699E0,-1.2296264E0,5.2008563E-1,-5.6046225E-2,6.284597E-2,-6.2242735E-2,6.1522085E-5,9.774462E-1,-5.4779846E-2,-4.7111433E-2,6.1198045E-2],"categories":[],"categories_nodes":[],"categories_segments":[],"categories_sizes":[],"default_left":[0,0,0,0,0,0,0,0,0,0,0,0,0],"id":17,"left_children":[1,3,5,7,9,-1,-1,-1,-1,11,-1,-1,-1],"loss_changes":[1.9242924E2,6.6677734E1,2.9903252E1,1.7566528E0,2.2320457E1,0E0,0E0,0E0,0E0,1.2009401E1,0E0,0E0,0E0],"parents":[2147483647,0,0,1,1,2,2,3,3,4,4,9,9],"right_children":[2,4,6,8,10,-1,-1,-1,-1,12,-1,-1,-1],"split_conditions":[6.6390204E-1,6.4898074E-1,2.6247472E-1,6.5965635E-1,1.6274469E-2,-5.6046225E-2,6.284597E-2,-6.2242735E-2,6.1522085E-5,1.3625823E-4,-5.4779846E-2,-4.7111433E-2,6.1198045E-2],"split_indices":[2,4,6,2,1,0,0,0,0,1,0,0,0],"split_type":[0,0,0,0,0,0,0,0,0,0,0,0,0],"sum_hessian":[2.0800462E2,1.20394E2,8.761062E1,9.2637535E1,2.7756464E1,4.8928924E0,8.271773E1,9.149419E1,1.14335E0,2.194063E1,5.815834E0,2.175698E0,1.976493E1],"tree_param":{"num_deleted":"0","num_feature":"7","num_nodes":"13","size_leaf_vector":"1"}},{"base_weights":[-2.843887E-3,-6.1118048E-2,4.7174242E-1,8.827065E-1,-1.191285E0,-5.9997894E-2,1.2344579E0,-1.6834762E-2,-6.095457E-2,6.233287E-2,5.341663E-1,-3.110687E-4,3.7777882E-2],"categories":[],"categories_nodes":[],"categories_segments":[],"categories_sizes":[],"default_left":[0,0,0,0,0,0,0,0,0,0,0,0,0],"id":18,"left_children":[1,-1,3,5,7,-1,9,-1,-1,-1,11,-1,-1],"loss_changes":[1.18201065E2,0E0,1.0153219E2,8.826485E1,2.9192734E-1,0E0,2.0410156E-1,0E0,0E0,0E0,4.2264634E-1,0E0,0E0],"parents":[2147483647,0,0,2,2,3,3,4,4,6,6,10,10],"right_children":[2,-1,4,6,8,-1,10,-1,-1,-1,12,-1,-1],"split_conditions":[3.2975444E-1,-6.1118048E-2,5.029218E-1,2.4317104E-1,5.167434E-1,-5.9997894E-2,4.9374735E-1,-1.6834762E-2,-6.095457E-2,6.233287E-2,7.612674E-1,-3.110687E-4,3.7777882E-2],"split_indices":[4,0,6,6,6,0,6,0,0,0,3,0,0],"split_type":[0,0,0,0,0,0,0,0,0,0,0,0,0],"sum_hessian":[2.022331E2,5.6212204E1,1.4602089E2,1.174629E2,2.8557987E1,1.6623917E1,1.0083898E2,1.3130121E0,2.7244974E1,9.834554E1,2.493444E0,1.0071121E0,1.4863319E0],"tree_param":{"num_deleted":"0","num_feature":"7","num_nodes":"13","size_leaf_vector":"1"}},{"base_weights":[-4.1670386E-2,-6.130603E-2,5.246357E-1,-6.0857415E-2,1.0899465E0,-5.3312987E-2,6.1661333E-2],"categories":[],"categories_nodes":[],"categories_segments":[],"categories_sizes":[],"default_left":[0,0,0,0,0,0,0],"id":19,"left_children":[1,-1,3,-1,5,-1,-1],"loss_changes":[1.330404E2,0E0,1.3350333E2,0E0,3.278763E1,0E0,0E0],"parents":[2147483647,0,0,2,2,4,4],"right_children":[2,-1,4,-1,6,-1,-1],"split_conditions":[6.7608384E-4,-6.130603E-2,2.6247472E-1,-6.0857415E-2,4.9181908E-1,-5.3312987E-2,6.1661333E-2],"split_indices":[1,0,6,0,3,0,0],"split_type":[0,0,0,0,0,0,0],"sum_hessian":[1.9638338E2,6.3146015E1,1.3323735E2,3.2364807E1,1.0087255E2,5.88395E0,9.49886E1],"tree_param":{"num_deleted":"0","num_feature":"7","num_nodes":"7","size_leaf_vector":"1"}},{"base_weights":[-1.5233155E-2,-6.071365E-2,5.728274E-1,-5.996898E-2,1.0960351E0,-5.1577296E-2,6.0988087E-2],"categories":[],"categories_nodes":[],"categories_segments":[],"categories_sizes":[],"default_left":[0,0,0,0,0,0,0],"id":20,"left_children":[1,-1,3,-1,5,-1,-1],"loss_changes":[1.3642732E2,0E0,1.21701096E2,0E0,2.7782875E1,0E0,0E0],"parents":[2147483647,0,0,2,2,4,4],"right_children":[2,-1,4,-1,6,-1,-1],"split_conditions":[6.7608384E-4,-6.071365E-2,2.6247472E-1,-5.996898E-2,4.9181908E-1,-5.1577296E-2,6.0988087E-2],"split_indices":[1,0,6,0,3,0,0],"split_type":[0,0,0,0,0,0,0],"sum_hessian":[1.9149782E2,6.2663574E1,1.2883424E2,2.9071392E1,9.976285E1,5.079488E0,9.468336E1],"tree_param":{"num_deleted":"0","num_feature":"7","num_nodes":"7","size_leaf_vector":"1"}},{"base_weights":[4.0599024E-3,-5.9979867E-2,5.699321E-1,-5.9197474E-2,1.0822573E0,-5.080953E-2,6.0256E-2],"categories":[],"categories_nodes":[],"categories_segments":[],"categories_sizes":[],"default_left":[0,0,0,0,0,0,0],"id":21,"left_children":[1,-1,3,-1,5,-1,-1],"loss_changes":[1.2506306E2,0E0,1.13504364E2,0E0,2.6279716E1,0E0,0E0],"parents":[2147483647,0,0,2,2,4,4],"right_children":[2,-1,4,-1,6,-1,-1],"split_conditions":[6.7608384E-4,-5.9979867E-2,2.6247472E-1,-5.9197474E-2,4.9181908E-1,-5.080953E-2,6.0256E-2],"split_indices":[1,0,6,0,3,0,0],"split_type":[0,0,0,0,0,0,0],"sum_hessian":[1.816111E2,5.77187E1,1.23892395E2,2.7712194E1,9.61802E1,4.9176526E0,9.126255E1],"tree_param":{"num_deleted":"0","num_feature":"7","num_nodes":"7","size_leaf_vector":"1"}},{"base_weights":[-1.8258222E-3,-5.926005E-2,5.6988865E-1,-5.835231E-2,1.0677885E0,-5.0069835E-2,5.9662152E-2],"categories":[],"categories_nodes":[],"categories_segments":[],"categories_sizes":[],"default_left":[0,0,0,0,0,0,0],"id":22,"left_children":[1,-1,3,-1,5,-1,-1],"loss_changes":[1.1712331E2,0E0,1.021943E2,0E0,2.4880775E1,0E0,0E0],"parents":[2147483647,0,0,2,2,4,4],"right_children":[2,-1,4,-1,6,-1,-1],"split_conditions":[6.7608384E-4,-5.926005E-2,2.6247472E-1,-5.835231E-2,4.9181908E-1,-5.0069835E-2,5.9662152E-2],"split_indices":[1,0,6,0,3,0,0],"split_type":[0,0,0,0,0,0,0],"sum_hessian":[1.7111943E2,5.539202E1,1.157274E2,2.5483545E1,9.024386E1,4.759577E0,8.548428E1],"tree_param":{"num_deleted":"0","num_feature":"7","num_nodes":"7","size_leaf_vector":"1"}},{"base_weights":[5.641404E-3,-7.6773196E-1,1.0400516E0,-5.7864677E-2,5.4181904E-1,-4.965212E-2,5.8585633E-2,9.199629E-1,-4.8216786E-2,-3.9507933E-2,5.6459665E-2],"categories":[],"categories_nodes":[],"categories_segments":[],"categories_sizes":[],"default_left":[0,0,0,0,0,0,0,0,0,0,0],"id":23,"left_children":[1,3,5,-1,7,-1,-1,9,-1,-1,-1],"loss_changes":[1.3671902E2,5.0516705E1,2.0733543E1,0E0,1.404513E1,0E0,0E0,7.6828117E0,0E0,0E0,0E0],"parents":[2147483647,0,0,1,1,2,2,4,4,7,7],"right_children":[2,4,6,-1,8,-1,-1,10,-1,-1,-1],"split_conditions":[6.6390204E-1,6.4898074E-1,2.6247472E-1,-5.7864677E-2,1.6274469E-2,-4.965212E-2,5.8585633E-2,1.3625823E-4,-4.8216786E-2,-3.9507933E-2,5.6459665E-2],"split_indices":[2,4,6,0,1,0,0,1,0,0,0],"split_type":[0,0,0,0,0,0,0,0,0,0,0],"sum_hessian":[1.689038E2,9.679394E1,7.2109856E1,7.469125E1,2.2102684E1,3.9878285E0,6.8122025E1,1.7978178E1,4.1245065E0,1.6571497E0,1.6321028E1],"tree_param":{"num_deleted":"0","num_feature":"7","num_nodes":"11","size_leaf_vector":"1"}},{"base_weights":[-1.5575637E-2,-7.699468E-1,1.0127507E0,-1.1472015E0,8.662747E-1,-4.9655013E-2,5.7996254E-2,-5.777427E-2,-2.0286096E-2,5.447012E-2,-4.092491E-2],"categories":[],"categories_nodes":[],"categories_segments":[],"categories_sizes":[],"default_left":[0,0,0,0,0,0,0,0,0,0,0],"id":24,"left_children":[1,3,5,7,9,-1,-1,-1,-1,-1,-1],"loss_changes":[1.2696507E2,5.9263706E1,2.1599762E1,5.0201416E-3,7.754772E0,0E0,0E0,0E0,0E0,0E0,0E0],"parents":[2147483647,0,0,1,1,2,2,3,3,4,4],"right_children":[2,4,6,8,10,-1,-1,-1,-1,-1,-1],"split_conditions":[6.6390204E-1,9.1014916E-1,2.599099E-1,8.993046E-1,3.9052022E-1,-4.9655013E-2,5.7996254E-2,-5.777427E-2,-2.0286096E-2,5.447012E-2,-4.092491E-2],"split_indices":[2,3,6,3,6,0,0,0,0,0,0],"split_type":[0,0,0,0,0,0,0,0,0,0,0],"sum_hessian":[1.6166449E2,9.339904E1,6.826545E1,7.614221E1,1.7256828E1,4.2735205E0,6.3991932E1,7.474877E1,1.3934395E0,1.5550709E1,1.7061193E0],"tree_param":{"num_deleted":"0","num_feature":"7","num_nodes":"11","size_leaf_vector":"1"}},{"base_weights":[-1.6984016E-2,-5.7609856E-2,5.247506E-1,-5.685047E-2,1.0344741E0,-4.8279323E-2,5.802635E-2],"categories":[],"categories_nodes":[],"categories_segments":[],"categories_sizes":[],"default_left":[0,0,0,0,0,0,0],"id":25,"left_children":[1,-1,3,-1,5,-1,-1],"loss_changes":[9.885504E1,0E0,9.336574E1,0E0,2.2251E1,0E0,0E0],"parents":[2147483647,0,0,2,2,4,4],"right_children":[2,-1,4,-1,6,-1,-1],"split_conditions":[6.7608384E-4,-5.7609856E-2,2.6247472E-1,-5.685047E-2,5.3649873E-2,-4.8279323E-2,5.802635E-2],"split_indices":[1,0,6,0,0,0,0],"split_type":[0,0,0,0,0,0,0],"sum_hessian":[1.5876088E2,5.0923347E1,1.07837524E2,2.5024384E1,8.281314E1,4.514954E0,7.829819E1],"tree_param":{"num_deleted":"0","num_feature":"7","num_nodes":"7","size_leaf_vector":"1"}},{"base_weights":[-6.6917804E-3,-7.6519966E-1,1.0114062E0,-1.1056961E0,9.767722E-1,-4.482218E-2,5.5863924E-2,-5.7156194E-2,-2.3223934E-1,-1.5263624E-3,5.37492E-2,-4.2076748E-2,3.6297876E-2],"categories":[],"categories_nodes":[],"categories_segments":[],"categories_sizes":[],"default_left":[0,0,0,0,0,0,0,0,0,0,0,0,0],"id":26,"left_children":[1,3,5,7,9,-1,-1,-1,11,-1,-1,-1,-1],"loss_changes":[1.1461602E2,5.152547E1,1.380159E1,2.0756226E0,1.4610453E0,0E0,0E0,0E0,3.061495E0,0E0,0E0,0E0,0E0],"parents":[2147483647,0,0,1,1,2,2,3,3,4,4,8,8],"right_children":[2,4,6,8,10,-1,-1,-1,12,-1,-1,-1,-1],"split_conditions":[6.5965635E-1,9.2350876E-1,6.780163E-1,9.035709E-1,3.4388567E-3,-4.482218E-2,5.5863924E-2,-5.7156194E-2,4.935323E-1,-1.5263624E-3,5.37492E-2,-4.2076748E-2,3.6297876E-2],"split_indices":[2,3,3,3,1,0,0,0,2,0,0,0,0],"split_type":[0,0,0,0,0,0,0,0,0,0,0,0,0],"sum_hessian":[1.464189E2,8.404885E1,6.2370045E1,7.0611885E1,1.3436968E1,2.8865387E0,5.948351E1,6.741444E1,3.1974492E0,1.2549423E0,1.2182026E1,2.0290034E0,1.1684457E0],"tree_param":{"num_deleted":"0","num_feature":"7","num_nodes":"13","size_leaf_vector":"1"}},{"base_weights":[-1.0091997E-2,-7.6026696E-1,9.833807E-1,-1.0888013E0,9.8916173E-1,-4.834123E-2,5.6525107E-2,-5.6276858E-2,-2.0962495E-1,5.322821E-2,2.2433747E-3,-4.0554192E-2,3.5645403E-2],"categories":[],"categories_nodes":[],"categories_segments":[],"categories_sizes":[],"default_left":[0,0,0,0,0,0,0,0,0,0,0,0,0],"id":27,"left_children":[1,3,5,7,9,-1,-1,-1,11,-1,-1,-1,-1],"loss_changes":[1.0989814E2,4.936139E1,1.9296806E1,2.0637436E0,9.3527126E-1,0E0,0E0,0E0,2.8447113E0,0E0,0E0,0E0,0E0],"parents":[2147483647,0,0,1,1,2,2,3,3,4,4,8,8],"right_children":[2,4,6,8,10,-1,-1,-1,12,-1,-1,-1,-1],"split_conditions":[6.6390204E-1,9.260101E-1,2.6247472E-1,9.035709E-1,3.2058835E-1,-4.834123E-2,5.6525107E-2,-5.6276858E-2,4.935323E-1,5.322821E-2,2.2433747E-3,-4.0554192E-2,3.5645403E-2],"split_indices":[2,3,6,3,6,0,0,0,2,0,0,0,0],"split_type":[0,0,0,0,0,0,0,0,0,0,0,0,0],"sum_hessian":[1.4545602E2,8.3009766E1,6.2446255E1,7.0203514E1,1.2806256E1,3.9895935E0,5.845666E1,6.7118774E1,3.0847418E0,1.1741338E1,1.0649189E0,1.9404469E0,1.1442951E0],"tree_param":{"num_deleted":"0","num_feature":"7","num_nodes":"13","size_leaf_vector":"1"}},{"base_weights":[-7.3777125E-3,-7.373214E-1,9.9204576E-1,-1.0964688E0,3.9774287E-1,-4.14177E-2,5.4234248E-2,-5.5287E-2,-1.6205274E-2,-4.743485E-2,7.944565E-1,1.0062352E0,-3.4922183E-2,1.0419696E-2,5.3041995E-2],"categories":[],"categories_nodes":[],"categories_segments":[],"categories_sizes":[],"default_left":[0,0,0,0,0,0,0,0,0,0,0,0,0,0,0],"id":28,"left_children":[1,3,5,7,9,-1,-1,-1,-1,-1,11,13,-1,-1,-1],"loss_changes":[1.002167E2,3.279734E1,1.0677372E1,7.534027E-2,1.1337598E1,0E0,0E0,0E0,0E0,0E0,5.7137613E0,4.0148163E-1,0E0,0E0,0E0],"parents":[2147483647,0,0,1,1,2,2,3,3,4,4,10,10,11,11],"right_children":[2,4,6,8,10,-1,-1,-1,-1,-1,12,14,-1,-1,-1],"split_conditions":[6.6390204E-1,6.4898074E-1,2.839429E-1,6.5270144E-1,4.787603E-1,-4.14177E-2,5.4234248E-2,-5.5287E-2,-1.6205274E-2,-4.743485E-2,1.6274469E-2,4.050551E-1,-3.4922183E-2,1.0419696E-2,5.3041995E-2],"split_indices":[2,4,4,2,2,0,0,0,0,0,1,5,0,0,0],"split_type":[0,0,0,0,0,0,0,0,0,0,0,0,0,0,0],"sum_hessian":[1.3537029E2,7.838379E1,5.6986504E1,5.956936E1,1.881443E1,2.3750029E0,5.46115E1,5.8436283E1,1.1330748E0,3.965203E0,1.4849228E1,1.328994E1,1.5592885E0,1.1598287E0,1.2130111E1],"tree_param":{"num_deleted":"0","num_feature":"7","num_nodes":"15","size_leaf_vector":"1"}},{"base_weights":[-1.479202E-2,-7.325703E-1,9.727942E-1,-1.0974088E0,8.630882E-1,-4.1951623E-2,5.3709384E-2,-5.536318E-2,-1.6131176E-2,-3.454421E-2,5.315134E-2],"categories":[],"categories_nodes":[],"categories_segments":[],"categories_sizes":[],"default_left":[0,0,0,0,0,0,0,0,0,0,0],"id":29,"left_children":[1,3,5,7,9,-1,-1,-1,-1,-1,-1],"loss_changes":[9.473961E1,4.5997574E1,1.1236401E1,1.2702942E-1,5.382724E0,0E0,0E0,0E0,0E0,0E0,0E0],"parents":[2147483647,0,0,1,1,2,2,3,3,4,4],"right_children":[2,4,6,8,10,-1,-1,-1,-1,-1,-1],"split_conditions":[6.6390204E-1,9.1014916E-1,1.3766095E-1,8.993046E-1,1.3625823E-4,-4.1951623E-2,5.3709384E-2,-5.536318E-2,-1.6131176E-2,-3.454421E-2,5.315134E-2],"split_indices":[2,3,0,3,1,0,0,0,0,0,0],"split_type":[0,0,0,0,0,0,0,0,0,0,0],"sum_hessian":[1.3164384E2,7.638524E1,5.5258614E1,6.2424477E1,1.3960759E1,2.5429497E0,5.2715664E1,6.121672E1,1.2077562E0,1.3115543E0,1.2649205E1],"tree_param":{"num_deleted":"0","num_feature":"7","num_nodes":"11","size_leaf_vector":"1"}},{"base_weights":[4.3068286E-3,-5.5260558E-2,5.2477586E-1,8.3768284E-1,-5.2852344E-2,-4.9203888E-2,1.0183817E0,5.570055E-2,6.5432376E-1,-4.4152297E-2,5.2229207E-2],"categories":[],"categories_nodes":[],"categories_segments":[],"categories_sizes":[],"default_left":[0,0,0,0,0,0,0,0,0,0,0],"id":30,"left_children":[1,-1,3,5,-1,-1,7,-1,9,-1,-1],"loss_changes":[7.443678E1,0E0,4.4311874E1,2.5298077E1,0E0,0E0,1.6258163E0,0E0,1.0818351E1,0E0,0E0],"parents":[2147483647,0,0,2,2,3,3,6,6,8,8],"right_children":[2,-1,4,6,-1,-1,8,-1,10,-1,-1],"split_conditions":[6.7608384E-4,-5.5260558E-2,6.4028114E-1,5.3649873E-2,-5.2852344E-2,-4.9203888E-2,4.9393173E-2,5.570055E-2,1.398873E-1,-4.4152297E-2,5.2229207E-2],"split_indices":[1,0,5,0,0,0,1,0,1,0,0],"split_type":[0,0,0,0,0,0,0,0,0,0,0],"sum_hessian":[1.2689726E2,4.016066E1,8.67366E1,7.280514E1,1.3931458E1,6.168626E0,6.663651E1,5.114259E1,1.5493925E1,2.881196E0,1.2612729E1],"tree_param":{"num_deleted":"0","num_feature":"7","num_nodes":"11","size_leaf_vector":"1"}},{"base_weights":[1.9848524E-3,-5.494335E-2,5.3219336E-1,-5.39244E-2,1.0083817E0,-4.2215563E-2,5.546334E-2],"categories":[],"categories_nodes":[],"categories_segments":[],"categories_sizes":[],"default_left":[0,0,0,0,0,0,0],"id":31,"left_children":[1,-1,3,-1,5,-1,-1],"loss_changes":[7.290045E1,0E0,6.5740555E1,0E0,1.3193481E1,0E0,0E0],"parents":[2147483647,0,0,2,2,4,4],"right_children":[2,-1,4,-1,6,-1,-1],"split_conditions":[6.7608384E-4,-5.494335E-2,2.6247472E-1,-5.39244E-2,5.3649873E-2,-4.2215563E-2,5.546334E-2],"split_indices":[1,0,6,0,0,0,0],"split_type":[0,0,0,0,0,0,0],"sum_hessian":[1.2289583E2,3.9601086E1,8.329474E1,1.8717836E1,6.4576904E1,2.9542787E0,6.1622627E1],"tree_param":{"num_deleted":"0","num_feature":"7","num_nodes":"7","size_leaf_vector":"1"}},{"base_weights":[-2.3675973E-2,-7.2786534E-1,9.409244E-1,-1.0565784E0,8.605893E-1,-4.5606676E-2,5.4501742E-2,-1.0831076E0,-3.3234644E-1,-1.0085701E-2,5.0768055E-2,-5.469794E-2,-1.8790241E-2,-3.424227E-2,1.1907408E-2],"categories":[],"categories_nodes":[],"categories_segments":[],"categories_sizes":[],"default_left":[0,0,0,0,0,0,0,0,0,0,0,0,0,0,0],"id":32,"left_children":[1,3,5,7,9,-1,-1,11,13,-1,-1,-1,-1,-1,-1],"loss_changes":[8.011241E1,3.649532E1,1.4748653E1,7.335968E-1,2.2166796E0,0E0,0E0,6.8893433E-3,8.576729E-1,0E0,0E0,0E0,0E0,0E0,0E0],"parents":[2147483647,0,0,1,1,2,2,3,3,4,4,7,7,8,8],"right_children":[2,4,6,8,10,-1,-1,12,14,-1,-1,-1,-1,-1,-1],"split_conditions":[6.6390204E-1,9.2350876E-1,2.6247472E-1,9.035709E-1,4.8051357E-1,-4.5606676E-2,5.4501742E-2,6.4023536E-1,4.892269E-1,-1.0085701E-2,5.0768055E-2,-5.469794E-2,-1.8790241E-2,-3.424227E-2,1.1907408E-2],"split_indices":[2,3,6,3,2,0,0,2,2,0,0,0,0,0,0],"split_type":[0,0,0,0,0,0,0,0,0,0,0,0,0,0,0],"sum_hessian":[1.15932236E2,6.7153465E1,4.8778774E1,5.591692E1,1.12365465E1,3.2516766E0,4.5527096E1,5.3463E1,2.4539165E0,1.3903483E0,9.846198E0,5.2116787E1,1.3462158E0,1.3928541E0,1.0610623E0],"tree_param":{"num_deleted":"0","num_feature":"7","num_nodes":"15","size_leaf_vector":"1"}},{"base_weights":[7.645718E-5,-6.924064E-1,9.521699E-1,-1.0317421E0,9.151008E-1,-3.8664892E-2,5.2501142E-2,-1.0758282E0,-1.273636E-1,-3.2308798E-3,5.0610173E-2,-5.4359943E-2,-1.379523E-2,-3.6825016E-2,3.379723E-2],"categories":[],"categories_nodes":[],"categories_segments":[],"categories_sizes":[],"default_left":[0,0,0,0,0,0,0,0,0,0,0,0,0,0,0],"id":33,"left_children":[1,3,5,7,9,-1,-1,11,13,-1,-1,-1,-1,-1,-1],"loss_changes":[7.5334885E1,3.7028244E1,8.935474E0,2.0594673E0,1.2127151E0,0E0,0E0,1.7660904E-1,2.3058772E0,0E0,0E0,0E0,0E0,0E0,0E0],"parents":[2147483647,0,0,1,1,2,2,3,3,4,4,7,7,8,8],"right_children":[2,4,6,8,10,-1,-1,12,14,-1,-1,-1,-1,-1,-1],"split_conditions":[6.6390204E-1,9.2350876E-1,6.506931E-1,9.035709E-1,4.039529E-1,-3.8664892E-2,5.2501142E-2,6.5270144E-1,4.935323E-1,-3.2308798E-3,5.0610173E-2,-5.4359943E-2,-1.379523E-2,-3.6825016E-2,3.379723E-2],"split_indices":[2,3,3,3,5,0,0,2,2,0,0,0,0,0,0],"split_type":[0,0,0,0,0,0,0,0,0,0,0,0,0,0,0],"sum_hessian":[1.1226353E2,6.515055E1,4.7112976E1,5.409052E1,1.1060029E1,2.1579852E0,4.495499E1,5.1395542E1,2.6949792E0,1.0275086E0,1.0032521E1,5.0321117E1,1.0744253E0,1.580031E0,1.114948E0],"tree_param":{"num_deleted":"0","num_feature":"7","num_nodes":"15","size_leaf_vector":"1"}},{"base_weights":[-1.52917905E-2,-6.959971E-1,9.135145E-1,-1.0599958E0,8.8816404E-1,-4.0587243E-2,5.1431265E-2,-5.4114033E-2,-6.1135204E-3,-6.87018E-3,5.0421566E-2],"categories":[],"categories_nodes":[],"categories_segments":[],"categories_sizes":[],"default_left":[0,0,0,0,0,0,0,0,0,0,0],"id":34,"left_children":[1,3,5,7,9,-1,-1,-1,-1,-1,-1],"loss_changes":[6.8821396E1,3.715584E1,9.979099E0,9.443855E-1,1.6530075E0,0E0,0E0,0E0,0E0,0E0,0E0],"parents":[2147483647,0,0,1,1,2,2,3,3,4,4],"right_children":[2,4,6,8,10,-1,-1,-1,-1,-1,-1],"split_conditions":[6.5965635E-1,9.2350876E-1,6.771158E-1,9.1671485E-1,4.032061E-1,-4.0587243E-2,5.1431265E-2,-5.4114033E-2,-6.1135204E-3,-6.87018E-3,5.0421566E-2],"split_indices":[2,3,3,3,5,0,0,0,0,0,0],"split_type":[0,0,0,0,0,0,0,0,0,0,0],"sum_hessian":[1.0684706E2,6.180324E1,4.5043823E1,5.0524837E1,1.1278403E1,2.4388547E0,4.260497E1,4.9201424E1,1.3234153E0,1.1688302E0,1.0109573E1],"tree_param":{"num_deleted":"0","num_feature":"7","num_nodes":"11","size_leaf_vector":"1"}},{"base_weights":[3.1357096E-3,-7.061888E-1,9.038136E-1,-1.062482E0,7.3394847E-1,-4.559598E-2,1.0630635E0,-5.373571E-2,-1.3115286E-2,-3.6466744E-2,5.0464828E-2,1.24332E-2,5.39029E-2],"categories":[],"categories_nodes":[],"categories_segments":[],"categories_sizes":[],"default_left":[0,0,0,0,0,0,0,0,0,0,0,0,0],"id":35,"left_children":[1,3,5,7,9,-1,11,-1,-1,-1,-1,-1,-1],"loss_changes":[6.893933E1,3.1755775E1,1.4715813E1,1.9578552E-1,5.798565E0,0E0,2.71286E-1,0E0,0E0,0E0,0E0,0E0,0E0],"parents":[2147483647,0,0,1,1,2,2,3,3,4,4,6,6],"right_children":[2,4,6,8,10,-1,12,-1,-1,-1,-1,-1,-1],"split_conditions":[6.5965635E-1,9.1014916E-1,2.6247472E-1,8.993046E-1,4.6450713E-1,-4.559598E-2,4.7353352E-3,-5.373571E-2,-1.3115286E-2,-3.6466744E-2,5.0464828E-2,1.24332E-2,5.39029E-2],"split_indices":[2,3,6,3,2,0,1,0,0,0,0,0,0],"split_type":[0,0,0,0,0,0,0,0,0,0,0,0,0],"sum_hessian":[1.059087E2,5.9368923E1,4.6539772E1,4.7804276E1,1.1564651E1,3.3715665E0,4.3168205E1,4.674657E1,1.0577044E0,1.5703827E0,9.994268E0,1.0983226E0,4.206988E1],"tree_param":{"num_deleted":"0","num_feature":"7","num_nodes":"13","size_leaf_vector":"1"}},{"base_weights":[-7.6025226E-3,-6.8621117E-1,9.2637783E-1,-1.039369E0,3.7047863E-1,-3.6973204E-2,5.1240414E-2,-5.256633E-2,-1.49207255E-2,-4.1743424E-2,7.0634484E-1,9.2917836E-1,-3.166381E-2,7.962433E-3,4.965148E-2],"categories":[],"categories_nodes":[],"categories_segments":[],"categories_sizes":[],"default_left":[0,0,0,0,0,0,0,0,0,0,0,0,0,0,0],"id":36,"left_children":[1,3,5,7,9,-1,-1,-1,-1,-1,11,13,-1,-1,-1],"loss_changes":[6.316019E1,2.1921225E1,7.634529E0,7.1834564E-2,6.740465E0,0E0,0E0,0E0,0E0,0E0,4.2971354E0,3.8545513E-1,0E0,0E0,0E0],"parents":[2147483647,0,0,1,1,2,2,3,3,4,4,10,10,11,11],"right_children":[2,4,6,8,10,-1,-1,-1,-1,-1,12,14,-1,-1,-1],"split_conditions":[6.6390204E-1,6.4898074E-1,2.839429E-1,6.5270144E-1,4.7516564E-1,-3.6973204E-2,5.1240414E-2,-5.256633E-2,-1.49207255E-2,-4.1743424E-2,1.6274469E-2,3.5169667E-3,-3.166381E-2,7.962433E-3,4.965148E-2],"split_indices":[2,4,4,2,2,0,0,0,0,0,1,1,0,0,0],"split_type":[0,0,0,0,0,0,0,0,0,0,0,0,0,0,0],"sum_hessian":[9.76491E1,5.6710117E1,4.0938984E1,4.251688E1,1.4193236E1,1.920684E0,3.90183E1,4.1429405E1,1.0874757E0,2.769264E0,1.1423972E1,1.00574045E1,1.3665683E0,1.0377759E0,9.019629E0],"tree_param":{"num_deleted":"0","num_feature":"7","num_nodes":"15","size_leaf_vector":"1"}},{"base_weights":[-1.4183719E-3,-6.92918E-1,9.136857E-1,-1.0496244E0,7.4056953E-1,-4.3105006E-2,5.290416E-2,-5.3154517E-2,-1.4084779E-2,-3.2275014E-2,4.7746077E-2],"categories":[],"categories_nodes":[],"categories_segments":[],"categories_sizes":[],"default_left":[0,0,0,0,0,0,0,0,0,0,0],"id":37,"left_children":[1,3,5,7,9,-1,-1,-1,-1,-1,-1],"loss_changes":[6.1619823E1,2.913793E1,1.1659451E1,1.6407013E-1,4.07408E0,0E0,0E0,0E0,0E0,0E0,0E0],"parents":[2147483647,0,0,1,1,2,2,3,3,4,4],"right_children":[2,4,6,8,10,-1,-1,-1,-1,-1,-1],"split_conditions":[6.5965635E-1,9.1014916E-1,2.6247472E-1,8.993046E-1,1.3625823E-4,-4.3105006E-2,5.290416E-2,-5.3154517E-2,-1.4084779E-2,-3.2275014E-2,4.7746077E-2],"split_indices":[2,3,6,3,1,0,0,0,0,0,0],"split_type":[0,0,0,0,0,0,0,0,0,0,0],"sum_hessian":[9.5376884E1,5.4463936E1,4.091295E1,4.3826107E1,1.0637827E1,2.7028792E0,3.8210068E1,4.2693104E1,1.1330029E0,1.1553775E0,9.48245E0],"tree_param":{"num_deleted":"0","num_feature":"7","num_nodes":"11","size_leaf_vector":"1"}},{"base_weights":[-5.637991E-3,-6.589803E-1,9.0991634E-1,-9.973934E-1,4.1416544E-1,-4.103102E-2,5.264416E-2,-1.0314002E0,-3.2536185E-4,7.5641954E-1,-3.9482933E-2,-5.2717056E-2,-4.498109E-1,-3.1455707E-2,4.9218193E-2,-3.0595725E-2,-2.1020805E-3],"categories":[],"categories_nodes":[],"categories_segments":[],"categories_sizes":[],"default_left":[0,0,0,0,0,0,0,0,0,0,0,0,0,0,0,0,0],"id":38,"left_children":[1,3,5,7,9,-1,-1,11,-1,13,-1,-1,15,-1,-1,-1,-1],"loss_changes":[5.52076E1,1.9971308E1,1.0373688E1,1.3828316E0,6.208091E0,0E0,0E0,5.75943E-2,0E0,4.1293807E0,0E0,0E0,1.8954921E-1,0E0,0E0,0E0,0E0],"parents":[2147483647,0,0,1,1,2,2,3,3,4,4,7,7,9,9,12,12],"right_children":[2,4,6,8,10,-1,-1,12,-1,14,-1,-1,16,-1,-1,-1,-1],"split_conditions":[6.6561544E-1,6.4898074E-1,2.6247472E-1,6.5965635E-1,1.6274469E-2,-4.103102E-2,5.264416E-2,6.092064E-1,-3.2536185E-4,1.3625823E-4,-3.9482933E-2,-5.2717056E-2,4.4725114E-1,-3.1455707E-2,4.9218193E-2,-3.0595725E-2,-2.1020805E-3],"split_indices":[2,4,6,2,1,0,0,4,0,1,0,0,2,0,0,0,0],"split_type":[0,0,0,0,0,0,0,0,0,0,0,0,0,0,0,0,0],"sum_hessian":[9.0291695E1,5.2854675E1,3.7437016E1,4.0236736E1,1.2617938E1,2.4951086E0,3.4941906E1,3.886212E1,1.3746164E0,1.0114096E1,2.5038426E0,3.6605354E1,2.2567668E0,1.1802335E0,8.933863E0,1.2565873E0,1.0001796E0],"tree_param":{"num_deleted":"0","num_feature":"7","num_nodes":"17","size_leaf_vector":"1"}},{"base_weights":[-4.5872327E-2,-5.112892E-2,3.3875915E-1,7.028745E-1,-4.919407E-2,-4.9313743E-2,5.2985042E-2],"categories":[],"categories_nodes":[],"categories_segments":[],"categories_sizes":[],"default_left":[0,0,0,0,0,0,0],"id":39,"left_children":[1,-1,3,5,-1,-1,-1],"loss_changes":[3.1874445E1,0E0,3.0051228E1,3.0209515E1,0E0,0E0,0E0],"parents":[2147483647,0,0,2,2,3,3],"right_children":[2,-1,4,6,-1,-1,-1],"split_conditions":[3.2975444E-1,-5.112892E-2,5.029218E-1,2.4317104E-1,-4.919407E-2,-4.9313743E-2,5.2985042E-2],"split_indices":[4,0,6,6,0,0,0],"split_type":[0,0,0,0,0,0,0],"sum_hessian":[8.29244E1,2.2960793E1,5.9963604E1,4.738686E1,1.2576746E1,7.9568067E0,3.9430054E1],"tree_param":{"num_deleted":"0","num_feature":"7","num_nodes":"7","size_leaf_vector":"1"}},{"base_weights":[1.0447253E-3,-6.517387E-1,8.996686E-1,-5.1663686E-2,6.2143135E-1,-3.9723054E-2,5.212533E-2,9.253377E-1,-3.6998443E-2,1.0920947E-2,4.917165E-2],"categories":[],"categories_nodes":[],"categories_segments":[],"categories_sizes":[],"default_left":[0,0,0,0,0,0,0,0,0,0,0],"id":40,"left_children":[1,3,5,-1,7,-1,-1,9,-1,-1,-1],"loss_changes":[4.9430252E1,2.4351852E1,9.407953E0,0E0,5.5994267E0,0E0,0E0,2.0226383E-1,0E0,0E0,0E0],"parents":[2147483647,0,0,1,1,2,2,4,4,7,7],"right_children":[2,4,6,-1,8,-1,-1,10,-1,-1,-1],"split_conditions":[6.6390204E-1,9.035709E-1,2.6247472E-1,-5.1663686E-2,3.9052022E-1,-3.9723054E-2,5.212533E-2,2.8529283E-1,-3.6998443E-2,1.0920947E-2,4.917165E-2],"split_indices":[2,3,6,0,6,0,0,6,0,0,0],"split_type":[0,0,0,0,0,0,0,0,0,0,0],"sum_hessian":[8.226515E1,4.7809696E1,3.4455456E1,3.6930916E1,1.0878781E1,2.3244424E0,3.2131016E1,9.1553335E0,1.7234473E0,1.056707E0,8.098627E0],"tree_param":{"num_deleted":"0","num_feature":"7","num_nodes":"11","size_leaf_vector":"1"}},{"base_weights":[-1.8178102E-2,-6.55281E-1,8.674622E-1,-9.81512E-1,8.021673E-1,-4.150772E-2,5.184674E-2,-1.0177487E0,-6.1056865E-3,-8.55273E-3,4.724651E-2,-5.2144255E-2,-6.0098646E-3],"categories":[],"categories_nodes":[],"categories_segments":[],"categories_sizes":[],"default_left":[0,0,0,0,0,0,0,0,0,0,0,0,0],"id":41,"left_children":[1,3,5,7,9,-1,-1,11,-1,-1,-1,-1,-1],"loss_changes":[4.5939E1,2.3294172E1,1.06635895E1,1.0942535E0,1.4409952E0,0E0,0E0,7.1863556E-1,0E0,0E0,0E0,0E0,0E0],"parents":[2147483647,0,0,1,1,2,2,3,3,4,4,7,7],"right_children":[2,4,6,8,10,-1,-1,12,-1,-1,-1,-1,-1],"split_conditions":[6.6561544E-1,9.2350876E-1,2.6247472E-1,9.1014916E-1,4.8051357E-1,-4.150772E-2,5.184674E-2,6.5965635E-1,-6.1056865E-3,-8.55273E-3,4.724651E-2,-5.2144255E-2,-6.0098646E-3],"split_indices":[2,3,6,3,2,0,0,2,0,0,0,0,0],"split_type":[0,0,0,0,0,0,0,0,0,0,0,0,0],"sum_hessian":[7.940947E1,4.63365E1,3.3072975E1,3.8128487E1,8.2080145E0,2.648121E0,3.0424852E1,3.640903E1,1.7194525E0,1.0246621E0,7.1833525E0,3.5259647E1,1.1493859E0],"tree_param":{"num_deleted":"0","num_feature":"7","num_nodes":"13","size_leaf_vector":"1"}},{"base_weights":[-2.6251558E-2,-6.691918E-1,8.6790127E-1,-1.0019265E0,5.763665E-1,-3.4643866E-2,4.8817657E-2,-5.1907558E-2,-1.3992664E-3,-3.6641296E-2,4.6163596E-2],"categories":[],"categories_nodes":[],"categories_segments":[],"categories_sizes":[],"default_left":[0,0,0,0,0,0,0,0,0,0,0],"id":42,"left_children":[1,3,5,7,9,-1,-1,-1,-1,-1,-1],"loss_changes":[4.5657642E1,1.971511E1,6.3018093E0,1.2695274E0,5.386221E0,0E0,0E0,0E0,0E0,0E0,0E0],"parents":[2147483647,0,0,1,1,2,2,3,3,4,4],"right_children":[2,4,6,8,10,-1,-1,-1,-1,-1,-1],"split_conditions":[6.663221E-1,9.035709E-1,6.506931E-1,6.5965635E-1,1.3625823E-4,-3.4643866E-2,4.8817657E-2,-5.1907558E-2,-1.3992664E-3,-3.6641296E-2,4.6163596E-2],"split_indices":[2,3,3,2,1,0,0,0,0,0,0],"split_type":[0,0,0,0,0,0,0,0,0,0,0],"sum_hessian":[7.7409966E1,4.5177032E1,3.2232933E1,3.58072E1,9.369831E0,1.7440945E0,3.048884E1,3.445959E1,1.3476106E0,1.7296832E0,7.6401477E0],"tree_param":{"num_deleted":"0","num_feature":"7","num_nodes":"11","size_leaf_vector":"1"}},{"base_weights":[-3.010318E-2,-6.602331E-1,8.4121305E-1,-9.810631E-1,7.79776E-1,-4.1623052E-2,5.139423E-2,-5.092136E-2,-6.2759304E-3,-6.4732246E-3,4.6353854E-2],"categories":[],"categories_nodes":[],"categories_segments":[],"categories_sizes":[],"default_left":[0,0,0,0,0,0,0,0,0,0,0],"id":43,"left_children":[1,3,5,7,9,-1,-1,-1,-1,-1,-1],"loss_changes":[4.1660786E1,2.1096249E1,1.0809687E1,1.036766E0,1.2685442E0,0E0,0E0,0E0,0E0,0E0,0E0],"parents":[2147483647,0,0,1,1,2,2,3,3,4,4],"right_children":[2,4,6,8,10,-1,-1,-1,-1,-1,-1],"split_conditions":[6.6390204E-1,9.2350876E-1,2.6247472E-1,9.1014916E-1,4.8051357E-1,-4.1623052E-2,5.139423E-2,-5.092136E-2,-6.2759304E-3,-6.4732246E-3,4.6353854E-2],"split_indices":[2,3,6,3,2,0,0,0,0,0,0],"split_type":[0,0,0,0,0,0,0,0,0,0,0],"sum_hessian":[7.3867424E1,4.300718E1,3.0860239E1,3.5431786E1,7.575394E0,2.7494571E0,2.8110783E1,3.3766716E1,1.6650709E0,1.0730295E0,6.5023646E0],"tree_param":{"num_deleted":"0","num_feature":"7","num_nodes":"11","size_leaf_vector":"1"}},{"base_weights":[-3.6741763E-2,-6.8592066E-1,8.230272E-1,-1.0110726E0,6.5573835E-1,-4.1501746E-2,1.0109706E0,-5.1416576E-2,-1.1894448E-2,-2.2955563E-2,4.3551248E-2,1.1972987E-2,5.1597394E-2],"categories":[],"categories_nodes":[],"categories_segments":[],"categories_sizes":[],"default_left":[0,0,0,0,0,0,0,0,0,0,0,0,0],"id":44,"left_children":[1,3,5,7,9,-1,11,-1,-1,-1,-1,-1,-1],"loss_changes":[3.9790855E1,1.8369925E1,1.037409E1,1.9659805E-1,2.445899E0,0E0,2.0618248E-1,0E0,0E0,0E0,0E0,0E0,0E0],"parents":[2147483647,0,0,1,1,2,2,3,3,4,4,6,6],"right_children":[2,4,6,8,10,-1,12,-1,-1,-1,-1,-1,-1],"split_conditions":[6.5965635E-1,9.1671485E-1,2.599099E-1,9.035709E-1,3.3905443E-3,-4.1501746E-2,4.8196646E-3,-5.1416576E-2,-1.1894448E-2,-2.2955563E-2,4.3551248E-2,1.1972987E-2,5.1597394E-2],"split_indices":[2,3,6,3,1,0,1,0,0,0,0,0,0],"split_type":[0,0,0,0,0,0,0,0,0,0,0,0,0],"sum_hessian":[6.927995E1,3.9589573E1,2.969038E1,3.2065E1,7.5245743E0,2.6822402E0,2.700814E1,3.1042088E1,1.0229117E0,1.0345671E0,6.4900074E0,1.0435437E0,2.5964596E1],"tree_param":{"num_deleted":"0","num_feature":"7","num_nodes":"13","size_leaf_vector":"1"}},{"base_weights":[-7.4463906E-3,-6.400184E-1,8.405887E-1,-9.668083E-1,7.572667E-1,-3.4727123E-2,9.58828E-1,-5.117763E-2,-1.5400563E-1,-6.9510923E-3,4.5615006E-2,4.1860992E-1,4.9477074E-2,-3.229427E-2,2.4208099E-2,3.4819238E-2,-4.4594677E-3],"categories":[],"categories_nodes":[],"categories_segments":[],"categories_sizes":[],"default_left":[0,0,0,0,0,0,0,0,0,0,0,0,0,0,0,0,0],"id":45,"left_children":[1,3,5,7,9,-1,11,-1,13,-1,-1,15,-1,-1,-1,-1,-1],"loss_changes":[3.716289E1,1.8847212E1,6.038975E0,1.345562E0,1.2496448E0,0E0,4.875946E-2,0E0,1.3498323E0,0E0,0E0,5.18326E-1,0E0,0E0,0E0,0E0,0E0],"parents":[2147483647,0,0,1,1,2,2,3,3,4,4,6,6,8,8,11,11],"right_children":[2,4,6,8,10,-1,12,-1,14,-1,-1,16,-1,-1,-1,-1,-1],"split_conditions":[6.5965635E-1,9.2350876E-1,6.771158E-1,9.035709E-1,4.8051357E-1,-3.4727123E-2,6.6908E-1,-5.117763E-2,1.3625823E-4,-6.9510923E-3,4.5615006E-2,2.0003738E-1,4.9477074E-2,-3.229427E-2,2.4208099E-2,3.4819238E-2,-4.4594677E-3],"split_indices":[2,3,3,3,2,0,2,0,1,0,0,0,0,0,0,0,0],"split_type":[0,0,0,0,0,0,0,0,0,0,0,0,0,0,0,0,0],"sum_hessian":[6.727358E1,3.8672226E1,2.8601355E1,3.1591782E1,7.0804434E0,1.6968378E0,2.6904516E1,2.928782E1,2.303961E0,1.0593488E0,6.021095E0,2.2343385E0,2.4670177E1,1.294278E0,1.0096831E0,1.2042277E0,1.0301108E0],"tree_param":{"num_deleted":"0","num_feature":"7","num_nodes":"17","size_leaf_vector":"1"}},{"base_weights":[-5.179685E-3,-6.1582047E-1,8.0056775E-1,-9.944375E-1,3.5532856E-1,-4.141849E-2,9.9033916E-1,-5.0769623E-2,-1.5826264E-2,-3.8233764E-2,6.906508E-1,5.1725926E-3,5.1178604E-2,-2.374546E-2,4.4423558E-2],"categories":[],"categories_nodes":[],"categories_segments":[],"categories_sizes":[],"default_left":[0,0,0,0,0,0,0,0,0,0,0,0,0,0,0],"id":46,"left_children":[1,3,5,7,9,-1,11,-1,-1,-1,13,-1,-1,-1,-1],"loss_changes":[3.316754E1,1.44519825E1,9.805178E0,7.4243546E-2,4.844195E0,0E0,6.748123E-1,0E0,0E0,0E0,2.5823488E0,0E0,0E0,0E0,0E0],"parents":[2147483647,0,0,1,1,2,2,3,3,4,4,6,6,10,10],"right_children":[2,4,6,8,10,-1,12,-1,-1,-1,14,-1,-1,-1,-1],"split_conditions":[6.5965635E-1,6.4898074E-1,2.6247472E-1,6.092064E-1,4.6450713E-1,-4.141849E-2,3.3457223E-1,-5.0769623E-2,-1.5826264E-2,-3.8233764E-2,2.8065127E-1,5.1725926E-3,5.1178604E-2,-2.374546E-2,4.4423558E-2],"split_indices":[2,4,6,4,2,0,4,0,0,0,6,0,0,0,0],"split_type":[0,0,0,0,0,0,0,0,0,0,0,0,0,0,0],"sum_hessian":[6.540865E1,3.7343422E1,2.8065231E1,2.6851126E1,1.0492295E1,2.577312E0,2.548792E1,2.5563122E1,1.2880037E0,2.122512E0,8.369783E0,1.069125E0,2.4418795E1,1.011181E0,7.358602E0],"tree_param":{"num_deleted":"0","num_feature":"7","num_nodes":"15","size_leaf_vector":"1"}},{"base_weights":[2.5615294E-3,-5.0425645E-2,4.556889E-1,-4.8959326E-2,9.1895145E-1,-3.3480264E-2,5.129962E-2],"categories":[],"categories_nodes":[],"categories_segments":[],"categories_sizes":[],"default_left":[0,0,0,0,0,0,0],"id":47,"left_children":[1,-1,3,-1,5,-1,-1],"loss_changes":[2.9083311E1,0E0,3.0035522E1,0E0,6.4088154E0,0E0,0E0],"parents":[2147483647,0,0,2,2,4,4],"right_children":[2,-1,4,-1,6,-1,-1],"split_conditions":[6.7608384E-4,-5.0425645E-2,2.6247472E-1,-4.8959326E-2,5.3649873E-2,-3.3480264E-2,5.129962E-2],"split_indices":[1,0,6,0,0,0,0],"split_type":[0,0,0,0,0,0,0],"sum_hessian":[6.14774E1,1.8646137E1,4.2831264E1,1.0181661E1,3.2649605E1,1.7293493E0,3.0920254E1],"tree_param":{"num_deleted":"0","num_feature":"7","num_nodes":"7","size_leaf_vector":"1"}},{"base_weights":[-1.7278306E-2,-6.255043E-1,8.4447825E-1,-9.6267897E-1,5.803202E-1,-3.0852238E-2,9.52115E-1,-5.0578304E-2,2.3201506E-3,-3.1667095E-2,4.3949965E-2,1.4259094E-2,4.8706558E-2],"categories":[],"categories_nodes":[],"categories_segments":[],"categories_sizes":[],"default_left":[0,0,0,0,0,0,0,0,0,0,0,0,0],"id":48,"left_children":[1,3,5,7,9,-1,11,-1,-1,-1,-1,-1,-1],"loss_changes":[3.2027172E1,1.5116024E1,4.5661373E0,1.445818E0,3.6190593E0,0E0,7.385254E-2,0E0,0E0,0E0,0E0,0E0,0E0],"parents":[2147483647,0,0,1,1,2,2,3,3,4,4,6,6],"right_children":[2,4,6,8,10,-1,12,-1,-1,-1,-1,-1,-1],"split_conditions":[6.6561544E-1,9.035709E-1,1.3766095E-1,6.5965635E-1,1.3401452E-1,-3.0852238E-2,6.6908E-1,-5.0578304E-2,2.3201506E-3,-3.1667095E-2,4.3949965E-2,1.4259094E-2,4.8706558E-2],"split_indices":[2,3,0,2,5,0,2,0,0,0,0,0,0],"split_type":[0,0,0,0,0,0,0,0,0,0,0,0,0],"sum_hessian":[5.9096127E1,3.480499E1,2.4291138E1,2.7357016E1,7.447973E0,1.3416173E0,2.294952E1,2.6090546E1,1.2664709E0,1.249646E0,6.1983266E0,1.1792707E0,2.177025E1],"tree_param":{"num_deleted":"0","num_feature":"7","num_nodes":"13","size_leaf_vector":"1"}},{"base_weights":[-1.1803011E-2,-5.002457E-2,4.4973713E-1,-4.838418E-2,9.152231E-1,-3.2405686E-2,5.113701E-2],"categories":[],"categories_nodes":[],"categories_segments":[],"categories_sizes":[],"default_left":[0,0,0,0,0,0,0],"id":49,"left_children":[1,-1,3,-1,5,-1,-1],"loss_changes":[2.7051851E1,0E0,2.7563202E1,0E0,5.8653564E0,0E0,0E0],"parents":[2147483647,0,0,2,2,4,4],"right_children":[2,-1,4,-1,6,-1,-1],"split_conditions":[6.7608384E-4,-5.002457E-2,2.6247472E-1,-4.838418E-2,4.9181908E-1,-3.2405686E-2,5.113701E-2],"split_indices":[1,0,6,0,3,0,0],"split_type":[0,0,0,0,0,0,0],"sum_hessian":[5.7296658E1,1.7863224E1,3.9433434E1,9.481891E0,2.9951544E1,1.6037952E0,2.834775E1],"tree_param":{"num_deleted":"0","num_feature":"7","num_nodes":"7","size_leaf_vector":"1"}},{"base_weights":[-1.8967362E-2,-6.3199574E-1,8.0075073E-1,-9.5324534E-1,5.701574E-1,-3.10268E-2,9.1468245E-1,-9.818886E-1,-6.933211E-3,-2.579881E-2,4.1288164E-2,4.373612E-1,4.868211E-2,-5.0062913E-2,-1.3141465E-2,3.6413167E-2,-1.2382289E-2],"categories":[],"categories_nodes":[],"categories_segments":[],"categories_sizes":[],"default_left":[0,0,0,0,0,0,0,0,0,0,0,0,0,0,0,0,0],"id":50,"left_children":[1,3,5,7,9,-1,11,13,-1,-1,-1,15,-1,-1,-1,-1,-1],"loss_changes":[2.8175312E1,1.2925393E1,4.4539814E0,4.6290016E-1,2.476802E0,0E0,2.1085167E-1,7.999802E-2,0E0,0E0,0E0,1.0377738E0,0E0,0E0,0E0,0E0,0E0],"parents":[2147483647,0,0,1,1,2,2,3,3,4,4,6,6,7,7,11,11],"right_children":[2,4,6,8,10,-1,12,14,-1,-1,-1,16,-1,-1,-1,-1,-1],"split_conditions":[6.6390204E-1,9.1671485E-1,6.506931E-1,9.035709E-1,3.8713253E-1,-3.10268E-2,6.7533123E-1,6.4023536E-1,-6.933211E-3,-2.579881E-2,4.1288164E-2,2.7135396E-1,4.868211E-2,-5.0062913E-2,-1.3141465E-2,3.6413167E-2,-1.2382289E-2],"split_indices":[2,3,3,3,5,0,2,2,0,0,0,0,0,0,0,0,0],"split_type":[0,0,0,0,0,0,0,0,0,0,0,0,0,0,0,0,0],"sum_hessian":[5.4062027E1,3.1061562E1,2.3000463E1,2.4674803E1,6.3867593E0,1.3769238E0,2.1623539E1,2.3638216E1,1.0365858E0,1.0226448E0,5.3641148E0,3.3028178E0,1.8320723E1,2.2636005E1,1.0022119E0,2.2739792E0,1.0288386E0],"tree_param":{"num_deleted":"0","num_feature":"7","num_nodes":"17","size_leaf_vector":"1"}},{"base_weights":[-9.082645E-3,-6.19141E-1,7.685387E-1,-9.672977E-1,6.038199E-1,-3.298548E-2,8.9553505E-1,-4.992939E-2,-6.518616E-3,-2.0274565E-2,4.122493E-2,4.963405E-2,5.404867E-1,-3.168256E-2,4.336713E-2],"categories":[],"categories_nodes":[],"categories_segments":[],"categories_sizes":[],"default_left":[0,0,0,0,0,0,0,0,0,0,0,0,0,0,0],"id":51,"left_children":[1,3,5,7,9,-1,11,-1,-1,-1,-1,-1,13,-1,-1],"loss_changes":[2.596873E1,1.3641592E1,4.9567785E0,5.050087E-1,1.985106E0,0E0,2.4053764E-1,0E0,0E0,0E0,0E0,0E0,3.2495456E0,0E0,0E0],"parents":[2147483647,0,0,1,1,2,2,3,3,4,4,6,6,12,12],"right_children":[2,4,6,8,10,-1,12,-1,-1,-1,-1,-1,14,-1,-1],"split_conditions":[6.5965635E-1,9.1671485E-1,6.780163E-1,9.035709E-1,3.3905443E-3,-3.298548E-2,4.9393173E-2,-4.992939E-2,-6.518616E-3,-2.0274565E-2,4.122493E-2,4.963405E-2,1.0674429E-1,-3.168256E-2,4.336713E-2],"split_indices":[2,3,3,3,1,0,1,0,0,0,0,0,1,0,0],"split_type":[0,0,0,0,0,0,0,0,0,0,0,0,0,0,0],"sum_hessian":[5.273777E1,2.9667147E1,2.3070623E1,2.325569E1,6.4114566E0,1.5413465E0,2.1529278E1,2.2231363E1,1.0243258E0,1.0000563E0,5.4114003E0,1.5494006E1,6.0352716E0,1.1098437E0,4.925428E0],"tree_param":{"num_deleted":"0","num_feature":"7","num_nodes":"15","size_leaf_vector":"1"}},{"base_weights":[-2.0616198E-2,-4.8067078E-2,3.6685663E-1,6.814572E-1,-4.4775184E-2,-4.456456E-2,5.0389834E-2],"categories":[],"categories_nodes":[],"categories_segments":[],"categories_sizes":[],"default_left":[0,0,0,0,0,0,0],"id":52,"left_children":[1,-1,3,5,-1,-1,-1],"loss_changes":[1.9151785E1,0E0,1.5404639E1,1.6495129E1,0E0,0E0,0E0],"parents":[2147483647,0,0,2,2,3,3],"right_children":[2,-1,4,6,-1,-1,-1],"split_conditions":[3.2975444E-1,-4.8067078E-2,5.029218E-1,2.4317104E-1,-4.4775184E-2,-4.456456E-2,5.0389834E-2],"split_indices":[4,0,6,6,0,0,0],"split_type":[0,0,0,0,0,0,0],"sum_hessian":[5.057428E1,1.4321877E1,3.6252403E1,2.9388489E1,6.863914E0,4.752635E0,2.4635855E1],"tree_param":{"num_deleted":"0","num_feature":"7","num_nodes":"7","size_leaf_vector":"1"}},{"base_weights":[-2.6231263E-2,-6.369301E-1,7.88046E-1,-9.465765E-1,7.328268E-1,-3.0462315E-2,4.53497E-2,-4.961382E-2,-1.1742848E-2,7.4197548E-3,4.1356944E-2],"categories":[],"categories_nodes":[],"categories_segments":[],"categories_sizes":[],"default_left":[0,0,0,0,0,0,0,0,0,0,0],"id":53,"left_children":[1,3,5,7,9,-1,-1,-1,-1,-1,-1],"loss_changes":[2.4910397E1,1.2824628E1,4.123143E0,5.398998E-1,1.989913E-1,0E0,0E0,0E0,0E0,0E0,0E0],"parents":[2147483647,0,0,1,1,2,2,3,3,4,4],"right_children":[2,4,6,8,10,-1,-1,-1,-1,-1,-1],"split_conditions":[6.5965635E-1,9.260101E-1,6.780163E-1,9.035709E-1,4.2212346E-1,-3.0462315E-2,4.53497E-2,-4.961382E-2,-1.1742848E-2,7.4197548E-3,4.1356944E-2],"split_indices":[2,3,3,3,5,0,0,0,0,0,0],"split_type":[0,0,0,0,0,0,0,0,0,0,0],"sum_hessian":[4.808413E1,2.7601276E1,2.0482853E1,2.276417E1,4.8371067E0,1.2835009E0,1.9199352E1,2.102025E1,1.7439188E0,1.029703E0,3.8074038E0],"tree_param":{"num_deleted":"0","num_feature":"7","num_nodes":"11","size_leaf_vector":"1"}},{"base_weights":[-1.3849568E-2,-5.996448E-1,8.017274E-1,-9.0575516E-1,7.2542506E-1,-3.4654915E-2,4.904836E-2,-4.832155E-2,-6.771157E-3,4.1206025E-2,6.5302984E-3],"categories":[],"categories_nodes":[],"categories_segments":[],"categories_sizes":[],"default_left":[0,0,0,0,0,0,0,0,0,0,0],"id":54,"left_children":[1,3,5,7,9,-1,-1,-1,-1,-1,-1],"loss_changes":[2.2856043E1,1.1944809E1,6.0399113E0,9.46537E-1,2.3154616E-1,0E0,0E0,0E0,0E0,0E0,0E0],"parents":[2147483647,0,0,1,1,2,2,3,3,4,4],"right_children":[2,4,6,8,10,-1,-1,-1,-1,-1,-1],"split_conditions":[6.6390204E-1,9.260101E-1,2.6247472E-1,9.035709E-1,3.144632E-1,-3.4654915E-2,4.904836E-2,-4.832155E-2,-6.771157E-3,4.1206025E-2,6.5302984E-3],"split_indices":[2,3,6,3,6,0,0,0,0,0,0],"split_type":[0,0,0,0,0,0,0,0,0,0,0],"sum_hessian":[4.583364E1,2.6828558E1,1.9005083E1,2.2050922E1,4.7776356E0,1.7278937E0,1.727719E1,2.0204903E1,1.8460197E0,3.7670844E0,1.0105511E0],"tree_param":{"num_deleted":"0","num_feature":"7","num_nodes":"11","size_leaf_vector":"1"}},{"base_weights":[1.32637955E-2,-4.821309E-2,4.776482E-1,-4.457174E-2,7.79646E-1,-3.728773E-2,9.598789E-1,-2.0872531E-3,5.032682E-2],"categories":[],"categories_nodes":[],"categories_segments":[],"categories_sizes":[],"default_left":[0,0,0,0,0,0,0,0,0],"id":55,"left_children":[1,-1,3,-1,5,-1,7,-1,-1],"loss_changes":[2.086491E1,0E0,1.357062E1,0E0,7.8768044E0,0E0,1.1510715E0,0E0,0E0],"parents":[2147483647,0,0,2,2,4,4,6,6],"right_children":[2,-1,4,-1,6,-1,8,-1,-1],"split_conditions":[4.787603E-1,-4.821309E-2,2.6247472E-1,-4.457174E-2,6.7608384E-4,-3.728773E-2,3.3457223E-1,-2.0872531E-3,5.032682E-2],"split_indices":[2,0,6,0,1,0,4,0,0],"split_type":[0,0,0,0,0,0,0,0,0],"sum_hessian":[4.394865E1,1.3807513E1,3.014114E1,5.09438E0,2.5046759E1,2.31511E0,2.273165E1,1.0164378E0,2.1715212E1],"tree_param":{"num_deleted":"0","num_feature":"7","num_nodes":"9","size_leaf_vector":"1"}},{"base_weights":[-3.8251393E-2,-6.2296987E-1,7.559419E-1,-9.1890556E-1,6.395684E-1,-3.1466674E-2,4.517476E-2,-4.9041938E-2,-7.7677495E-3,-2.316587E-3,4.0255837E-2],"categories":[],"categories_nodes":[],"categories_segments":[],"categories_sizes":[],"default_left":[0,0,0,0,0,0,0,0,0,0,0],"id":56,"left_children":[1,3,5,7,9,-1,-1,-1,-1,-1,-1],"loss_changes":[2.0635828E1,1.0137004E1,4.42467E0,8.4614563E-1,6.553316E-1,0E0,0E0,0E0,0E0,0E0,0E0],"parents":[2147483647,0,0,1,1,2,2,3,3,4,4],"right_children":[2,4,6,8,10,-1,-1,-1,-1,-1,-1],"split_conditions":[6.5965635E-1,9.2350876E-1,6.780163E-1,9.035709E-1,4.8290715E-1,-3.1466674E-2,4.517476E-2,-4.9041938E-2,-7.7677495E-3,-2.316587E-3,4.0255837E-2],"split_indices":[2,3,3,3,2,0,0,0,0,0,0],"split_type":[0,0,0,0,0,0,0,0,0,0,0],"sum_hessian":[4.242332E1,2.4558163E1,1.7865156E1,2.0115353E1,4.4428105E0,1.4054282E0,1.6459728E1,1.8342943E1,1.7724097E0,1.0038384E0,3.438972E0],"tree_param":{"num_deleted":"0","num_feature":"7","num_nodes":"11","size_leaf_vector":"1"}},{"base_weights":[-2.1371057E-2,-4.8480447E-2,4.656401E-1,-4.089812E-2,7.388354E-1,8.3965707E-1,-2.917367E-2,-2.4033709E-4,8.8177246E-1,4.949689E-2,2.1979569E-2],"categories":[],"categories_nodes":[],"categories_segments":[],"categories_sizes":[],"default_left":[0,0,0,0,0,0,0,0,0,0,0],"id":57,"left_children":[1,-1,3,-1,5,7,-1,-1,9,-1,-1],"loss_changes":[1.994202E1,0E0,1.06194935E1,0E0,3.6993103E0,8.1433105E-1,0E0,0E0,6.0277367E-1,0E0,0E0],"parents":[2147483647,0,0,2,2,4,4,5,5,8,8],"right_children":[2,-1,4,-1,6,8,-1,-1,10,-1,-1],"split_conditions":[4.787603E-1,-4.8480447E-2,6.828434E-1,-4.089812E-2,6.4028114E-1,3.5771402E-3,-2.917367E-2,-2.4033709E-4,4.9393173E-2,4.949689E-2,2.1979569E-2],"split_indices":[2,0,3,0,5,1,0,0,1,0,0],"split_type":[0,0,0,0,0,0,0,0,0,0,0],"sum_hessian":[4.120534E1,1.3645619E1,2.7559721E1,4.4864006E0,2.307332E1,2.177784E1,1.2954817E0,1.0766007E0,2.0701239E1,1.5637315E1,5.0639234E0],"tree_param":{"num_deleted":"0","num_feature":"7","num_nodes":"11","size_leaf_vector":"1"}},{"base_weights":[-4.179135E-2,-4.81754E-2,4.1679963E-1,-4.6362482E-2,8.971216E-1,-2.3211308E-2,4.9516615E-2],"categories":[],"categories_nodes":[],"categories_segments":[],"categories_sizes":[],"default_left":[0,0,0,0,0,0,0],"id":58,"left_children":[1,-1,3,-1,5,-1,-1],"loss_changes":[1.7220522E1,0E0,1.8435673E1,0E0,3.0733871E0,0E0,0E0],"parents":[2147483647,0,0,2,2,4,4],"right_children":[2,-1,4,-1,6,-1,-1],"split_conditions":[6.7608384E-4,-4.81754E-2,2.6247472E-1,-4.6362482E-2,3.2756135E-1,-2.3211308E-2,4.9516615E-2],"split_indices":[1,0,6,0,4,0,0],"split_type":[0,0,0,0,0,0,0],"sum_hessian":[3.8790142E1,1.252177E1,2.6268373E1,6.6709824E0,1.9597391E1,1.0007646E0,1.8596626E1],"tree_param":{"num_deleted":"0","num_feature":"7","num_nodes":"7","size_leaf_vector":"1"}},{"base_weights":[-3.3386666E-3,-4.7725808E-2,4.3130356E-1,7.168609E-1,-4.2499688E-2,-3.418803E-2,8.785562E-1,4.9217865E-2,4.211356E-1,-2.9814512E-2,4.0229287E-2],"categories":[],"categories_nodes":[],"categories_segments":[],"categories_sizes":[],"default_left":[0,0,0,0,0,0,0,0,0,0,0],"id":59,"left_children":[1,-1,3,5,-1,-1,7,-1,9,-1,-1],"loss_changes":[1.6446548E1,0E0,1.06015835E1,5.7813587E0,0E0,0E0,5.9911346E-1,0E0,2.696616E0,0E0,0E0],"parents":[2147483647,0,0,2,2,3,3,6,6,8,8],"right_children":[2,-1,4,6,-1,-1,8,-1,10,-1,-1],"split_conditions":[6.7608384E-4,-4.7725808E-2,6.4028114E-1,5.3649873E-2,-4.2499688E-2,-3.418803E-2,4.9393173E-2,4.9217865E-2,1.328658E-1,-2.9814512E-2,4.0229287E-2],"split_indices":[1,0,5,0,0,0,1,0,1,0,0],"split_type":[0,0,0,0,0,0,0,0,0,0,0],"sum_hessian":[3.7785717E1,1.1475803E1,2.6309912E1,2.1875198E1,4.4347134E0,1.9298598E0,1.994534E1,1.5263035E1,4.6823044E0,1.1297148E0,3.5525897E0],"tree_param":{"num_deleted":"0","num_feature":"7","num_nodes":"11","size_leaf_vector":"1"}},{"base_weights":[-1.2572407E-2,-5.868023E-1,7.116655E-1,-4.82853E-2,4.8846912E-1,-2.9344788E-2,8.48154E-1,-2.777201E-2,3.9738398E-2,4.755494E-2,4.5912883E-1,3.9420176E-2,-2.359708E-2],"categories":[],"categories_nodes":[],"categories_segments":[],"categories_sizes":[],"default_left":[0,0,0,0,0,0,0,0,0,0,0,0,0],"id":60,"left_children":[1,3,5,-1,7,-1,9,-1,-1,-1,11,-1,-1],"loss_changes":[1.615165E1,9.29248E0,3.543295E0,0E0,2.4575515E0,0E0,2.0240307E-1,0E0,0E0,0E0,1.9884887E0,0E0,0E0],"parents":[2147483647,0,0,1,1,2,2,4,4,6,6,10,10],"right_children":[2,4,6,-1,8,-1,10,-1,-1,-1,12,-1,-1],"split_conditions":[6.5965635E-1,9.035709E-1,6.780163E-1,-4.82853E-2,1.3625823E-4,-2.9344788E-2,4.9393173E-2,-2.777201E-2,3.9738398E-2,4.755494E-2,3.0822498E-1,3.9420176E-2,-2.359708E-2],"split_indices":[2,3,3,0,1,0,1,0,0,0,0,0,0],"split_type":[0,0,0,0,0,0,0,0,0,0,0,0,0],"sum_hessian":[3.6833214E1,2.0650066E1,1.618315E1,1.5344776E1,5.3052907E0,1.2253275E0,1.4957821E1,1.0190009E0,4.2862897E0,1.0685398E1,4.272423E0,3.269417E0,1.0030061E0],"tree_param":{"num_deleted":"0","num_feature":"7","num_nodes":"13","size_leaf_vector":"1"}},{"base_weights":[-3.995604E-2,-5.7437885E-1,7.206008E-1,-9.161864E-1,1.9269587E-1,-3.5326395E-2,4.763264E-2,-4.777381E-2,-9.586695E-3,-3.527316E-2,6.1622596E-1,4.061052E-3,3.5733845E-2],"categories":[],"categories_nodes":[],"categories_segments":[],"categories_sizes":[],"default_left":[0,0,0,0,0,0,0,0,0,0,0,0,0],"id":61,"left_children":[1,3,5,7,9,-1,-1,-1,-1,-1,11,-1,-1],"loss_changes":[1.5296947E1,5.960942E0,5.8242884E0,2.5613785E-1,3.3358757E0,0E0,0E0,0E0,0E0,0E0,2.4304962E-1,0E0,0E0],"parents":[2147483647,0,0,1,1,2,2,3,3,4,4,10,10],"right_children":[2,4,6,8,10,-1,-1,-1,-1,-1,12,-1,-1],"split_conditions":[6.6561544E-1,6.092064E-1,2.6247472E-1,6.4023536E-1,4.7516564E-1,-3.5326395E-2,4.763264E-2,-4.777381E-2,-9.586695E-3,-3.527316E-2,2.8917634E-1,4.061052E-3,3.5733845E-2],"split_indices":[2,4,6,2,2,0,0,0,0,0,6,0,0],"split_type":[0,0,0,0,0,0,0,0,0,0,0,0,0],"sum_hessian":[3.5616367E1,2.1061684E1,1.4554686E1,1.4435051E1,6.6266317E0,1.7496389E0,1.2805046E1,1.338997E1,1.045082E0,1.9101653E0,4.7164664E0,1.0166655E0,3.699801E0],"tree_param":{"num_deleted":"0","num_feature":"7","num_nodes":"13","size_leaf_vector":"1"}},{"base_weights":[-2.0650906E-2,-4.703573E-2,3.9468476E-1,-4.5596004E-2,8.749282E-1,-2.3485037E-2,4.9100846E-2],"categories":[],"categories_nodes":[],"categories_segments":[],"categories_sizes":[],"default_left":[0,0,0,0,0,0,0],"id":62,"left_children":[1,-1,3,-1,5,-1,-1],"loss_changes":[1.374184E1,0E0,1.6366611E1,0E0,3.1472082E0,0E0,0E0],"parents":[2147483647,0,0,2,2,4,4],"right_children":[2,-1,4,-1,6,-1,-1],"split_conditions":[6.7608384E-4,-4.703573E-2,2.6247472E-1,-4.5596004E-2,6.828434E-1,-2.3485037E-2,4.9100846E-2],"split_indices":[1,0,6,0,3,0,0],"split_type":[0,0,0,0,0,0,0],"sum_hessian":[3.398906E1,1.0177847E1,2.3811214E1,6.1580505E0,1.7653164E1,1.0524384E0,1.6600725E1],"tree_param":{"num_deleted":"0","num_feature":"7","num_nodes":"7","size_leaf_vector":"1"}},{"base_weights":[-3.1906E-2,-5.482918E-1,7.623561E-1,-4.695153E-2,-7.534554E-2,-2.9045818E-2,4.7026988E-2,-3.8334604E-2,2.8436077E-1,-3.376805E-2,7.122292E-1,3.8011663E-3,4.1627496E-2],"categories":[],"categories_nodes":[],"categories_segments":[],"categories_sizes":[],"default_left":[0,0,0,0,0,0,0,0,0,0,0,0,0],"id":63,"left_children":[1,3,5,-1,7,-1,-1,-1,9,-1,11,-1,-1],"loss_changes":[1.388958E1,3.7151198E0,3.7439284E0,0E0,2.7932425E0,0E0,0E0,0E0,3.577587E0,0E0,3.732171E-1,0E0,0E0],"parents":[2147483647,0,0,1,1,2,2,4,4,8,8,10,10],"right_children":[2,4,6,-1,8,-1,-1,-1,10,-1,12,-1,-1],"split_conditions":[6.663221E-1,4.7516564E-1,2.6247472E-1,-4.695153E-2,2.822311E-1,-2.9045818E-2,4.7026988E-2,-3.8334604E-2,6.7608384E-4,-3.376805E-2,2.0003738E-1,3.8011663E-3,4.1627496E-2],"split_indices":[2,2,6,0,6,0,0,0,1,0,0,0,0],"split_type":[0,0,0,0,0,0,0,0,0,0,0,0,0],"sum_hessian":[3.1845858E1,1.9486492E1,1.2359366E1,1.0130983E1,9.355508E0,1.1827509E0,1.1176616E1,2.8145585E0,6.54095E0,1.8385642E0,4.7023854E0,1.0074177E0,3.694968E0],"tree_param":{"num_deleted":"0","num_feature":"7","num_nodes":"13","size_leaf_vector":"1"}},{"base_weights":[-2.7652431E-2,-4.6803564E-2,4.200045E-1,-4.1818257E-2,7.231214E-1,-3.34738E-2,9.0917253E-1,-1.7083259E-3,4.8620857E-2],"categories":[],"categories_nodes":[],"categories_segments":[],"categories_sizes":[],"default_left":[0,0,0,0,0,0,0,0,0],"id":64,"left_children":[1,-1,3,-1,5,-1,7,-1,-1],"loss_changes":[1.34937105E1,0E0,9.086087E0,0E0,5.396287E0,0E0,1.0310316E0,0E0,0E0],"parents":[2147483647,0,0,2,2,4,4,6,6],"right_children":[2,-1,4,-1,6,-1,8,-1,-1],"split_conditions":[4.787603E-1,-4.6803564E-2,2.6247472E-1,-4.1818257E-2,6.7608384E-4,-3.34738E-2,6.865221E-1,-1.7083259E-3,4.8620857E-2],"split_indices":[2,0,6,0,1,0,3,0,0],"split_type":[0,0,0,0,0,0,0,0,0],"sum_hessian":[3.1215014E1,9.9442835E0,2.127073E1,3.792447E0,1.7478281E1,1.7536703E0,1.5724611E1,1.0168792E0,1.4707732E1],"tree_param":{"num_deleted":"0","num_feature":"7","num_nodes":"9","size_leaf_vector":"1"}},{"base_weights":[-2.922946E-2,-4.6225525E-2,3.8217825E-1,-4.4185873E-2,8.483649E-1,-2.460035E-2,4.8494373E-2],"categories":[],"categories_nodes":[],"categories_segments":[],"categories_sizes":[],"default_left":[0,0,0,0,0,0,0],"id":65,"left_children":[1,-1,3,-1,5,-1,-1],"loss_changes":[1.1657341E1,0E0,1.3576511E1,0E0,3.147747E0,0E0,0E0],"parents":[2147483647,0,0,2,2,4,4],"right_children":[2,-1,4,-1,6,-1,-1],"split_conditions":[6.7608384E-4,-4.6225525E-2,2.599099E-1,-4.4185873E-2,6.8198913E-1,-2.460035E-2,4.8494373E-2],"split_indices":[1,0,6,0,3,0,0],"split_type":[0,0,0,0,0,0,0],"sum_hessian":[2.9690277E1,8.955236E0,2.073504E1,5.3397393E0,1.5395302E1,1.0263338E0,1.4368968E1],"tree_param":{"num_deleted":"0","num_feature":"7","num_nodes":"7","size_leaf_vector":"1"}},{"base_weights":[-3.9798424E-2,-5.471211E-1,7.448152E-1,-8.942083E-1,4.6745434E-1,-5.8570276E-3,4.183381E-2,-4.7223542E-2,-7.6246164E-3,-1.7250348E-2,3.6943875E-2],"categories":[],"categories_nodes":[],"categories_segments":[],"categories_sizes":[],"default_left":[0,0,0,0,0,0,0,0,0,0,0],"id":66,"left_children":[1,3,5,7,9,-1,-1,-1,-1,-1,-1],"loss_changes":[1.2295715E1,7.0082703E0,1.0601554E0,3.8862228E-1,1.4516932E0,0E0,0E0,0E0,0E0,0E0,0E0],"parents":[2147483647,0,0,1,1,2,2,3,3,4,4],"right_children":[2,4,6,8,10,-1,-1,-1,-1,-1,-1],"split_conditions":[6.663221E-1,9.035709E-1,6.859806E-1,6.5270144E-1,4.050551E-1,-5.8570276E-3,4.183381E-2,-4.7223542E-2,-7.6246164E-3,-1.7250348E-2,3.6943875E-2],"split_indices":[2,3,3,2,5,0,0,0,0,0,0],"split_type":[0,0,0,0,0,0,0,0,0,0,0],"sum_hessian":[2.8865953E1,1.7714582E1,1.1151371E1,1.328754E1,4.427042E0,1.0474726E0,1.0103899E1,1.2188243E1,1.0992973E0,1.0407177E0,3.3863242E0],"tree_param":{"num_deleted":"0","num_feature":"7","num_nodes":"11","size_leaf_vector":"1"}},{"base_weights":[-4.868183E-2,-6.1693734E-1,7.3761654E-1,-4.4818122E-2,1.9120188E-1,-2.8902506E-2,4.6404526E-2,-2.4774263E-2,4.8901126E-1,3.1441968E-2,3.0183634E-3],"categories":[],"categories_nodes":[],"categories_segments":[],"categories_sizes":[],"default_left":[0,0,0,0,0,0,0,0,0,0,0],"id":67,"left_children":[1,3,5,-1,7,-1,-1,-1,9,-1,-1],"loss_changes":[1.2951907E1,3.960518E0,3.5909657E0,0E0,1.2924958E0,0E0,0E0,0E0,2.0689297E-1,0E0,0E0],"parents":[2147483647,0,0,1,1,2,2,4,4,8,8],"right_children":[2,4,6,-1,8,-1,-1,-1,10,-1,-1],"split_conditions":[6.663221E-1,6.4898074E-1,2.6247472E-1,-4.4818122E-2,4.787603E-1,-2.8902506E-2,4.6404526E-2,-2.4774263E-2,7.1392757E-1,3.1441968E-2,3.0183634E-3],"split_indices":[2,4,6,0,2,0,0,0,4,0,0],"split_type":[0,0,0,0,0,0,0,0,0,0,0],"sum_hessian":[2.6968512E1,1.577985E1,1.1188662E1,1.1644454E1,4.1353955E0,1.157643E0,1.0031018E1,1.0501649E0,3.0852306E0,1.9741869E0,1.1110438E0],"tree_param":{"num_deleted":"0","num_feature":"7","num_nodes":"11","size_leaf_vector":"1"}},{"base_weights":[-5.5017743E-2,-6.01995E-1,6.82948E-1,-4.640716E-2,4.667765E-1,-3.195746E-2,4.6101496E-2,-9.412815E-3,3.603917E-2],"categories":[],"categories_nodes":[],"categories_segments":[],"categories_sizes":[],"default_left":[0,0,0,0,0,0,0,0,0],"id":68,"left_children":[1,3,5,-1,7,-1,-1,-1,-1],"loss_changes":[1.1177406E1,5.958147E0,4.3262544E0,0E0,8.629934E-1,0E0,0E0,0E0,0E0],"parents":[2147483647,0,0,1,1,2,2,4,4],"right_children":[2,4,6,-1,8,-1,-1,-1,-1],"split_conditions":[6.6390204E-1,9.1671485E-1,2.6247472E-1,-4.640716E-2,4.857123E-1,-3.195746E-2,4.6101496E-2,-9.412815E-3,3.603917E-2],"split_indices":[2,3,6,0,2,0,0,0,0],"split_type":[0,0,0,0,0,0,0,0,0],"sum_hessian":[2.5672272E1,1.4849863E1,1.0822409E1,1.147861E1,3.3712537E0,1.4011043E0,9.421304E0,1.0143365E0,2.3569174E0],"tree_param":{"num_deleted":"0","num_feature":"7","num_nodes":"9","size_leaf_vector":"1"}},{"base_weights":[-4.1401725E-2,-5.744702E-1,6.837525E-1,-4.6639577E-2,3.7142408E-1,-3.0634416E-2,4.5165736E-2,3.364202E-2,-2.1244053E-2],"categories":[],"categories_nodes":[],"categories_segments":[],"categories_sizes":[],"default_left":[0,0,0,0,0,0,0,0,0],"id":69,"left_children":[1,3,5,-1,7,-1,-1,-1,-1],"loss_changes":[1.0668155E1,5.723089E0,3.8890882E0,0E0,1.5036201E0,0E0,0E0,0E0,0E0],"parents":[2147483647,0,0,1,1,2,2,4,4],"right_children":[2,4,6,-1,8,-1,-1,-1,-1],"split_conditions":[6.5965635E-1,9.035709E-1,2.599099E-1,-4.6639577E-2,3.462084E-1,-3.0634416E-2,4.5165736E-2,3.364202E-2,-2.1244053E-2],"split_indices":[2,3,6,0,6,0,0,0,0],"split_type":[0,0,0,0,0,0,0,0,0],"sum_hessian":[2.5581755E1,1.4863347E1,1.0718408E1,1.0789825E1,4.0735216E0,1.2930261E0,9.425382E0,3.0674732E0,1.0060484E0],"tree_param":{"num_deleted":"0","num_feature":"7","num_nodes":"9","size_leaf_vector":"1"}},{"base_weights":[-3.2310594E-2,-4.5351606E-2,3.8683337E-1,-3.9845828E-2,6.9268256E-1,-3.0200724E-2,8.910699E-1,4.7599785E-2,4.6491264E-3],"categories":[],"categories_nodes":[],"categories_segments":[],"categories_sizes":[],"default_left":[0,0,0,0,0,0,0,0,0],"id":70,"left_children":[1,-1,3,-1,5,-1,7,-1,-1],"loss_changes":[9.789237E0,0E0,7.106849E0,0E0,4.3770027E0,0E0,5.6043625E-1,0E0,0E0],"parents":[2147483647,0,0,2,2,4,4,6,6],"right_children":[2,-1,4,-1,6,-1,8,-1,-1],"split_conditions":[4.7516564E-1,-4.5351606E-2,2.6247472E-1,-3.9845828E-2,3.2975444E-1,-3.0200724E-2,4.8869264E-1,4.7599785E-2,4.6491264E-3],"split_indices":[2,0,6,0,4,0,6,0,0],"split_type":[0,0,0,0,0,0,0,0,0],"sum_hessian":[2.4743279E1,7.6384354E0,1.7104843E1,3.182356E0,1.3922487E1,1.5761102E0,1.2346376E1,1.1291537E1,1.0548395E0],"tree_param":{"num_deleted":"0","num_feature":"7","num_nodes":"9","size_leaf_vector":"1"}},{"base_weights":[-2.1331472E-2,-4.4587344E-2,4.1617006E-1,-3.890061E-2,7.2210646E-1,-2.8507143E-2,4.5885503E-2],"categories":[],"categories_nodes":[],"categories_segments":[],"categories_sizes":[],"default_left":[0,0,0,0,0,0,0],"id":71,"left_children":[1,-1,3,-1,5,-1,-1],"loss_changes":[9.667674E0,0E0,6.7464943E0,0E0,4.0606303E0,0E0,0E0],"parents":[2147483647,0,0,2,2,4,4],"right_children":[2,-1,4,-1,6,-1,-1],"split_conditions":[4.787603E-1,-4.4587344E-2,2.6247472E-1,-3.890061E-2,6.828434E-1,-2.8507143E-2,4.5885503E-2],"split_indices":[2,0,6,0,3,0,0],"split_type":[0,0,0,0,0,0,0],"sum_hessian":[2.3412706E1,7.484305E0,1.5928401E1,2.9337692E0,1.2994632E1,1.4566343E0,1.1537997E1],"tree_param":{"num_deleted":"0","num_feature":"7","num_nodes":"7","size_leaf_vector":"1"}},{"base_weights":[-3.4307703E-2,-4.46649E-2,3.7631723E-1,-3.8794678E-2,6.78998E-1,-2.8735144E-2,8.9021105E-1,4.7017287E-2,8.7668E-3],"categories":[],"categories_nodes":[],"categories_segments":[],"categories_sizes":[],"default_left":[0,0,0,0,0,0,0,0,0],"id":72,"left_children":[1,-1,3,-1,5,-1,7,-1,-1],"loss_changes":[8.612859E0,0E0,6.308979E0,0E0,4.1296935E0,0E0,2.6828098E-1,0E0,0E0],"parents":[2147483647,0,0,2,2,4,4,6,6],"right_children":[2,-1,4,-1,6,-1,8,-1,-1],"split_conditions":[4.787603E-1,-4.46649E-2,2.599099E-1,-3.8794678E-2,3.2975444E-1,-2.8735144E-2,4.8797062E-1,4.7017287E-2,8.7668E-3],"split_indices":[2,0,6,0,4,0,6,0,0],"split_type":[0,0,0,0,0,0,0,0,0],"sum_hessian":[2.2465155E1,6.885613E0,1.557954E1,2.915966E0,1.2663574E1,1.5777186E0,1.10858555E1,1.0064618E1,1.0212379E0],"tree_param":{"num_deleted":"0","num_feature":"7","num_nodes":"9","size_leaf_vector":"1"}},{"base_weights":[-3.1187007E-2,-4.443483E-2,3.7287363E-1,-4.179213E-2,8.505824E-1,-1.5367176E-3,4.68868E-2],"categories":[],"categories_nodes":[],"categories_segments":[],"categories_sizes":[],"default_left":[0,0,0,0,0,0,0],"id":73,"left_children":[1,-1,3,-1,5,-1,-1],"loss_changes":[8.136452E0,0E0,9.9588175E0,0E0,9.486046E-1,0E0,0E0],"parents":[2147483647,0,0,2,2,4,4],"right_children":[2,-1,4,-1,6,-1,-1],"split_conditions":[6.7608384E-4,-4.443483E-2,2.6247472E-1,-4.179213E-2,6.8813425E-1,-1.5367176E-3,4.68868E-2],"split_indices":[1,0,6,0,3,0,0],"split_type":[0,0,0,0,0,0,0],"sum_hessian":[2.1526402E1,6.510407E0,1.5015995E1,4.041175E0,1.0974819E1,1.0458916E0,9.928928E0],"tree_param":{"num_deleted":"0","num_feature":"7","num_nodes":"7","size_leaf_vector":"1"}},{"base_weights":[-5.8057126E-2,-5.58518E-1,6.076667E-1,-8.675323E-1,3.200919E-2,-3.0082682E-2,4.275181E-2,-4.555738E-2,-1.1601982E-2],"categories":[],"categories_nodes":[],"categories_segments":[],"categories_sizes":[],"default_left":[0,0,0,0,0,0,0,0,0],"id":74,"left_children":[1,3,5,7,-1,-1,-1,-1,-1],"loss_changes":[7.609403E0,5.3624983E0,3.4590166E0,8.6325645E-2,0E0,0E0,0E0,0E0,0E0],"parents":[2147483647,0,0,1,1,2,2,3,3],"right_children":[2,4,6,8,-1,-1,-1,-1,-1],"split_conditions":[6.5965635E-1,9.260101E-1,2.599099E-1,9.035709E-1,3.200919E-2,-3.0082682E-2,4.275181E-2,-4.555738E-2,-1.1601982E-2],"split_indices":[2,3,6,3,0,0,0,0,0],"split_type":[0,0,0,0,0,0,0,0,0],"sum_hessian":[2.082081E1,1.1977618E1,8.843192E0,9.742392E0,2.235226E0,1.2585053E0,7.5846863E0,8.710786E0,1.0316062E0],"tree_param":{"num_deleted":"0","num_feature":"7","num_nodes":"9","size_leaf_vector":"1"}},{"base_weights":[-1.3986175E-2,-4.406346E-2,3.978035E-1,-4.0198736E-2,8.300831E-1,-3.6686237E-3,4.6292547E-2],"categories":[],"categories_nodes":[],"categories_segments":[],"categories_sizes":[],"default_left":[0,0,0,0,0,0,0],"id":75,"left_children":[1,-1,3,-1,5,-1,-1],"loss_changes":[7.94168E0,0E0,8.512571E0,0E0,1.0714474E0,0E0,0E0],"parents":[2147483647,0,0,2,2,4,4],"right_children":[2,-1,4,-1,6,-1,-1],"split_conditions":[6.7608384E-4,-4.406346E-2,2.6247472E-1,-4.0198736E-2,1.7498986E-1,-3.6686237E-3,4.6292547E-2],"split_indices":[1,0,6,0,0,0,0],"split_type":[0,0,0,0,0,0,0],"sum_hessian":[2.0255383E1,6.15405E0,1.4101332E1,3.5029502E0,1.0598382E1,1.0381862E0,9.560196E0],"tree_param":{"num_deleted":"0","num_feature":"7","num_nodes":"7","size_leaf_vector":"1"}},{"base_weights":[-3.324912E-2,-5.515665E-1,6.6249114E-1,-4.45478E-2,1.4931001E-1,-2.2404965E-2,4.2936187E-2,-2.2981694E-2,4.454463E-1,2.7985308E-2,4.0723067E-3],"categories":[],"categories_nodes":[],"categories_segments":[],"categories_sizes":[],"default_left":[0,0,0,0,0,0,0,0,0,0,0],"id":76,"left_children":[1,3,5,-1,7,-1,-1,-1,9,-1,-1],"loss_changes":[7.567897E0,2.9854531E0,2.3421278E0,0E0,1.0646899E0,0E0,0E0,0E0,1.08976066E-1,0E0,0E0],"parents":[2147483647,0,0,1,1,2,2,4,4,8,8],"right_children":[2,4,6,-1,8,-1,-1,-1,10,-1,-1],"split_conditions":[6.5965635E-1,6.092064E-1,2.7429813E-1,-4.45478E-2,4.8051357E-1,-2.2404965E-2,4.2936187E-2,-2.2981694E-2,7.068214E-1,2.7985308E-2,4.0723067E-3],"split_indices":[2,4,6,0,2,0,0,0,4,0,0],"split_type":[0,0,0,0,0,0,0,0,0,0,0],"sum_hessian":[1.8972836E1,1.0991521E1,7.981315E0,7.2227864E0,3.7687342E0,1.0057424E0,6.9755726E0,1.0524608E0,2.7162733E0,1.6581316E0,1.0581418E0],"tree_param":{"num_deleted":"0","num_feature":"7","num_nodes":"11","size_leaf_vector":"1"}},{"base_weights":[-1.0059292E-2,-4.311267E-2,3.901667E-1,-3.6347043E-2,6.7634314E-1,-2.7189637E-2,8.708057E-1,4.576096E-2,1.2474165E-2],"categories":[],"categories_nodes":[],"categories_segments":[],"categories_sizes":[],"default_left":[0,0,0,0,0,0,0,0,0],"id":77,"left_children":[1,-1,3,-1,5,-1,7,-1,-1],"loss_changes":[7.015972E0,0E0,4.9718676E0,0E0,3.2435045E0,0E0,6.014347E-2,0E0,0E0],"parents":[2147483647,0,0,2,2,4,4,6,6],"right_children":[2,-1,4,-1,6,-1,8,-1,-1],"split_conditions":[4.7516564E-1,-4.311267E-2,2.6247472E-1,-3.6347043E-2,6.8198913E-1,-2.7189637E-2,4.8492858E-1,4.576096E-2,1.2474165E-2],"split_indices":[2,0,6,0,3,0,6,0,0],"split_type":[0,0,0,0,0,0,0,0,0],"sum_hessian":[1.8584091E1,5.569864E0,1.3014228E1,2.3399403E0,1.0674287E1,1.2204304E0,9.453856E0,8.381696E0,1.072161E0],"tree_param":{"num_deleted":"0","num_feature":"7","num_nodes":"9","size_leaf_vector":"1"}},{"base_weights":[-3.996348E-2,-4.3125853E-2,3.587304E-1,7.7256364E-1,-3.0051202E-1,-1.2699137E-3,4.4230543E-2,5.594484E-2,-3.3569206E-2,-2.8005362E-2,3.0645622E-2],"categories":[],"categories_nodes":[],"categories_segments":[],"categories_sizes":[],"default_left":[0,0,0,0,0,0,0,0,0,0,0],"id":78,"left_children":[1,-1,3,5,7,-1,-1,9,-1,-1,-1],"loss_changes":[6.4426546E0,0E0,3.8613524E0,7.7820253E-1,8.109495E-1,0E0,0E0,1.6835717E0,0E0,0E0,0E0],"parents":[2147483647,0,0,2,2,3,3,4,4,7,7],"right_children":[2,-1,4,6,8,-1,-1,10,-1,-1,-1],"split_conditions":[6.7608384E-4,-4.3125853E-2,5.0722456E-1,1.8103528E-1,6.4028114E-1,-1.2699137E-3,4.4230543E-2,1.398873E-1,-3.3569206E-2,-2.8005362E-2,3.0645622E-2],"split_indices":[1,0,5,0,5,0,0,1,0,0,0],"split_type":[0,0,0,0,0,0,0,0,0,0,0],"sum_hessian":[1.770193E1,5.3992558E0,1.2302673E1,7.452525E0,4.8501487E0,1.0128288E0,6.4396963E0,2.9061294E0,1.9440193E0,1.3771977E0,1.5289315E0],"tree_param":{"num_deleted":"0","num_feature":"7","num_nodes":"11","size_leaf_vector":"1"}},{"base_weights":[-2.5792692E-2,-4.268459E-2,3.632418E-1,-3.890061E-2,7.87476E-1,-7.923577E-3,4.566768E-2],"categories":[],"categories_nodes":[],"categories_segments":[],"categories_sizes":[],"default_left":[0,0,0,0,0,0,0],"id":79,"left_children":[1,-1,3,-1,5,-1,-1],"loss_changes":[6.162318E0,0E0,6.937166E0,0E0,1.3378472E0,0E0,0E0],"parents":[2147483647,0,0,2,2,4,4],"right_children":[2,-1,4,-1,6,-1,-1],"split_conditions":[6.7608384E-4,-4.268459E-2,2.6247472E-1,-3.890061E-2,3.374768E-1,-7.923577E-3,4.566768E-2],"split_indices":[1,0,6,0,4,0,0],"split_type":[0,0,0,0,0,0,0],"sum_hessian":[1.7170015E1,5.107157E0,1.2062859E1,3.0429482E0,9.019911E0,1.0289091E0,7.991001E0],"tree_param":{"num_deleted":"0","num_feature":"7","num_nodes":"7","size_leaf_vector":"1"}},{"base_weights":[-8.0753185E-2,-5.6540245E-1,6.34302E-1,-4.21749E-2,1.8390128E-1,-1.8199885E-2,4.260457E-2,-9.932964E-3,2.0342648E-2],"categories":[],"categories_nodes":[],"categories_segments":[],"categories_sizes":[],"default_left":[0,0,0,0,0,0,0,0,0],"id":80,"left_children":[1,3,5,-1,7,-1,-1,-1,-1],"loss_changes":[6.261668E0,2.3808527E0,1.90872E0,0E0,3.9744696E-1,0E0,0E0,0E0,0E0],"parents":[2147483647,0,0,1,1,2,2,4,4],"right_children":[2,4,6,-1,8,-1,-1,-1,-1],"split_conditions":[6.663221E-1,6.4898074E-1,2.759005E-1,-4.21749E-2,4.8809466E-1,-1.8199885E-2,4.260457E-2,-9.932964E-3,2.0342648E-2],"split_indices":[2,4,6,0,2,0,0,0,0],"split_type":[0,0,0,0,0,0,0,0,0],"sum_hessian":[1.6033663E1,9.681223E0,6.3524394E0,6.9690356E0,2.7121875E0,1.01743E0,5.3350096E0,1.0387555E0,1.6734319E0],"tree_param":{"num_deleted":"0","num_feature":"7","num_nodes":"9","size_leaf_vector":"1"}},{"base_weights":[-5.4866586E-2,-4.058586E-2,2.846469E-1,5.4570353E-1,-3.4422558E-2,-3.404418E-2,4.4470802E-2],"categories":[],"categories_nodes":[],"categories_segments":[],"categories_sizes":[],"default_left":[0,0,0,0,0,0,0],"id":81,"left_children":[1,-1,3,5,-1,-1,-1],"loss_changes":[4.608414E0,0E0,3.5511594E0,4.9960184E0,0E0,0E0,0E0],"parents":[2147483647,0,0,2,2,3,3],"right_children":[2,-1,4,6,-1,-1,-1],"split_conditions":[3.2975444E-1,-4.058586E-2,5.149395E-1,2.4317104E-1,-3.4422558E-2,-3.404418E-2,4.4470802E-2],"split_indices":[4,0,6,6,0,0,0],"split_type":[0,0,0,0,0,0,0],"sum_hessian":[1.6035118E1,4.5349307E0,1.1500188E1,9.413897E0,2.086291E0,1.8458279E0,7.568069E0],"tree_param":{"num_deleted":"0","num_feature":"7","num_nodes":"7","size_leaf_vector":"1"}},{"base_weights":[-6.317593E-2,-5.1914567E-1,6.0412675E-1,-4.216301E-2,-1.0022114E-1,-2.2931678E-2,4.246488E-2,2.7201567E-2,-3.207609E-2],"categories":[],"categories_nodes":[],"categories_segments":[],"categories_sizes":[],"default_left":[0,0,0,0,0,0,0,0,0],"id":82,"left_children":[1,3,5,-1,7,-1,-1,-1,-1],"loss_changes":[5.408415E0,1.3391521E0,2.2809525E0,0E0,2.339758E0,0E0,0E0,0E0,0E0],"parents":[2147483647,0,0,1,1,2,2,4,4],"right_children":[2,4,6,-1,8,-1,-1,-1,-1],"split_conditions":[6.6390204E-1,6.7608384E-4,2.7429813E-1,-4.216301E-2,1.6274469E-2,-2.2931678E-2,4.246488E-2,2.7201567E-2,-3.207609E-2],"split_indices":[2,1,6,0,1,0,0,0,0],"split_type":[0,0,0,0,0,0,0,0,0],"sum_hessian":[1.5744299E1,9.485117E0,6.2591825E0,4.7766156E0,4.708501E0,1.010073E0,5.2491093E0,2.1475074E0,2.5609937E0],"tree_param":{"num_deleted":"0","num_feature":"7","num_nodes":"9","size_leaf_vector":"1"}},{"base_weights":[-2.4565926E-2,-5.150847E-1,6.299951E-1,-4.3480176E-2,2.944544E-1,-5.537143E-3,3.8105395E-2,-8.918329E-3,2.9151184E-2],"categories":[],"categories_nodes":[],"categories_segments":[],"categories_sizes":[],"default_left":[0,0,0,0,0,0,0,0,0],"id":83,"left_children":[1,3,5,-1,7,-1,-1,-1,-1],"loss_changes":[5.577034E0,3.0977848E0,8.142102E-1,0E0,6.1736965E-1,0E0,0E0,0E0,0E0],"parents":[2147483647,0,0,1,1,2,2,4,4],"right_children":[2,4,6,-1,8,-1,-1,-1,-1],"split_conditions":[6.5965635E-1,9.035709E-1,6.872723E-1,-4.3480176E-2,4.8996288E-1,-5.537143E-3,3.8105395E-2,-8.918329E-3,2.9151184E-2],"split_indices":[2,3,3,0,2,0,0,0,0],"split_type":[0,0,0,0,0,0,0,0,0],"sum_hessian":[1.5359237E1,8.901593E0,6.4576435E0,6.138975E0,2.7626178E0,1.0018977E0,5.4557457E0,1.1917796E0,1.5708382E0],"tree_param":{"num_deleted":"0","num_feature":"7","num_nodes":"9","size_leaf_vector":"1"}},{"base_weights":[-5.2984048E-2,-4.9979442E-1,5.8465916E-1,-4.1113555E-2,1.2490536E-1,3.9460197E-2,1.0752971E-1,-2.0655472E-2,2.1662962E-2,-2.0443754E-2,2.716113E-2],"categories":[],"categories_nodes":[],"categories_segments":[],"categories_sizes":[],"default_left":[0,0,0,0,0,0,0,0,0,0,0],"id":84,"left_children":[1,3,5,-1,7,-1,9,-1,-1,-1,-1],"loss_changes":[4.655852E0,2.0255113E0,5.759795E-1,0E0,8.6211425E-1,0E0,9.397424E-1,0E0,0E0,0E0,0E0],"parents":[2147483647,0,0,1,1,2,2,4,4,6,6],"right_children":[2,4,6,-1,8,-1,10,-1,-1,-1,-1],"split_conditions":[6.663221E-1,6.092064E-1,4.9393173E-2,-4.1113555E-2,4.8234686E-1,3.9460197E-2,9.7248876E-1,-2.0655472E-2,2.1662962E-2,-2.0443754E-2,2.716113E-2],"split_indices":[2,4,1,0,2,0,2,0,0,0,0],"split_type":[0,0,0,0,0,0,0,0,0,0,0],"sum_hessian":[1.4316097E1,8.544774E0,5.771323E0,5.427022E0,3.1177526E0,3.5817606E0,2.1895626E0,1.0121068E0,2.1056457E0,1.0301409E0,1.1594218E0],"tree_param":{"num_deleted":"0","num_feature":"7","num_nodes":"11","size_leaf_vector":"1"}},{"base_weights":[-4.5987688E-2,-5.216399E-1,5.738243E-1,-7.943048E-1,2.4239829E-2,3.9268445E-2,8.2753554E-2,-4.2611785E-2,-1.0623955E-2,-2.2739418E-2,2.7289484E-2],"categories":[],"categories_nodes":[],"categories_segments":[],"categories_sizes":[],"default_left":[0,0,0,0,0,0,0,0,0,0,0],"id":85,"left_children":[1,3,5,7,-1,-1,9,-1,-1,-1,-1],"loss_changes":[4.6692243E0,2.8302586E0,6.530638E-1,6.800175E-2,0E0,0E0,1.0444283E0,0E0,0E0,0E0,0E0],"parents":[2147483647,0,0,1,1,2,2,3,3,6,6],"right_children":[2,4,6,8,-1,-1,10,-1,-1,-1,-1],"split_conditions":[6.5965635E-1,9.2350876E-1,4.3385988E-1,8.9421904E-1,2.4239829E-2,3.9268445E-2,9.715073E-1,-4.2611785E-2,-1.0623955E-2,-2.2739418E-2,2.7289484E-2],"split_indices":[2,3,5,3,0,0,2,0,0,0,0],"split_type":[0,0,0,0,0,0,0,0,0,0,0],"sum_hessian":[1.3822502E1,7.9103675E0,5.9121346E0,6.389966E0,1.5204017E0,3.7132378E0,2.198897E0,5.388669E0,1.0012969E0,1.0258234E0,1.1730734E0],"tree_param":{"num_deleted":"0","num_feature":"7","num_nodes":"11","size_leaf_vector":"1"}},{"base_weights":[-4.335701E-2,-4.1032966E-2,3.3043954E-1,-3.7378307E-2,7.6714987E-1,-7.734989E-4,4.397438E-2],"categories":[],"categories_nodes":[],"categories_segments":[],"categories_sizes":[],"default_left":[0,0,0,0,0,0,0],"id":86,"left_children":[1,-1,3,-1,5,-1,-1],"loss_changes":[4.6246514E0,0E0,5.672368E0,0E0,7.346778E-1,0E0,0E0],"parents":[2147483647,0,0,2,2,4,4],"right_children":[2,-1,4,-1,6,-1,-1],"split_conditions":[6.7608384E-4,-4.1032966E-2,2.6247472E-1,-3.7378307E-2,3.412577E-1,-7.734989E-4,4.397438E-2],"split_indices":[1,0,6,0,4,0,0],"split_type":[0,0,0,0,0,0,0],"sum_hessian":[1.3983409E1,4.15263E0,9.830779E0,2.6291049E0,7.2016745E0,1.0122126E0,6.189462E0],"tree_param":{"num_deleted":"0","num_feature":"7","num_nodes":"7","size_leaf_vector":"1"}},{"base_weights":[1.4789556E-2,-3.972297E-2,3.8055825E-1,-3.140643E-2,6.3882846E-1,-1.8561862E-2,8.189355E-1,4.3606196E-2,1.220564E-2],"categories":[],"categories_nodes":[],"categories_segments":[],"categories_sizes":[],"default_left":[0,0,0,0,0,0,0,0,0],"id":87,"left_children":[1,-1,3,-1,5,-1,7,-1,-1],"loss_changes":[4.425544E0,0E0,3.076685E0,0E0,1.8816392E0,0E0,2.165556E-2,0E0,0E0],"parents":[2147483647,0,0,2,2,4,4,6,6],"right_children":[2,-1,4,-1,6,-1,8,-1,-1],"split_conditions":[4.7516564E-1,-3.972297E-2,2.6247472E-1,-3.140643E-2,6.8456393E-1,-1.8561862E-2,4.827211E-1,4.3606196E-2,1.220564E-2],"split_indices":[2,0,6,0,3,0,6,0,0],"split_type":[0,0,0,0,0,0,0,0,0],"sum_hessian":[1.2929846E1,3.660066E0,9.26978E0,1.5977256E0,7.6720543E0,1.0004103E0,6.6716437E0,5.6331987E0,1.038445E0],"tree_param":{"num_deleted":"0","num_feature":"7","num_nodes":"9","size_leaf_vector":"1"}},{"base_weights":[-5.2185576E-2,-5.2018756E-1,5.5630237E-1,-7.691776E-1,2.2461945E-2,-1.8333836E-2,3.960455E-2,-4.2004388E-2,-9.41117E-3],"categories":[],"categories_nodes":[],"categories_segments":[],"categories_sizes":[],"default_left":[0,0,0,0,0,0,0,0,0],"id":88,"left_children":[1,3,5,7,-1,-1,-1,-1,-1],"loss_changes":[4.237054E0,2.361669E0,1.7071819E0,1.3083744E-1,0E0,0E0,0E0,0E0,0E0],"parents":[2147483647,0,0,1,1,2,2,3,3],"right_children":[2,4,6,8,-1,-1,-1,-1,-1],"split_conditions":[6.5965635E-1,9.260101E-1,2.759005E-1,8.9797175E-1,2.2461945E-2,-1.8333836E-2,3.960455E-2,-4.2004388E-2,-9.41117E-3],"split_indices":[2,3,6,3,0,0,0,0,0],"split_type":[0,0,0,0,0,0,0,0,0],"sum_hessian":[1.2862496E1,7.3525767E0,5.5099196E0,6.014389E0,1.3381876E0,1.008216E0,4.5017037E0,4.9626145E0,1.0517747E0],"tree_param":{"num_deleted":"0","num_feature":"7","num_nodes":"9","size_leaf_vector":"1"}},{"base_weights":[-2.905568E-2,-3.9422225E-2,3.2759932E-1,-3.5787914E-2,7.519264E-1,1.7780695E-3,4.298572E-2],"categories":[],"categories_nodes":[],"categories_segments":[],"categories_sizes":[],"default_left":[0,0,0,0,0,0,0],"id":89,"left_children":[1,-1,3,-1,5,-1,-1],"loss_changes":[3.8251982E0,0E0,4.818274E0,0E0,5.377512E-1,0E0,0E0],"parents":[2147483647,0,0,2,2,4,4],"right_children":[2,-1,4,-1,6,-1,-1],"split_conditions":[6.7608384E-4,-3.9422225E-2,2.599099E-1,-3.5787914E-2,3.433036E-1,1.7780695E-3,4.298572E-2],"split_indices":[1,0,6,0,4,0,0],"split_type":[0,0,0,0,0,0,0],"sum_hessian":[1.2169794E1,3.5022175E0,8.667577E0,2.3073463E0,6.3602304E0,1.0057663E0,5.354464E0],"tree_param":{"num_deleted":"0","num_feature":"7","num_nodes":"7","size_leaf_vector":"1"}},{"base_weights":[-4.276658E-2,-3.9546903E-2,3.1761423E-1,-2.8972788E-2,5.4347646E-1,7.293436E-1,2.8443363E-2,7.0358436E-3,4.0999573E-2,-2.6487751E-2,2.712726E-2],"categories":[],"categories_nodes":[],"categories_segments":[],"categories_sizes":[],"default_left":[0,0,0,0,0,0,0,0,0,0,0],"id":90,"left_children":[1,-1,3,-1,5,7,9,-1,-1,-1,-1],"loss_changes":[3.782386E0,0E0,2.250382E0,0E0,7.5916076E-1,2.0188212E-1,1.206028E0,0E0,0E0,0E0,0E0],"parents":[2147483647,0,0,2,2,4,4,5,5,6,6],"right_children":[2,-1,4,-1,6,8,10,-1,-1,-1,-1],"split_conditions":[4.7516564E-1,-3.9546903E-2,6.8198913E-1,-2.8972788E-2,4.9393173E-2,3.958721E-3,6.900711E-1,7.0358436E-3,4.0999573E-2,-2.6487751E-2,2.712726E-2],"split_indices":[2,0,3,0,1,1,2,0,0,0,0],"split_type":[0,0,0,0,0,0,0,0,0,0,0],"sum_hessian":[1.2096527E1,3.544081E0,8.552446E0,1.4053217E0,7.147125E0,4.9460607E0,2.201064E0,1.0006474E0,3.9454134E0,1.0406767E0,1.1603873E0],"tree_param":{"num_deleted":"0","num_feature":"7","num_nodes":"11","size_leaf_vector":"1"}},{"base_weights":[-6.768754E-2,-4.9763325E-1,5.981334E-1,-7.064755E-1,2.0471426E-2,3.657637E-2,1.0084254E-2,-3.7897404E-2,-1.02424575E-2],"categories":[],"categories_nodes":[],"categories_segments":[],"categories_sizes":[],"default_left":[0,0,0,0,0,0,0,0,0],"id":91,"left_children":[1,3,5,7,-1,-1,-1,-1,-1],"loss_changes":[3.8996484E0,1.8409822E0,1.3756895E-1,2.6129246E-2,0E0,0E0,0E0,0E0,0E0],"parents":[2147483647,0,0,1,1,2,2,3,3],"right_children":[2,4,6,8,-1,-1,-1,-1,-1],"split_conditions":[6.663221E-1,9.260101E-1,4.3385988E-1,8.96383E-1,2.0471426E-2,3.657637E-2,1.0084254E-2,-3.7897404E-2,-1.02424575E-2],"split_indices":[2,3,5,3,0,0,0,0,0],"split_type":[0,0,0,0,0,0,0,0,0],"sum_hessian":[1.1582655E1,7.19146E0,4.3911953E0,6.0253253E0,1.1661345E0,2.6532476E0,1.7379475E0,5.0011663E0,1.0241591E0],"tree_param":{"num_deleted":"0","num_feature":"7","num_nodes":"9","size_leaf_vector":"1"}},{"base_weights":[-4.3955743E-2,-3.9164584E-2,3.2186055E-1,-2.862671E-2,5.5104965E-1,4.142316E-2,-6.880782E-2,-2.8644806E-2,2.5732E-2],"categories":[],"categories_nodes":[],"categories_segments":[],"categories_sizes":[],"default_left":[0,0,0,0,0,0,0,0,0],"id":92,"left_children":[1,-1,3,-1,5,-1,7,-1,-1],"loss_changes":[3.5521216E0,0E0,2.1340027E0,0E0,1.3589528E0,0E0,1.2548634E0,0E0,0E0],"parents":[2147483647,0,0,2,2,4,4,6,6],"right_children":[2,-1,4,-1,6,-1,8,-1,-1],"split_conditions":[6.7608384E-4,-3.9164584E-2,6.734346E-1,-2.862671E-2,4.9393173E-2,4.142316E-2,6.900711E-1,-2.8644806E-2,2.5732E-2],"split_indices":[1,0,3,0,1,0,2,0,0],"split_type":[0,0,0,0,0,0,0,0,0],"sum_hessian":[1.1201424E1,3.330028E0,7.8713956E0,1.3000302E0,6.5713654E0,4.307176E0,2.2641895E0,1.224408E0,1.0397813E0],"tree_param":{"num_deleted":"0","num_feature":"7","num_nodes":"9","size_leaf_vector":"1"}},{"base_weights":[-3.2187633E-2,-3.874762E-2,3.3638728E-1,-3.430576E-2,7.579136E-1,7.912129E-3,4.1928932E-2],"categories":[],"categories_nodes":[],"categories_segments":[],"categories_sizes":[],"default_left":[0,0,0,0,0,0,0],"id":93,"left_children":[1,-1,3,-1,5,-1,-1],"loss_changes":[3.4716148E0,0E0,4.1992493E0,0E0,1.8266988E-1,0E0,0E0],"parents":[2147483647,0,0,2,2,4,4],"right_children":[2,-1,4,-1,6,-1,-1],"split_conditions":[6.7608384E-4,-3.874762E-2,2.599099E-1,-3.430576E-2,6.9291633E-1,7.912129E-3,4.1928932E-2],"split_indices":[1,0,6,0,3,0,0],"split_type":[0,0,0,0,0,0,0],"sum_hessian":[1.0728808E1,3.1925364E0,7.536272E0,2.016683E0,5.5195894E0,1.0055993E0,4.51399E0],"tree_param":{"num_deleted":"0","num_feature":"7","num_nodes":"7","size_leaf_vector":"1"}},{"base_weights":[-6.107604E-2,-4.6280408E-1,5.285942E-1,-3.6223806E-2,2.1154437E-2,3.510899E-2,6.6997134E-3],"categories":[],"categories_nodes":[],"categories_segments":[],"categories_sizes":[],"default_left":[0,0,0,0,0,0,0],"id":94,"left_children":[1,3,5,-1,-1,-1,-1],"loss_changes":[2.9548976E0,2.007616E0,2.554468E-1,0E0,0E0,0E0,0E0],"parents":[2147483647,0,0,1,1,2,2],"right_children":[2,4,6,-1,-1,-1,-1],"split_conditions":[6.663221E-1,9.2350876E-1,4.9393173E-2,-3.6223806E-2,2.1154437E-2,3.510899E-2,6.6997134E-3],"split_indices":[2,3,1,0,0,0,0],"split_type":[0,0,0,0,0,0,0],"sum_hessian":[1.0441156E1,6.338225E0,4.1029315E0,5.0336194E0,1.3046055E0,2.3081133E0,1.7948182E0],"tree_param":{"num_deleted":"0","num_feature":"7","num_nodes":"7","size_leaf_vector":"1"}},{"base_weights":[-3.640521E-2,-3.771655E-2,3.0287573E-1,-3.066112E-2,5.876857E-1,-1.2841477E-2,3.8864765E-2],"categories":[],"categories_nodes":[],"categories_segments":[],"categories_sizes":[],"default_left":[0,0,0,0,0,0,0],"id":95,"left_children":[1,-1,3,-1,5,-1,-1],"loss_changes":[2.9917843E0,0E0,2.5566049E0,0E0,1.3096027E0,0E0,0E0],"parents":[2147483647,0,0,2,2,4,4],"right_children":[2,-1,4,-1,6,-1,-1],"split_conditions":[4.7516564E-1,-3.771655E-2,2.6247472E-1,-3.066112E-2,6.865221E-1,-1.2841477E-2,3.8864765E-2],"split_indices":[2,0,6,0,3,0,0],"split_type":[0,0,0,0,0,0,0],"sum_hessian":[1.0344662E1,2.9272385E0,7.417423E0,1.4856622E0,5.9317603E0,1.0226027E0,4.9091578E0],"tree_param":{"num_deleted":"0","num_feature":"7","num_nodes":"7","size_leaf_vector":"1"}},{"base_weights":[-4.5454666E-2,-3.7562802E-2,2.9292887E-1,-3.393433E-2,7.105069E-1,3.6783412E-3,4.10381E-2],"categories":[],"categories_nodes":[],"categories_segments":[],"categories_sizes":[],"default_left":[0,0,0,0,0,0,0],"id":96,"left_children":[1,-1,3,-1,5,-1,-1],"loss_changes":[2.8371031E0,0E0,3.7791939E0,0E0,3.7305665E-1,0E0,0E0],"parents":[2147483647,0,0,2,2,4,4],"right_children":[2,-1,4,-1,6,-1,-1],"split_conditions":[6.7608384E-4,-3.7562802E-2,2.599099E-1,-3.393433E-2,6.9118214E-1,3.6783412E-3,4.10381E-2],"split_indices":[1,0,6,0,3,0,0],"split_type":[0,0,0,0,0,0,0],"sum_hessian":[9.957675E0,2.83153E0,7.126145E0,1.954093E0,5.172052E0,1.0091965E0,4.1628556E0],"tree_param":{"num_deleted":"0","num_feature":"7","num_nodes":"7","size_leaf_vector":"1"}},{"base_weights":[-4.0555175E-2,-4.7290844E-1,5.0843817E-1,-3.9845977E-2,1.2351963E-2,-1.0551341E-2,3.665013E-2],"categories":[],"categories_nodes":[],"categories_segments":[],"categories_sizes":[],"default_left":[0,0,0,0,0,0,0],"id":97,"left_children":[1,3,5,-1,-1,-1,-1],"loss_changes":[2.8239424E0,1.7381194E0,1.0073048E0,0E0,0E0,0E0,0E0],"parents":[2147483647,0,0,1,1,2,2],"right_children":[2,4,6,-1,-1,-1,-1],"split_conditions":[6.5965635E-1,9.035709E-1,2.7738878E-1,-3.9845977E-2,1.2351963E-2,-1.0551341E-2,3.665013E-2],"split_indices":[2,3,6,0,0,0,0],"split_type":[0,0,0,0,0,0,0],"sum_hessian":[9.884344E0,5.6071157E0,4.2772284E0,3.7931173E0,1.8139985E0,1.0318012E0,3.245427E0],"tree_param":{"num_deleted":"0","num_feature":"7","num_nodes":"7","size_leaf_vector":"1"}},{"base_weights":[-9.6554635E-3,-3.6461663E-2,3.2831627E-1,5.5258375E-1,-2.6447926E-2,1.3483148E-3,3.8453348E-2],"categories":[],"categories_nodes":[],"categories_segments":[],"categories_sizes":[],"default_left":[0,0,0,0,0,0,0],"id":98,"left_children":[1,-1,3,5,-1,-1,-1],"loss_changes":[2.7069776E0,0E0,1.752177E0,7.1977293E-1,0E0,0E0,0E0],"parents":[2147483647,0,0,2,2,3,3],"right_children":[2,-1,4,6,-1,-1,-1],"split_conditions":[6.7608384E-4,-3.6461663E-2,6.4028114E-1,7.343329E-1,-2.6447926E-2,1.3483148E-3,3.8453348E-2],"split_indices":[1,0,5,3,0,0,0],"split_type":[0,0,0,0,0,0,0],"sum_hessian":[9.1463375E0,2.5530174E0,6.5933204E0,5.5078554E0,1.0854651E0,1.9347881E0,3.5730674E0],